tree
version=v4
num_class=1
num_tree_per_iteration=1
label_index=0
max_feature_idx=300
objective=binary sigmoid:1
feature_names=Column_0 Column_1 Column_2 Column_3 Column_4 Column_5 Column_6 Column_7 Column_8 Column_9 Column_10 Column_11 Column_12 Column_13 Column_14 Column_15 Column_16 Column_17 Column_18 Column_19 Column_20 Column_21 Column_22 Column_23 Column_24 Column_25 Column_26 Column_27 Column_28 Column_29 Column_30 Column_31 Column_32 Column_33 Column_34 Column_35 Column_36 Column_37 Column_38 Column_39 Column_40 Column_41 Column_42 Column_43 Column_44 Column_45 Column_46 Column_47 Column_48 Column_49 Column_50 Column_51 Column_52 Column_53 Column_54 Column_55 Column_56 Column_57 Column_58 Column_59 Column_60 Column_61 Column_62 Column_63 Column_64 Column_65 Column_66 Column_67 Column_68 Column_69 Column_70 Column_71 Column_72 Column_73 Column_74 Column_75 Column_76 Column_77 Column_78 Column_79 Column_80 Column_81 Column_82 Column_83 Column_84 Column_85 Column_86 Column_87 Column_88 Column_89 Column_90 Column_91 Column_92 Column_93 Column_94 Column_95 Column_96 Column_97 Column_98 Column_99 Column_100 Column_101 Column_102 Column_103 Column_104 Column_105 Column_106 Column_107 Column_108 Column_109 Column_110 Column_111 Column_112 Column_113 Column_114 Column_115 Column_116 Column_117 Column_118 Column_119 Column_120 Column_121 Column_122 Column_123 Column_124 Column_125 Column_126 Column_127 Column_128 Column_129 Column_130 Column_131 Column_132 Column_133 Column_134 Column_135 Column_136 Column_137 Column_138 Column_139 Column_140 Column_141 Column_142 Column_143 Column_144 Column_145 Column_146 Column_147 Column_148 Column_149 Column_150 Column_151 Column_152 Column_153 Column_154 Column_155 Column_156 Column_157 Column_158 Column_159 Column_160 Column_161 Column_162 Column_163 Column_164 Column_165 Column_166 Column_167 Column_168 Column_169 Column_170 Column_171 Column_172 Column_173 Column_174 Column_175 Column_176 Column_177 Column_178 Column_179 Column_180 Column_181 Column_182 Column_183 Column_184 Column_185 Column_186 Column_187 Column_188 Column_189 Column_190 Column_191 Column_192 Column_193 Column_194 Column_195 Column_196 Column_197 Column_198 Column_199 Column_200 Column_201 Column_202 Column_203 Column_204 Column_205 Column_206 Column_207 Column_208 Column_209 Column_210 Column_211 Column_212 Column_213 Column_214 Column_215 Column_216 Column_217 Column_218 Column_219 Column_220 Column_221 Column_222 Column_223 Column_224 Column_225 Column_226 Column_227 Column_228 Column_229 Column_230 Column_231 Column_232 Column_233 Column_234 Column_235 Column_236 Column_237 Column_238 Column_239 Column_240 Column_241 Column_242 Column_243 Column_244 Column_245 Column_246 Column_247 Column_248 Column_249 Column_250 Column_251 Column_252 Column_253 Column_254 Column_255 Column_256 Column_257 Column_258 Column_259 Column_260 Column_261 Column_262 Column_263 Column_264 Column_265 Column_266 Column_267 Column_268 Column_269 Column_270 Column_271 Column_272 Column_273 Column_274 Column_275 Column_276 Column_277 Column_278 Column_279 Column_280 Column_281 Column_282 Column_283 Column_284 Column_285 Column_286 Column_287 Column_288 Column_289 Column_290 Column_291 Column_292 Column_293 Column_294 Column_295 Column_296 Column_297 Column_298 Column_299 Column_300
feature_infos=[0:1] [0:1] [0:1] [0:1] [0:1] [0:1] [0:1] [0:1] [0:1] [0:1] [0:1] [0:1] [0:1] [0:1] [0:1] [0:1] [0:1] [0:1] [0:1] [0:1] [0:1] [0:1] [0:1] none [0:1] [0:1] [0:1] [0:1] [0:1] [0:1] [0:1] [0:1] [0:1] [0:1] [0:1] [0:1] [0:1] [0:1] [0:1] [0:1] [0:1] [0:1] [0:1] [0:1] [0:1] [0:1] [0:1] [0:1] [0:1] [0:1] [0:1] [0:1] [0:1] [0:1] [0:1] [0:1] [0:1] [0:1] [0:1] [0:1] [0:1] [0:1] [0:1] [0:1] [0:1] [0:1] [0:1] [0:1] [0:1] [0:1] [0:1] [0:1] [0:1] [0:1] [0:1] [0:1] [0:1] [0:1] [0:1] [0:1] [0:1] [0:1] [0:1] [0:1] [0:1] [0:1] [0:1] [0:1] [0:1] [0:1] [0:1] [0:1] [0:1] [0:1] [0:1] [0:1] [0:1] [0:1] [0:1] [0:1] [0:1] [0:1] [0:1] [0:1] [0:1] [0:1] [0:1] [0:1] [0:1] [0:1] [0:1] [0:1] [0:1] [0:1] none none none none [0:1] [0:1] [0:1] none [0:1] none none [0:1] none [0:1] [0:1] none [0:1] none none none [0:1] [0:1] [0:1] [0:1] none none none none none none [0:1] none none none none none [0:1] [0:1] [0:1] [0:1] [0:1] [0:1] [0:1] [0:1] [0:1] [0:1] [0:1] [0:1] [0:1] [0:1] [0:1] [0:1] [0:1] [0:1] [0:1] [0:1] [0:1] [0:1] [0:1] none [0:1] [0:1] [0:1] [0:1] [0:1] [0:1] [0:1] [0:1] [0:1] [0:1] [0:1] [0:1] [0:1] [0:1] [0:1] [0:1] [0:1] [0:1] [0:1] [0:1] [0:1] [0:1] [0:1] [0:1] [0:1] [0:1] [0:1] [0:1] [0:1] [0:1] [0:1] [0:1] [0:1] [0:1] [0:1] [0:1] [0:1] [0:1] [0:1] [0:1] [0:1] [0:1] [0:1] [0:1] [0:1] [0:1] [0:1] [0:1] [0:1] [0:1] [0:1] [0:1] [0:1] [0:1] [0:1] [0:1] [0:1] [0:1] [0:1] [0:1] [0:1] [0:1] [0:1] [0:1] [0:1] [0:1] [0:1] [0:1] [0:1] [0:1] [0:1] [0:1] [0:1] [0:1] [0:1] [0:1] [0:1] [0:1] [0:1] [0:1] [0:1] [0:1] [0:1] [0:1] [0:1] [0:1] [0:1] [0:1] [0:1] [0:1] none none none none [0:1] [0:1] [0:1] none [0:1] none none [0:1] none [0:1] [0:1] none [0:1] none none none [0:1] [0:1] [0:1] [0:1] none none none none none none [0:1] none none none none none [1:1]
tree_sizes=3626 3756 3753 3770 3764 3766 3755 3759 3755 3754 3777 3789 3768 3774 3763 3774 3793 3785 3771 3784 3787 3777 3782 3788 3769 3779 3788 3776 3770 3796 3778 3799 3798 3775 3824 3803 3782 3794 3781 3766 3787 3805 3790 3800 3801 3814 3810 3816 3822 3799 3798 3811 3775 3787 3792 3813 3785 3812 3808 3795 3793 3782 3818 3802 3821 3808 3813 3801 3786 3812 3819 3808 3803 3788 3819 3812 3812 3814 3789 3807 3819 3817 3798 3818 3823 3793 3781 3812 3803 3820 3810 3841 3824 3801 3834 3810 3834 3777 3819 3811 3800 3826 3793 3805 3825 3801 3805 3843 3834 3787 3799 3787 3818 3795 3809 3788 3798 3811 3804 3794 3818 3805 3807 3802 3813 3784 3813 3798 3783 3808 3809 3802 3810 3821 3803 3801 3812 3816 3798 3806 3804 3795 3782 3793 3817 3793 3814 3800 3794 3797 3822 3780 3775 3796 3818 3792 3816 3801 3797 3795 3797 3790 3769 3780 3785 3779 3812 3810 3780 3801 3783 3781 3783 3768 3778 3798 3746 3788 3788 3802 3751 3780 3750 3756 3784 3777 3751 3780 3766 3763 3778 3785 3788 3782 3753 3769 3739 3781 3777 3773 3759 3772 3782 3769 3757 3765 3756 3754 3730 3741 3764 3759 3720 3764 3752 3753 3743 3771 3730 3742 3724 3752 3782 3774 3728 3750 3742 3753 3733 3730 3743 3713 3746 3744 3765 3771 3719 3734 3726 3748 3704 3732 3745 3725 3741 3726 3753 3754 3751 3714 3692 3768 3723 3688 3699 3740 3658 3715 3709 3711 3647 3730 3675 3684 3702 3692 3667 3700 3751 3676 3723 3714 3730 3662 3653 3668 3729 3665 3733 3682 3704 3677 3662 3652 3704 3730 3649 3714 3679 3697 3708 3734 3610 3685 3653 3682 3720 3725 3681 3656 3705 3660 3662 3714 3681 3713 3675 3644 3679 3657 3669 3740 3668 3707 3667 3614 3683 3678 3632 3718 3683 3682 3687 3684 3673 3699 3597 3676 3681 3658 3658 3668 3714 3629 3669 3690 3660 3615 3688 3710 3669 3630 3666 3669 3624 3692 3676 3640 3656 3675 3642 3628 3636 3649 3637 3587 3637 3616 3623 3645 3624 3647 3650 3664 3666 3621 3617 3647 3639 3616 3661 3596 3587 3660 3655 3654 3673 3667 3662 3602 3601 3674 3636 3648 3638 3638 3643 3640 3669 3631 3668 3643 3635 3625 3611 3601 3600 3637 3626 3595 3647 3614 3679 3644 3694 3601 3622 3657 3623 3670 3665 3642 3596 3595 3631 3631 3612 3604 3604 3664 3623 3624 3622 3693 3627 3635 3623 3639 3613 3569 3649 3623 3691 3623 3616 3608 3627 3682 3675 3614 3621 3640 3614 3619 3617 3684 3660 3618 3637 3611 3703 3553 3599 3629 3593 3655 3641 3596 3586 3666 3692 3632 3636 3614 3745 3672 3690 3622 3707 3587 3619 3724 3641 3641 3604 3672 3663 3640 3660 3664 3622 3644 3609 3625 3672 3634 3586 3632 3603 3625 3657 3717 3667 3632 3646 3661 3584 3683 3626 3663

Tree=0
num_leaves=31
num_cat=0
split_feature=5 52 155 202 216 66 28 191 230 178 41 55 80 83 13 11 43 205 104 168 98 0 27 161 6 11 66 216 161 41
split_gain=5899.72 4390.59 4010.31 3435.78 3142.77 2713.04 2557.32 2445.17 2354.22 2371.25 2119.65 1969.06 1861.32 1746.09 1753.76 1353.63 1341.46 1389.49 852.454 780.315 731.486 675.087 661.241 652.339 616.645 616.308 619.588 604.338 596.182 561.085
threshold=1.0000000180025095e-35 1.0000000180025095e-35 1.0000000180025095e-35 1.0000000180025095e-35 1.0000000180025095e-35 1.0000000180025095e-35 1.0000000180025095e-35 1.0000000180025095e-35 1.0000000180025095e-35 1.0000000180025095e-35 1.0000000180025095e-35 1.0000000180025095e-35 1.0000000180025095e-35 1.0000000180025095e-35 1.0000000180025095e-35 1.0000000180025095e-35 1.0000000180025095e-35 1.0000000180025095e-35 1.0000000180025095e-35 1.0000000180025095e-35 1.0000000180025095e-35 1.0000000180025095e-35 1.0000000180025095e-35 1.0000000180025095e-35 1.0000000180025095e-35 1.0000000180025095e-35 1.0000000180025095e-35 1.0000000180025095e-35 1.0000000180025095e-35 1.0000000180025095e-35
decision_type=2 2 2 2 2 2 2 2 2 2 2 2 2 2 2 2 2 2 2 2 2 2 2 2 2 2 2 2 2 2
left_child=1 2 3 4 5 6 7 8 9 10 11 12 13 14 15 16 17 18 19 20 21 22 24 -13 -1 26 29 28 -2 -4
right_child=27 -3 25 -5 -6 -7 -8 -9 -10 -11 -12 23 -14 -15 -16 -17 -18 -19 -20 -21 -22 -23 -24 -25 -26 -27 -28 -29 -30 -31
leaf_value=0.12471854014016705 0.15959387553165641 0.1033424344110908 0.10962972602421817 0.16144696212265852 0.10622507168211455 0.16101579949131056 0.16070311039729532 0.1084910044489814 0.10409283913466301 0.10871045482663695 0.15967122482673884 0.15728437066876702 0.16219561977288152 0.14723282899755219 0.14197395913147545 0.15254305967169854 0.14277253226324521 0.1031364983272352 0.10931098905537007 0.15223726104752519 0.14960526076909497 0.1420321409316487 0.14817312632632762 0.1031075568550837 0.10694418749997246 0.15065091244937573 0.15030485966823059 0.12045155827243915 0.12258592099852053 0.14515516080025898
leaf_weight=232623.44076819718 99335.810229256749 51054.534300118685 90609.864636063576 47912.686173468828 39062.798852846026 38943.088067919016 34486.910096779466 39068.025311231613 25256.237950921059 32513.050979822874 36880.37915840745 45475.912170931697 21975.764237567782 71842.896968275309 109293.4578486532 21053.916529938579 45400.750721767545 27987.186896875501 27142.989428117871 12527.57187128067 13401.137058585882 23280.138923227787 11089.798057302833 2336.7246562987566 21306.279806271195 4556.9739542901516 4271.0120169073343 4477.8304415941238 4552.4941328167915 4675.1914653927088
leaf_count=934685 399133 205138 364072 192514 156955 156474 138569 156976 101480 130638 148186 182723 88299 288666 439143 84595 182421 112453 109061 50336 53846 93540 44559 9389 85609 18310 17161 17992 18292 18785
internal_value=0.134128 0.132001 0.13335 0.135331 0.133989 0.135203 0.134027 0.132906 0.134126 0.135129 0.136316 0.135062 0.133597 0.132579 0.130647 0.127807 0.126551 0.124557 0.126314 0.127782 0.126767 0.125705 0.124271 0.154637 0.123227 0.114689 0.113043 0.156422 0.157972 0.111373
internal_weight=1.24439e+06 1.13603e+06 1.08497e+06 980861 932948 893886 854943 820456 781388 756131 723618 686738 638925 616950 545107 435813 414759 369359 341371 314228 301701 288300 265020 47812.6 253930 104113 99556.1 108366 103888 95285.1
internal_count=5000000 4564583 4359445 3941117 3748603 3591648 3435174 3296605 3139629 3038149 2907511 2759325 2567213 2478914 2190248 1751105 1666510 1484089 1371636 1262575 1212239 1158393 1064853 192112 1020294 418328 400018 435417 417425 382857
is_linear=0
shrinkage=1


Tree=1
num_leaves=31
num_cat=0
split_feature=5 52 155 202 216 254 178 191 230 66 161 55 41 80 28 83 11 43 205 13 193 18 156 187 190 29 11 66 216 161
split_gain=4786.27 3548.82 3244.5 2789.13 2541.29 2256.54 1976.27 1979.89 1859.37 1840.66 1667 1685.65 1498.88 1425.45 1383.67 1387.95 1153.8 1128.88 1169.14 913.766 738.39 676.917 603.559 535.322 505.385 518.27 498.457 500.989 490.716 484.284
threshold=1.0000000180025095e-35 1.0000000180025095e-35 1.0000000180025095e-35 1.0000000180025095e-35 1.0000000180025095e-35 1.0000000180025095e-35 1.0000000180025095e-35 1.0000000180025095e-35 1.0000000180025095e-35 1.0000000180025095e-35 1.0000000180025095e-35 1.0000000180025095e-35 1.0000000180025095e-35 1.0000000180025095e-35 1.0000000180025095e-35 1.0000000180025095e-35 1.0000000180025095e-35 1.0000000180025095e-35 1.0000000180025095e-35 1.0000000180025095e-35 1.0000000180025095e-35 1.0000000180025095e-35 1.0000000180025095e-35 1.0000000180025095e-35 1.0000000180025095e-35 1.0000000180025095e-35 1.0000000180025095e-35 1.0000000180025095e-35 1.0000000180025095e-35 1.0000000180025095e-35
decision_type=2 2 2 2 2 2 2 2 2 2 2 2 2 2 2 2 2 2 2 2 2 2 2 2 2 2 2 2 2 2
left_child=1 2 3 4 5 6 7 8 9 10 11 12 13 14 15 16 17 18 19 20 21 22 23 24 25 -1 27 -4 29 -2
right_child=28 -3 26 -5 -6 -7 -8 -9 -10 -11 -12 -13 -14 -15 -16 -17 -18 -19 -20 -21 -22 -23 -24 -25 -26 -27 -28 -29 -30 -31
leaf_value=-0.0068905596256517892 0.022964489682168444 -0.027653477440467113 -0.020449554069465664 0.024639396698304439 -0.025068133726880527 0.0189509490902437 -0.024119903751856964 -0.021426812871444066 -0.025071279019765903 0.026111658414941265 -0.020838469726639317 0.021194751020405505 0.022500955907722435 0.026413064408285 0.022246097916686317 0.012078703116393476 0.017904970047935682 0.0095451534342045497 -0.024927050813837226 0.004781594140198661 -0.02091439988683938 -0.028788695013316181 0.013053684614246389 0.030214391828293483 -0.024275121578706749 0.0095418308283523583 0.014889116711034239 0.014576884322450119 -0.012297437705393292 -0.010379691342883943
leaf_weight=194893.50027275085 99150.56203982234 51147.818494975567 95416.667861327529 47816.238211035728 39128.266871497035 64728.992465764284 33794.408026903868 38912.617585718632 25077.854325249791 31901.780288100243 31748.835343122482 45498.455080449581 31524.076470822096 19925.234550386667 24920.756375908852 63255.821504250169 23565.074573874474 49101.129398301244 31763.680753231049 76841.880002081394 35809.299420163035 12035.001113638282 18151.709824338555 4040.2615175247192 14964.138356015086 21290.236606702209 4551.6254666447639 4266.1101427078247 4481.7243505716324 4555.8628506660461
leaf_count=782707 399133 205138 382857 192514 156955 260142 135598 156156 100614 128436 127571 183125 126902 80226 100328 254397 94797 197405 127453 308919 143812 48329 72903 16226 60097 85505 18310 17161 17992 18292
internal_value=1.46807e-06 -0.00191248 -0.000698942 0.0010839 -0.000123478 0.000968602 -0.000435447 0.000571068 0.00170287 0.0026211 0.00154952 0.00261425 0.00125529 0.000121192 -0.000796862 -0.00184915 -0.00367527 -0.00478346 -0.00650032 -0.00495201 -0.00743537 -0.00561653 -0.00451572 -0.00587172 -0.00650248 -0.00527226 -0.0174728 -0.0189505 0.0200996 0.0214997
internal_weight=1.24426e+06 1.13607e+06 1.08492e+06 980689 932873 893745 829016 795221 756309 731231 699329 667580 622082 590558 570632 545712 482456 458891 409790 378026 301184 265375 253340 235188 231148 216184 104234 99682.8 108188 103706
internal_count=5000000 4564583 4359445 3941117 3748603 3591648 3331506 3195908 3039752 2939138 2810702 2683131 2500006 2373104 2292878 2192550 1938153 1843356 1645951 1518498 1209579 1065767 1017438 944535 928309 868212 418328 400018 435417 417425
is_linear=0
shrinkage=0.1


Tree=2
num_leaves=31
num_cat=0
split_feature=5 66 52 155 216 202 28 41 104 64 230 18 161 55 6 191 178 83 80 37 13 193 205 29 19 30 191 230 41 11
split_gain=3883.44 2934.96 2861.99 2599.82 2076.25 2014.69 1797.13 1676.13 1569.77 1481.67 1435.21 1334.66 1319.45 1293.83 1198.92 1049.46 1077.71 945.896 854.498 790.31 744.975 728.801 618.735 528.573 499.332 505.026 463.595 461.714 442.564 425.271
threshold=1.0000000180025095e-35 1.0000000180025095e-35 1.0000000180025095e-35 1.0000000180025095e-35 1.0000000180025095e-35 1.0000000180025095e-35 1.0000000180025095e-35 1.0000000180025095e-35 1.0000000180025095e-35 1.0000000180025095e-35 1.0000000180025095e-35 1.0000000180025095e-35 1.0000000180025095e-35 1.0000000180025095e-35 1.0000000180025095e-35 1.0000000180025095e-35 1.0000000180025095e-35 1.0000000180025095e-35 1.0000000180025095e-35 1.0000000180025095e-35 1.0000000180025095e-35 1.0000000180025095e-35 1.0000000180025095e-35 1.0000000180025095e-35 1.0000000180025095e-35 1.0000000180025095e-35 1.0000000180025095e-35 1.0000000180025095e-35 1.0000000180025095e-35 1.0000000180025095e-35
decision_type=2 2 2 2 2 2 2 2 2 2 2 2 2 2 2 2 2 2 2 2 2 2 2 2 2 2 2 2 2 2
left_child=1 2 3 4 5 6 7 8 9 10 11 12 13 14 15 16 17 18 19 20 21 22 23 24 25 -1 27 -2 29 -5
right_child=26 -3 -4 28 -6 -7 -8 -9 -10 -11 -12 -13 -14 -15 -16 -17 -18 -19 -20 -21 -22 -23 -24 -25 -26 -27 -28 -29 -30 -31
leaf_value=-0.00037605594353759233 0.0208114421755611 0.022732511890616296 -0.026338229618774862 -0.019947346397329736 -0.022017375090723316 0.021867976679389063 0.02230411494559896 0.018998761874429507 -0.018033399038733296 -0.039912328600308779 -0.025039073405805131 -0.020915727666173337 -0.019384989631975467 0.018776924965703545 -0.014792902519962944 -0.016397061252879437 -0.017912625369700095 0.016168202390858654 0.0255210221623292 -0.03076591483236929 0.010783705519158516 -0.013713852297568538 -0.013610562226479687 0.016351948635259284 0.023334923960761256 0.019182236353962448 -0.011170644400845784 -0.017119483206352575 0.01256624438068718 0.012177615413505873
leaf_weight=216979.85437791049 99538.920910805464 47051.518118828535 49224.218603506684 90837.268366575241 41070.992519438267 43897.628278061748 34368.591686949134 39731.687850371003 57007.292648673058 9556.6748031824827 22659.64239013195 27832.956261232495 29098.960694268346 44790.4543517977 43689.238392874599 28104.94605897367 22597.223165988922 60189.365350201726 15936.235750764608 7265.1420220583677 86012.378770068288 33227.784873783588 23601.16461469233 27728.695013090968 10283.208794310689 14057.718845248222 5145.0219393968582 3316.0291885882616 4821.0567540675402 4316.6097700595856
leaf_count=871728 401300 189689 197179 364072 164608 177115 138569 160145 228893 38393 90795 111761 116771 180490 175441 112650 90564 242317 64310 29184 345920 133348 94637 111474 41309 56475 20746 13371 19361 17385
internal_value=2.54349e-06 -0.00172029 -0.00277691 -0.00166137 -3.02751e-05 0.000974638 -9.84254e-05 -0.00103698 -0.00205675 -0.000798087 -0.000274594 0.000537031 0.00143686 0.00239183 0.00114725 0.00242277 0.00344411 0.00441851 0.0027931 0.00192898 0.00250567 0.00032077 0.00191427 0.00327612 0.00177366 0.000813988 0.0181232 0.0195886 -0.0169924 -0.01849
internal_weight=1.24394e+06 1.13594e+06 1.08889e+06 1.03966e+06 939688 898617 854719 820351 780619 723612 714055 691395 663562 634463 589673 545984 517879 495282 435092 419156 411891 325878 292651 269049 241321 231038 108000 102855 99974.9 95153.9
internal_count=5000000 4564583 4374894 4177715 3776897 3612289 3435174 3296605 3136460 2907567 2869174 2778379 2666618 2549847 2369357 2193916 2081266 1990702 1748385 1684075 1654891 1308971 1175623 1080986 969512 928203 435417 414671 400818 381457
is_linear=0
shrinkage=0.1


Tree=3
num_leaves=31
num_cat=0
split_feature=5 202 155 254 96 52 29 168 216 156 11 230 214 187 64 37 66 233 180 169 161 178 191 248 55 89 19 163 43 19
split_gain=3150.84 2397.35 2224.85 1962.55 1735.18 1665.61 1491.01 1348.66 1276.52 1211.07 1278.81 1139.5 1077.39 1003.8 967.477 948.846 934.011 911.577 825.562 788.397 752.553 746.753 749.025 758.647 643.318 559.016 548.676 550.414 542.128 426.006
threshold=1.0000000180025095e-35 1.0000000180025095e-35 1.0000000180025095e-35 1.0000000180025095e-35 1.0000000180025095e-35 1.0000000180025095e-35 1.0000000180025095e-35 1.0000000180025095e-35 1.0000000180025095e-35 1.0000000180025095e-35 1.0000000180025095e-35 1.0000000180025095e-35 1.0000000180025095e-35 1.0000000180025095e-35 1.0000000180025095e-35 1.0000000180025095e-35 1.0000000180025095e-35 1.0000000180025095e-35 1.0000000180025095e-35 1.0000000180025095e-35 1.0000000180025095e-35 1.0000000180025095e-35 1.0000000180025095e-35 1.0000000180025095e-35 1.0000000180025095e-35 1.0000000180025095e-35 1.0000000180025095e-35 1.0000000180025095e-35 1.0000000180025095e-35 1.0000000180025095e-35
decision_type=2 2 2 2 2 2 2 2 2 2 2 2 2 2 2 2 2 2 2 2 2 2 2 2 2 2 2 2 2 2
left_child=1 2 3 4 5 6 7 8 9 10 11 12 13 14 15 16 17 18 19 20 21 22 23 24 25 26 27 28 -1 -2
right_child=29 -3 -4 -5 -6 -7 -8 -9 -10 -11 -12 -13 -14 -15 -16 -17 -18 -19 -20 -21 -22 -23 -24 -25 -26 -27 -28 -29 -30 -31
leaf_value=0.0025260923601460217 0.015153512829834537 0.019527493003095021 -0.016359310867137915 0.015002327348277568 -0.021494438171085265 -0.020910926393613912 0.013250277958210717 0.019543364402781017 -0.022394862374773908 0.013596376621182292 0.018275343491629396 -0.02701478780307014 0.033762942928747305 0.028987436223952157 -0.039052779261324971 -0.035747437076603897 0.015785494222777318 -0.015206882732262278 -0.019897771444307519 -0.022442059527283929 -0.019058742705376351 -0.019186280907325454 -0.016978079690259631 -0.01873301941959183 0.018884100497222833 -0.026867173107548228 0.02318894436872691 -0.0062826372845597557 0.017961168206713816 0.049629336946365232
leaf_weight=218072.92074394226 104105.15612387657 51526.075017124414 105323.72877587378 70556.586247935891 44825.457625135779 41302.145590469241 73598.910516932607 28825.650223612785 30914.960909485817 48592.795517072082 27605.093191817403 20315.605880782008 7896.0391671061516 9401.4193605035543 7747.7486306875944 8966.3161513060331 25380.63939063251 62394.596198230982 25346.773323699832 17033.580144435167 20797.777275368571 18500.401120558381 21029.989667326212 16198.345091044903 24933.272722691298 6476.4903925657272 12685.403230935335 64033.933665603399 25406.493733301759 3711.9469641298056
leaf_count=876648 420426 208171 422096 283918 180084 165321 296005 115965 123768 195478 111157 81367 31751 37839 31082 35996 102601 250745 101886 68471 83392 74097 84253 65144 100678 26029 51022 257345 102274 14991
internal_value=3.34429e-06 -0.00154763 -0.00254924 -0.00106327 -0.00231127 -0.0013154 -0.000330986 -0.00166631 -0.00251577 -0.00162357 -0.00277876 -0.00372748 -0.00292874 -0.00342449 -0.00395443 -0.00347505 -0.00295674 -0.00384937 -0.00234326 -0.00134375 -0.000504343 0.000443005 0.00137694 0.00242642 0.00340122 0.0022195 0.00280782 0.00196707 0.00413671 0.0163405
internal_weight=1.24351e+06 1.13569e+06 1.08416e+06 978839 908283 863457 822155 748556 719731 688816 640223 612618 592302 584406 575005 567257 558291 532910 470515 445169 428135 407337 388837 367807 351609 326675 320199 307513 243479 107817
internal_count=5000000 4564583 4356412 3934316 3650398 3470314 3304993 3008988 2893023 2769255 2573777 2462620 2381253 2349502 2311663 2280581 2244585 2141984 1891239 1789353 1720882 1637490 1563393 1479140 1413996 1313318 1287289 1236267 978922 435417
is_linear=0
shrinkage=0.1


Tree=4
num_leaves=31
num_cat=0
split_feature=5 28 66 41 80 11 155 216 205 191 233 230 193 161 55 254 150 83 248 178 163 177 190 243 157 212 83 244 13 242
split_gain=2556.33 2186.49 2113.54 2072.58 2060.97 1960.38 1961.11 1618.59 1491.12 1421.04 1284.08 1130.17 1068.82 1184.39 1207.23 920.4 797.344 789.87 670.563 698.254 686.494 609.523 566.88 497.785 517.559 534.407 437.067 429.309 416.645 415.599
threshold=1.0000000180025095e-35 1.0000000180025095e-35 1.0000000180025095e-35 1.0000000180025095e-35 1.0000000180025095e-35 1.0000000180025095e-35 1.0000000180025095e-35 1.0000000180025095e-35 1.0000000180025095e-35 1.0000000180025095e-35 1.0000000180025095e-35 1.0000000180025095e-35 1.0000000180025095e-35 1.0000000180025095e-35 1.0000000180025095e-35 1.0000000180025095e-35 1.0000000180025095e-35 1.0000000180025095e-35 1.0000000180025095e-35 1.0000000180025095e-35 1.0000000180025095e-35 1.0000000180025095e-35 1.0000000180025095e-35 1.0000000180025095e-35 1.0000000180025095e-35 1.0000000180025095e-35 1.0000000180025095e-35 1.0000000180025095e-35 1.0000000180025095e-35 1.0000000180025095e-35
decision_type=2 2 2 2 2 2 2 2 2 2 2 2 2 2 2 2 2 2 2 2 2 2 2 2 2 2 2 2 2 2
left_child=1 2 3 4 5 6 7 8 9 10 11 12 13 14 15 16 17 18 19 20 21 22 23 24 25 27 28 29 -8 -1
right_child=-2 -3 -4 -5 -6 -7 26 -9 -10 -11 -12 -13 -14 -15 -16 -17 -18 -19 -20 -21 -22 -23 -24 -25 -26 -27 -28 -29 -30 -31
leaf_value=0.013692465995924958 0.014732399964398776 0.02015629884818047 0.01886628291131506 0.016616602547694943 0.020644894175051137 0.015851270307905587 -0.02629206947253418 -0.025227403360093565 -0.019551253701498076 -0.021415294046855656 -0.013439159676610725 -0.022419033802715482 -0.01154709857736172 -0.017799765300507465 0.020460851993926221 0.017319948032158954 -0.013822757798545641 0.013402085359153127 -0.020843182845522317 -0.019106451928280956 -0.0069094867095454955 -0.019103148755709568 -0.011636771903924915 -0.017990228772328316 -0.0054950330805311068 -0.0089977643678103205 -0.00074764781411755933 -0.01324812504007869 -0.0076775023749664374 -0.0024516366651429148
leaf_weight=154995.8114168942 107638.21271911263 45212.784625574946 45277.082931905985 50228.829420745373 32296.218305781484 42926.111930832267 63080.902538627386 36068.749676033854 54381.900436207652 37304.314043819904 78536.241195648909 21469.5005928725 61652.730972513556 27685.64661321044 38517.728741765022 36468.334534063935 34427.859712332487 53066.072346106172 14368.633326515555 16101.750906452537 65409.024276375771 10432.784477591515 17749.516929104924 7750.4393380582333 25857.065892726183 14360.79428948462 10217.773874208331 6989.5538874566555 14856.17418974638 17774.41820821166
leaf_count=623132 435417 182449 183114 202616 130256 172951 252506 144398 218150 149455 315423 85965 247653 110988 155616 146925 138374 213789 57689 64487 262682 41930 71306 31152 103937 57726 40901 28096 59468 71449
internal_value=3.90008e-06 -0.00139231 -0.00228593 -0.00320242 -0.00420317 -0.00503698 -0.0060121 -0.00450828 -0.00356862 -0.00239553 -0.00138714 0.000127108 0.000929043 0.00234833 0.003433 0.00205439 0.000787079 0.00202946 0.000313946 0.00121489 0.00223322 0.00457004 0.00557615 0.00691776 0.00779534 0.00956563 -0.0201943 0.0110486 -0.0227438 0.0120316
internal_weight=1.2431e+06 1.13546e+06 1.09025e+06 1.04497e+06 994746 962450 919524 831369 795300 740918 703614 625078 603608 541955 514270 475752 439284 404856 351790 337421 321319 255910 245478 227728 219978 194121 88154.9 179760 77937.1 172770
internal_count=5000000 4564583 4382134 4199020 3996404 3866148 3693197 3340322 3195924 2977774 2828319 2512896 2426931 2179278 2068290 1912674 1765749 1627375 1413586 1355897 1291410 1028728 986798 915492 884340 780403 352875 722677 311974 694581
is_linear=0
shrinkage=0.1


Tree=5
num_leaves=31
num_cat=0
split_feature=52 178 5 179 180 13 83 80 28 41 11 155 98 205 216 89 95 1 193 243 161 27 66 287 19 248 190 191 169 13
split_gain=2317.13 2053.82 2064.53 1691.49 1687.62 1563.23 1468.23 1322.76 1199.39 1065.62 1072.49 1067.93 901.876 858.669 782.863 715.418 696.152 735.561 721.716 656.144 643.863 602.807 595.464 506.376 499.719 465.984 452.338 426.287 390.448 386.874
threshold=1.0000000180025095e-35 1.0000000180025095e-35 1.0000000180025095e-35 1.0000000180025095e-35 1.0000000180025095e-35 1.0000000180025095e-35 1.0000000180025095e-35 1.0000000180025095e-35 1.0000000180025095e-35 1.0000000180025095e-35 1.0000000180025095e-35 1.0000000180025095e-35 1.0000000180025095e-35 1.0000000180025095e-35 1.0000000180025095e-35 1.0000000180025095e-35 1.0000000180025095e-35 1.0000000180025095e-35 1.0000000180025095e-35 1.0000000180025095e-35 1.0000000180025095e-35 1.0000000180025095e-35 1.0000000180025095e-35 1.0000000180025095e-35 1.0000000180025095e-35 1.0000000180025095e-35 1.0000000180025095e-35 1.0000000180025095e-35 1.0000000180025095e-35 1.0000000180025095e-35
decision_type=2 2 2 2 2 2 2 2 2 2 2 2 2 2 2 2 2 2 2 2 2 2 2 2 2 2 2 2 2 2
left_child=1 2 3 4 5 6 7 8 9 10 11 12 13 14 15 16 17 18 19 20 21 22 23 24 26 28 27 -1 -7 -4
right_child=-2 -3 29 -5 -6 25 -8 -9 -10 -11 -12 -13 -14 -15 -16 -17 -18 -19 -20 -21 -22 -23 -24 -25 -26 -27 -28 -29 -30 -31
leaf_value=-0.00021225399117503308 -0.020044469064896396 -0.019509783970249672 0.01266453361268406 -0.012507519132821877 -0.016587689238845956 0.013467161879127561 0.012948848835848306 0.023378136847603592 0.018066290658987707 0.015412843062654946 0.016007368479079881 -0.018157654511066757 0.017124339584298869 -0.019856763253404124 -0.02304934929849559 -0.030696243326794249 0.020894128576421558 0.011355087558837733 -0.017141153841192826 -0.028347884704735302 -0.021089869905255867 0.021031632677645445 0.018948254863025607 -0.024636962930265911 0.020037897915616124 -0.014517303600675583 -0.018974142473279484 -0.018823427026941505 -0.01263659070953594 0.029040527111310274
leaf_weight=221912.96238198876 55090.686567857862 47185.753326505423 81896.970149442554 91654.920924142003 47824.22580434382 154389.76030679047 86398.799318790436 21640.411685809493 29070.912058189511 30696.423160299659 26287.858749628067 52998.880983948708 20875.966751292348 32276.834381699562 18552.225213751197 8541.2661454826593 13478.555161312222 36249.233415558934 35430.697969272733 9252.9242341667414 15660.256981000304 12698.292068615556 13899.433290779591 9760.88704405725 10402.781387612224 6649.4782190471888 15328.793144926429 13029.687671467662 5950.8916478455067 17510.827280178666
leaf_count=892211 220638 189263 331821 368664 192262 621567 348248 87515 117579 124109 106125 212128 83958 129363 74241 34310 54184 145724 142181 37183 62773 51112 56386 39236 41878 26736 61549 52175 23937 70944
internal_value=4.36286e-06 0.000934466 0.00178044 0.000465512 0.00171811 0.0026893 0.000703616 -0.000928945 -0.00176868 -0.00273401 -0.00371707 -0.00467666 -0.00321062 -0.00412066 -0.00295089 -0.0020538 -0.00145287 -0.00221808 -0.00359482 -0.00210403 -0.00132744 -0.00028552 -0.00123754 -0.00227502 -0.00143768 0.0114226 -0.00233033 -0.00124441 0.0124983 0.0155492
internal_weight=1.2426e+06 1.18751e+06 1.14032e+06 1.04091e+06 949258 901434 734444 648045 626405 597334 566638 540350 487351 466475 434198 415646 407105 393626 357377 321946 312693 297033 284335 270435 260674 166990 250271 234943 160341 99407.8
internal_count=5000000 4779362 4590099 4187334 3818670 3626408 2954168 2605920 2518405 2400826 2276717 2170592 1958464 1874506 1745143 1670902 1636592 1582408 1436684 1294503 1257320 1194547 1143435 1087049 1047813 672240 1005935 944386 645504 402765
is_linear=0
shrinkage=0.1


Tree=6
num_leaves=31
num_cat=0
split_feature=202 29 30 28 230 83 13 155 19 98 216 193 161 191 55 18 178 151 163 161 245 233 5 184 248 177 5 43 150 66
split_gain=2152.87 1938.37 1825.34 1545.02 1487.48 1414.95 1359.38 1186.14 1079.43 1038.1 969.132 829.372 832.12 769.552 735.41 677.76 628.792 653.924 685.173 581.417 577.23 505.361 471.427 461.594 443.833 387.454 368.015 348.369 338.087 330.705
threshold=1.0000000180025095e-35 1.0000000180025095e-35 1.0000000180025095e-35 1.0000000180025095e-35 1.0000000180025095e-35 1.0000000180025095e-35 1.0000000180025095e-35 1.0000000180025095e-35 1.0000000180025095e-35 1.0000000180025095e-35 1.0000000180025095e-35 1.0000000180025095e-35 1.0000000180025095e-35 1.0000000180025095e-35 1.0000000180025095e-35 1.0000000180025095e-35 1.0000000180025095e-35 1.0000000180025095e-35 1.0000000180025095e-35 1.0000000180025095e-35 1.0000000180025095e-35 1.0000000180025095e-35 1.0000000180025095e-35 1.0000000180025095e-35 1.0000000180025095e-35 1.0000000180025095e-35 1.0000000180025095e-35 1.0000000180025095e-35 1.0000000180025095e-35 1.0000000180025095e-35
decision_type=2 2 2 2 2 2 2 2 2 2 2 2 2 2 2 2 2 2 2 2 2 2 2 2 2 2 2 2 2 2
left_child=1 2 3 4 5 6 7 8 9 10 11 12 13 14 15 16 17 18 20 -7 21 22 24 26 25 27 -8 28 -1 -2
right_child=29 -3 -4 -5 -6 19 23 -9 -10 -11 -12 -13 -14 -15 -16 -17 -18 -19 -20 -21 -22 -23 -24 -25 -26 -27 -28 -29 -30 -31
leaf_value=0.0043384757583473177 0.017566269601449545 0.012104403580611871 0.015797197911022725 0.015910630610109652 -0.025700005038684477 0.008858341428547193 -0.00021001132253522004 -0.019883755738991905 0.015458816065047133 0.013990621581047833 -0.026666474990181106 -0.017862610762710226 -0.023396142082911395 -0.021531630018165021 0.012096770217194366 -0.023055510680466101 -0.021899025172981101 -0.016640464442811347 -0.0089805915357927171 -0.027188344601821436 -0.023830574535507361 -0.0087494262692075775 0.01794156750949211 0.016174977138837778 -0.01823624705341452 -0.018014810851955103 0.018378618081038051 0.016841823485305683 -0.012455269206309927 0.057389772084000701
leaf_weight=145733.28734917939 54203.984983056784 104471.19949997962 53791.77570861578 41043.400839060545 30312.311598405242 107421.11600881815 130383.23072330654 61072.860709086061 24129.857090115547 24606.183570429683 23973.633123427629 54175.315854787827 22989.72156482935 23527.826046466827 30180.119155049324 17990.90347148478 17215.898261249065 29545.74650529027 84512.030276194215 4669.1253322958946 8788.7834527939558 35971.140627905726 21949.116879016161 24487.292012140155 9815.8960841298103 7956.4955363720655 11597.909951776266 20390.583520755172 13062.086751937866 2168.696525156498
leaf_count=586080 219546 420776 216491 166134 121451 433275 524610 244549 97256 99080 95978 217667 92158 94302 122112 72253 68993 118900 339907 18734 35372 144625 89116 98660 39415 31974 47136 82140 52496 8814
internal_value=4.67493e-06 -0.000903059 -0.0021598 -0.00309988 -0.00389085 -0.00319944 -0.00460131 -0.00659047 -0.00527361 -0.00611811 -0.00698958 -0.00612212 -0.00482309 -0.00390806 -0.00297231 -0.00407367 -0.00320898 -0.00235713 -0.00114508 0.00735681 0.0013664 0.00223525 0.00404027 0.00349528 0.0024911 0.00357828 0.00130842 0.00453709 0.00295707 0.0190983
internal_weight=1.24214e+06 1.18576e+06 1.08129e+06 1.0275e+06 986458 956146 844056 677587 616515 592385 567779 543805 489630 466640 443112 412932 394941 377725 348179 112090 263667 254879 218907 166468 196958 187142 141981 179186 158795 56372.7
internal_count=5000000 4771640 4350864 4134373 3968239 3846788 3394779 2724373 2479824 2382568 2283488 2187510 1969843 1877685 1783383 1661271 1589018 1520025 1401125 452009 1061218 1025846 881221 670406 792105 752690 571746 720716 638576 228360
is_linear=0
shrinkage=0.1


Tree=7
num_leaves=31
num_cat=0
split_feature=104 52 79 187 202 6 64 113 18 254 45 214 33 37 119 96 168 127 195 135 82 156 183 25 161 12 144 38 89 263
split_gain=1999.06 1760.75 1621.43 1578.82 1536.1 1433.84 1374.65 1345.5 1306.18 1229.29 1157.12 1086.09 1045.6 1034.26 1016.57 991.111 925.646 900.502 881.094 854.082 859.049 802.827 748.211 713.109 664.443 627.541 606.983 580.379 526.302 517.005
threshold=1.0000000180025095e-35 1.0000000180025095e-35 1.0000000180025095e-35 1.0000000180025095e-35 1.0000000180025095e-35 1.0000000180025095e-35 1.0000000180025095e-35 1.0000000180025095e-35 1.0000000180025095e-35 1.0000000180025095e-35 1.0000000180025095e-35 1.0000000180025095e-35 1.0000000180025095e-35 1.0000000180025095e-35 1.0000000180025095e-35 1.0000000180025095e-35 1.0000000180025095e-35 1.0000000180025095e-35 1.0000000180025095e-35 1.0000000180025095e-35 1.0000000180025095e-35 1.0000000180025095e-35 1.0000000180025095e-35 1.0000000180025095e-35 1.0000000180025095e-35 1.0000000180025095e-35 1.0000000180025095e-35 1.0000000180025095e-35 1.0000000180025095e-35 1.0000000180025095e-35
decision_type=2 2 2 2 2 2 2 2 2 2 2 2 2 2 2 2 2 2 2 2 2 2 2 2 2 2 2 2 2 2
left_child=1 2 3 4 5 6 7 8 9 10 11 12 13 14 15 16 17 18 19 20 21 22 23 24 25 26 27 28 29 -1
right_child=-2 -3 -4 -5 -6 -7 -8 -9 -10 -11 -12 -13 -14 -15 -16 -17 -18 -19 -20 -21 -22 -23 -24 -25 -26 -27 -28 -29 -30 -31
leaf_value=0.0085110589524789899 -0.014611898274861188 -0.016892853438007529 -0.032966004131610882 0.0336645592717928 0.018878613112448837 -0.012588499379891814 -0.031186273364133068 -0.017202218168132149 -0.015440393078582478 0.017068282227089986 -0.023142443513946995 0.036111634770124329 -0.017392396616063951 -0.025733698755246778 -0.028647133283208327 -0.011564102697002303 0.023396583220930856 -0.016299515663834894 0.030694761307057752 -0.017999559536046972 -0.017122342845618914 0.018829735045798893 0.02512964337984849 -0.0050316180973020656 -0.012348353509042263 -0.016743160495579151 -0.015601962920293911 -0.0063751009851290208 -0.015979173672832813 0.027668678740357194
leaf_weight=375293.26428648829 87011.014323487878 51906.341317728162 13138.845334857702 15890.632552117109 50832.279337063432 71504.07703115046 12250.994382098317 33334.053469851613 35890.571058660746 66726.892580062151 16653.016287729144 10078.258608564734 24190.180462867022 11728.435767933726 9305.6520285755396 36002.091346636415 27604.705834552646 19796.024753764272 13434.310662999749 15994.512394368649 16476.043420284986 45261.972215130925 17839.241254806519 70907.711721926928 19484.082530021667 11308.146947428584 11451.852553829551 27307.829389184713 8461.2817628532648 14636.166067510843
leaf_count=1511952 349803 207839 52880 64170 206378 287464 49176 134106 144170 269391 66997 40668 97351 47097 37443 144691 111408 79673 54151 64358 66311 182546 71875 285394 78129 45524 46079 109947 34014 59015
internal_value=4.82909e-06 0.00110626 0.00195346 0.00237451 0.00191145 0.00106829 0.00209467 0.00252881 0.0032549 0.0040262 0.00294273 0.003495 0.00307166 0.00372968 0.0041963 0.00461425 0.005452 0.00471007 0.00535204 0.00481539 0.00540546 0.00602207 0.00498074 0.00431368 0.00572978 0.00651522 0.00711687 0.00772803 0.00869474 0.00923015
internal_weight=1.2417e+06 1.15469e+06 1.10278e+06 1.08964e+06 1.07375e+06 1.02292e+06 951417 939166 905832 869942 803215 786562 776484 752293 740565 731259 695257 667652 647856 634422 618428 601952 556690 538850 467943 448459 437150 425699 398391 389929
internal_count=5000000 4650197 4442358 4389478 4325308 4118930 3831466 3782290 3648184 3504014 3234623 3167626 3126958 3029607 2982510 2945067 2800376 2688968 2609295 2555144 2490786 2424475 2241929 2170054 1884660 1806531 1761007 1714928 1604981 1570967
is_linear=0
shrinkage=0.1


Tree=8
num_leaves=31
num_cat=0
split_feature=66 41 80 155 104 52 229 5 168 93 43 11 0 205 7 40 55 92 62 94 137 25 243 179 13 89 28 98 14 169
split_gain=1673.36 1586.47 1575.45 1496.74 1355.4 1206.61 1114 1085.02 1026.88 937.202 951.347 1028.58 1038.98 983.344 854.061 921.578 893.44 768.213 721.108 751.716 657.988 622.033 572.284 575.359 516.035 407.488 361.658 360.235 383.626 344.125
threshold=1.0000000180025095e-35 1.0000000180025095e-35 1.0000000180025095e-35 1.0000000180025095e-35 1.0000000180025095e-35 1.0000000180025095e-35 1.0000000180025095e-35 1.0000000180025095e-35 1.0000000180025095e-35 1.0000000180025095e-35 1.0000000180025095e-35 1.0000000180025095e-35 1.0000000180025095e-35 1.0000000180025095e-35 1.0000000180025095e-35 1.0000000180025095e-35 1.0000000180025095e-35 1.0000000180025095e-35 1.0000000180025095e-35 1.0000000180025095e-35 1.0000000180025095e-35 1.0000000180025095e-35 1.0000000180025095e-35 1.0000000180025095e-35 1.0000000180025095e-35 1.0000000180025095e-35 1.0000000180025095e-35 1.0000000180025095e-35 1.0000000180025095e-35 1.0000000180025095e-35
decision_type=2 2 2 2 2 2 2 2 2 2 2 2 2 2 2 2 2 2 2 2 2 2 2 2 2 2 2 2 2 2
left_child=1 2 3 4 5 6 7 8 9 10 11 12 13 14 15 16 17 18 19 20 21 22 23 24 25 26 27 28 -1 -5
right_child=-2 -3 -4 29 -6 -7 -8 -9 -10 -11 -12 -13 -14 -15 -16 -17 -18 -19 -20 -21 -22 -23 -24 -25 -26 -27 -28 -29 -30 -31
leaf_value=-0.013807092136697039 0.018137094540116253 0.015802528712827776 0.019167777894582367 -0.013005780074648449 -0.014329157226930601 -0.016483902739227622 0.032966739494325187 0.010872426978544542 0.017377314064458183 0.019176574517204531 0.0084227060877173441 0.014121943435162286 0.0099429894814620848 -0.0207013335026951 0.007308426592114072 0.01008496518005016 0.0072045668279326364 0.0049713482385981408 0.0054968845069170644 0.012062994421788894 0.00882274725432379 -0.02442997971868302 -0.038410845079106581 -0.025191401611299669 -8.6327644113050333e-05 -0.040840369027472609 0.0085403004083516934 0.0084139757810257031 0.0064179650191895313 -0.046418259706470837
leaf_weight=159608.51449781656 48893.645199924707 55296.990188390017 35581.533134564757 93276.214509442449 71600.22397056222 42649.3206063658 10594.85167324543 88120.695787981153 29826.573536396027 21235.022394955158 76592.751948580146 32078.653811439872 47793.525202661753 39146.349422901869 56840.120767429471 34616.653954207897 41175.368015408516 39757.451588511467 28984.703230425715 13657.955946534872 14674.05455827713 40379.904296398163 7485.7544151246548 23881.475589007139 51956.456685334444 4564.7355356812477 9377.2108476608992 8554.0147327035666 9963.8612847179174 3187.8149180412292
leaf_count=641365 198402 223797 144106 373441 287535 170762 42706 358083 120420 85419 308661 129713 192304 157026 228642 139249 166598 159875 116574 54925 59014 162313 30083 95933 209368 18314 38101 34477 40033 12761
internal_value=5.22926e-06 -0.00073822 -0.00154255 -0.0022115 -0.00106957 -5.257e-05 0.000734063 0.000346114 -0.000824857 -0.00153703 -0.00213055 -0.00334697 -0.00423306 -0.00539196 -0.00429328 -0.00564283 -0.00684199 -0.00824293 -0.00965109 -0.010927 -0.0118773 -0.0128392 -0.0111397 -0.0103777 -0.00892792 -0.0113197 -0.010601 -0.0116087 -0.0126187 -0.01411
internal_weight=1.24135e+06 1.19246e+06 1.13716e+06 1.10158e+06 1.00512e+06 933516 890867 880272 792151 762325 741090 664497 632418 584625 545478 488638 454021 412846 373089 344104 330446 315772 275392 267906 244025 192068 187504 178126 169572 96464
internal_count=5000000 4801598 4577801 4433695 4047493 3759958 3589196 3546490 3188407 3067987 2982568 2673907 2544194 2351890 2194864 1966222 1826973 1660375 1500500 1383926 1329001 1269987 1107674 1077591 981658 772290 753976 715875 681398 386202
is_linear=0
shrinkage=0.1


Tree=9
num_leaves=31
num_cat=0
split_feature=178 191 248 233 163 230 169 216 5 177 245 164 161 55 66 43 96 150 119 151 11 93 40 205 29 11 80 179 79 27
split_gain=1642.8 1682.46 1515.37 1439.14 1368.22 1235.86 1173.44 1146.13 1135.64 953.913 944.685 957.155 899.842 899.066 869.964 876.991 671.455 649.179 546.64 533.497 565.768 520.131 509.662 467.941 458.918 436.054 424.916 412.789 398.007 362.093
threshold=1.0000000180025095e-35 1.0000000180025095e-35 1.0000000180025095e-35 1.0000000180025095e-35 1.0000000180025095e-35 1.0000000180025095e-35 1.0000000180025095e-35 1.0000000180025095e-35 1.0000000180025095e-35 1.0000000180025095e-35 1.0000000180025095e-35 1.0000000180025095e-35 1.0000000180025095e-35 1.0000000180025095e-35 1.0000000180025095e-35 1.0000000180025095e-35 1.0000000180025095e-35 1.0000000180025095e-35 1.0000000180025095e-35 1.0000000180025095e-35 1.0000000180025095e-35 1.0000000180025095e-35 1.0000000180025095e-35 1.0000000180025095e-35 1.0000000180025095e-35 1.0000000180025095e-35 1.0000000180025095e-35 1.0000000180025095e-35 1.0000000180025095e-35 1.0000000180025095e-35
decision_type=2 2 2 2 2 2 2 2 2 2 2 2 2 2 2 2 2 2 2 2 2 2 2 2 2 2 2 2 2 2
left_child=1 2 3 4 5 6 7 8 9 10 11 12 13 14 15 16 17 18 19 20 21 22 23 27 29 26 -5 28 -1 -6
right_child=-2 -3 -4 25 24 -7 -8 -9 -10 -11 -12 -13 -14 -15 -16 -17 -18 -19 -20 -21 -22 -23 -24 -25 -26 -27 -28 -29 -30 -31
leaf_value=0.010449350397242265 -0.017865684700464683 -0.016245699999564722 -0.016642463916182064 -0.010090999833726268 -0.0065640927371740836 -0.015634918753147726 -0.013693525045336597 -0.011522022406060128 0.020973108328241077 -0.012695491762442758 -0.013645108362210782 -0.010104488151630047 -0.00908398994353583 0.025178727178650336 0.02843771336330176 0.020757325582711546 -0.011011020676277322 -0.0069584487762059354 -0.025032431877278362 -0.0026565584243717095 0.028210964279094777 0.032498106643876166 0.024540078534444124 -0.0060187935363234949 0.011559917886857337 0.021061529748547931 0.02444175906965293 -0.0030948625649704002 -0.024172119108638299 0.018358299590169897
leaf_weight=240507.93707571924 49390.668456926942 55555.086291536689 43886.06621786952 115729.46416978538 162962.45282483101 26854.81717723608 28541.821976050735 32013.809647038579 60059.443025067449 24660.938970789313 20672.973543345928 27520.704389974475 26239.354406446218 35854.090062171221 21551.198651701212 47733.038679689169 20904.294411227107 29375.965191960335 4808.0405469536781 36090.201827049255 16469.993866890669 9312.6773685216904 18665.039195999503 23556.058295160532 17009.271927163005 5018.7696398198605 3676.3994352519512 26839.302689686418 3366.9543775171041 6045.902642890811
leaf_count=969284 198062 222925 176664 465575 656265 107704 115000 128295 244666 99322 83296 110990 105261 145419 87757 192800 83988 118249 19333 145329 66763 37556 75214 94590 68657 20318 14917 107919 13527 24355
internal_value=5.36647e-06 0.000746178 0.0015772 0.0023094 0.00361117 0.00544564 0.00619572 0.00697742 0.00783056 0.00658581 0.00736599 0.0081037 0.0089965 0.00988321 0.00878459 0.00789782 0.00646998 0.00736346 0.00847174 0.00890153 0.010133 0.00920908 0.00851602 0.00749964 -0.00409683 -0.00781409 -0.00902777 0.00867594 0.00997136 -0.00567255
internal_weight=1.24087e+06 1.19148e+06 1.13593e+06 1.09204e+06 967616 781599 754744 726202 694188 634129 609468 588795 561274 535035 499181 477630 429896 408992 379616 374808 338718 322248 312935 294270 186018 124425 119406 270714 243875 169008
internal_count=5000000 4801938 4579013 4402349 3901539 3152262 3044558 2929558 2801263 2556597 2457275 2373979 2262989 2157728 2012309 1924552 1731752 1647764 1529515 1510182 1364853 1298090 1260534 1185320 749277 500810 480492 1090730 982811 680620
is_linear=0
shrinkage=0.1


Tree=10
num_leaves=31
num_cat=0
split_feature=180 179 28 13 83 80 27 1 95 41 98 14 155 216 193 243 205 161 287 19 190 244 29 30 161 254 184 163 157 150
split_gain=1526.41 1500.19 1343.58 1281.87 1198.56 998.796 911.623 952.401 990.732 1002.13 950.624 836.601 761.768 729.293 743.497 570.634 583.692 547.136 525.239 522.913 498.766 420.406 414.655 377.156 369.693 368.169 345.331 342.736 327.444 336.921
threshold=1.0000000180025095e-35 1.0000000180025095e-35 1.0000000180025095e-35 1.0000000180025095e-35 1.0000000180025095e-35 1.0000000180025095e-35 1.0000000180025095e-35 1.0000000180025095e-35 1.0000000180025095e-35 1.0000000180025095e-35 1.0000000180025095e-35 1.0000000180025095e-35 1.0000000180025095e-35 1.0000000180025095e-35 1.0000000180025095e-35 1.0000000180025095e-35 1.0000000180025095e-35 1.0000000180025095e-35 1.0000000180025095e-35 1.0000000180025095e-35 1.0000000180025095e-35 1.0000000180025095e-35 1.0000000180025095e-35 1.0000000180025095e-35 1.0000000180025095e-35 1.0000000180025095e-35 1.0000000180025095e-35 1.0000000180025095e-35 1.0000000180025095e-35 1.0000000180025095e-35
decision_type=2 2 2 2 2 2 2 2 2 2 2 2 2 2 2 2 2 2 2 2 2 2 2 2 2 2 2 2 2 2
left_child=1 2 3 4 5 6 7 8 9 10 11 12 13 14 15 16 17 18 19 20 21 22 23 28 -6 26 -5 -9 29 -1
right_child=-2 -3 -4 25 24 -7 -8 27 -10 -11 -12 -13 -14 -15 -16 -17 -18 -19 -20 -21 -22 -23 -24 -25 -26 -27 -28 -29 -30 -31
leaf_value=-0.00015326270267409446 -0.015506699623590562 -0.010546912015937363 0.019340785328991836 0.0054775340422491894 0.011094092578523208 0.01800580632092964 0.015478412030874201 0.012967278025577816 0.016887063327000493 0.011886157389692849 0.012250701576707513 0.010540401081105523 -0.020067128854198701 -0.025624743542081413 -0.018157155572953339 -0.026654815335289794 -0.017396048207316335 -0.020007805073194301 -0.021893901025742624 0.018249790092910192 -0.017389422829095849 -0.02168100662046642 0.010456229738147985 0.013503270620934342 -0.01953896210434207 0.023952435838249322 0.017838894710540586 -0.0052597819451331877 -0.013202631802109999 -0.013743679742243478
leaf_weight=205501.37284557521 60346.909630581737 106064.67871573567 42516.336925983429 150283.90394425392 95324.446794584394 24461.338542744517 27010.733715832233 45931.813610509038 21151.375648990273 32755.069941848516 26923.571535006166 25923.642981976271 46595.541245773435 19470.904561683536 44415.996857374907 11347.975069865584 29741.167289271951 17675.352926880121 12767.177799537778 13238.928485438228 19841.110116407275 9554.262294203043 31623.221420302987 15466.087469041348 4109.518320530653 14422.307482600212 26599.769649639726 13304.596283450723 26041.974095180631 20018.527852043509
leaf_count=827778 242840 426916 172741 606388 385384 99383 108879 185041 85216 132834 108635 104274 186594 78002 178428 45631 119441 70847 51400 53556 79840 38486 127726 62406 16484 58420 107477 53512 104884 80557
internal_value=5.66671e-06 0.000798936 0.0019194 0.00120132 -0.000480815 -0.0018646 -0.00254316 -0.00324936 -0.00438912 -0.00512819 -0.00609549 -0.00699484 -0.00786352 -0.00667068 -0.00586353 -0.00454083 -0.00391576 -0.00283723 -0.00198002 -0.00123506 -0.00202141 -0.00103207 -0.000371484 -0.00165377 0.00982806 0.00858909 0.00733644 0.00887345 -0.00258563 -0.00135963
internal_weight=1.24043e+06 1.18008e+06 1.07402e+06 1.0315e+06 840196 740762 716300 689290 630053 608902 576147 549223 523300 476704 457233 412817 401469 371728 354053 341285 328047 308205 298651 267028 99434 191306 176884 59236.4 251562 225520
internal_count=5000000 4757160 4330244 4157503 3385218 2983350 2883967 2775088 2536535 2451319 2318485 2209850 2105576 1918982 1840980 1662552 1616921 1497480 1426633 1375233 1321677 1241837 1203351 1075625 401868 772285 713865 238553 1013219 908335
is_linear=0
shrinkage=0.1


Tree=11
num_leaves=31
num_cat=0
split_feature=269 187 202 254 214 156 183 263 229 64 277 285 45 195 294 168 175 255 11 188 232 239 52 6 169 37 79 104 162 246
split_gain=1473.92 1415.39 1373.55 1320.83 1253.21 1188.65 1156.72 1127.27 1094.57 1065.94 1002.28 991.192 972.205 925.92 898.579 901.189 854.905 788.876 801.982 759.763 728.263 691.397 654.242 637.043 558.404 545.261 525.956 515.052 480.003 474.992
threshold=1.0000000180025095e-35 1.0000000180025095e-35 1.0000000180025095e-35 1.0000000180025095e-35 1.0000000180025095e-35 1.0000000180025095e-35 1.0000000180025095e-35 1.0000000180025095e-35 1.0000000180025095e-35 1.0000000180025095e-35 1.0000000180025095e-35 1.0000000180025095e-35 1.0000000180025095e-35 1.0000000180025095e-35 1.0000000180025095e-35 1.0000000180025095e-35 1.0000000180025095e-35 1.0000000180025095e-35 1.0000000180025095e-35 1.0000000180025095e-35 1.0000000180025095e-35 1.0000000180025095e-35 1.0000000180025095e-35 1.0000000180025095e-35 1.0000000180025095e-35 1.0000000180025095e-35 1.0000000180025095e-35 1.0000000180025095e-35 1.0000000180025095e-35 1.0000000180025095e-35
decision_type=2 2 2 2 2 2 2 2 2 2 2 2 2 2 2 2 2 2 2 2 2 2 2 2 2 2 2 2 2 2
left_child=1 2 3 4 5 6 7 8 9 10 11 12 13 14 15 16 17 18 19 20 21 22 23 24 25 26 27 28 29 -1
right_child=-2 -3 -4 -5 -6 -7 -8 -9 -10 -11 -12 -13 -14 -15 -16 -17 -18 -19 -20 -21 -22 -23 -24 -25 -26 -27 -28 -29 -30 -31
leaf_value=-0.0091771862984162001 0.031414185242483517 0.027539507345809441 0.014670553333998665 0.010686579441207787 0.027813079635044199 0.0094468576686614625 0.015395098547471299 0.013588195284721978 0.025953353920134481 -0.035827018503921282 0.014062930135356328 0.015575513135036309 -0.029961611882266932 0.017020465014267582 0.014527379434183866 0.0098007783586811122 0.0012644616416262753 0.010862335476452947 0.0078538336002653125 0.0033965430914960834 0.010216694179201525 0.012825021660971337 -0.027609607643347658 -0.023648895848550219 -0.026751327323794982 -0.036964484829797223 -0.03962702557421266 -0.020357691063829283 0.012636656669078653 0.0061262852128754139
leaf_weight=384663.94894199073 14763.025390520692 17901.635220006108 54875.733346119523 82281.178735509515 13500.792412281036 73185.83683308959 30536.738482400775 33692.528809145093 11258.623365238309 11384.010945141315 26666.693936675787 21519.793287277222 16815.936918333173 17595.624760985374 20457.58779156208 31776.597870275378 99320.568357080221 20023.129176676273 26164.391205534339 39494.309636607766 15823.433314278722 11412.303984493017 25734.710686996579 38563.055129393935 19779.64825977385 7167.3889921009541 5599.8507701158524 35481.428590148687 11176.594674944878 21410.694944620132
leaf_count=1549400 59565 72548 223448 332788 54622 295473 123176 135944 45458 45676 107468 86743 67572 71030 82477 128519 400141 80665 105867 159055 63738 45965 103079 154946 79527 28761 22485 142487 45047 86330
internal_value=5.634e-06 -0.000372803 -0.00078666 -0.00152266 -0.00246134 -0.00284814 -0.00376304 -0.00437693 -0.00503536 -0.00541959 -0.00503353 -0.00561887 -0.00615643 -0.00567509 -0.00616565 -0.00669909 -0.00738733 -0.00868439 -0.00929358 -0.0100215 -0.0109403 -0.011537 -0.0120429 -0.0112782 -0.0102952 -0.00959591 -0.00916792 -0.00879117 -0.0078076 -0.0083703
internal_weight=1.24003e+06 1.22526e+06 1.20736e+06 1.15249e+06 1.07021e+06 1.05671e+06 983520 952983 919290 908032 896648 869981 848461 831645 814050 793592 761815 662495 642472 616307 576813 560990 549577 523843 485280 465500 458333 452733 417251 406075
internal_count=5000000 4940435 4867887 4644439 4311651 4257029 3961556 3838380 3702436 3656978 3611302 3503834 3417091 3349519 3278489 3196012 3067493 2667352 2586687 2480820 2321765 2258027 2212062 2108983 1954037 1874510 1845749 1823264 1680777 1635730
is_linear=0
shrinkage=0.1


Tree=12
num_leaves=31
num_cat=0
split_feature=29 30 178 191 230 19 233 163 248 245 151 177 164 161 5 55 43 66 137 11 93 169 20 40 119 179 13 62 41 11
split_gain=1361.34 1399.27 1213.02 1144.51 1097.09 1073.55 1049.08 1009.84 851.551 794.806 853.338 792.269 757.726 692.432 660.337 630.462 596.224 573.411 489.185 484.623 471.812 455.436 411.362 381.859 342.737 332.492 320.072 299.467 291.529 286.244
threshold=1.0000000180025095e-35 1.0000000180025095e-35 1.0000000180025095e-35 1.0000000180025095e-35 1.0000000180025095e-35 1.0000000180025095e-35 1.0000000180025095e-35 1.0000000180025095e-35 1.0000000180025095e-35 1.0000000180025095e-35 1.0000000180025095e-35 1.0000000180025095e-35 1.0000000180025095e-35 1.0000000180025095e-35 1.0000000180025095e-35 1.0000000180025095e-35 1.0000000180025095e-35 1.0000000180025095e-35 1.0000000180025095e-35 1.0000000180025095e-35 1.0000000180025095e-35 1.0000000180025095e-35 1.0000000180025095e-35 1.0000000180025095e-35 1.0000000180025095e-35 1.0000000180025095e-35 1.0000000180025095e-35 1.0000000180025095e-35 1.0000000180025095e-35 1.0000000180025095e-35
decision_type=2 2 2 2 2 2 2 2 2 2 2 2 2 2 2 2 2 2 2 2 2 2 2 2 2 2 2 2 2 2
left_child=1 2 3 4 5 6 7 8 9 10 11 12 13 14 15 16 17 18 19 20 21 22 23 24 25 -1 -12 28 -9 -8
right_child=-2 -3 -4 -5 -6 -7 29 27 -10 -11 26 -13 -14 -15 -16 -17 -18 -19 -20 -21 -22 -23 -24 -25 -26 -27 -28 -29 -30 -31
leaf_value=0.0011969779671777616 0.010663257931633099 0.014372266320931824 -0.018337393708029261 -0.016192301670596026 -0.018922383723847747 0.017546311039546215 -0.011052145631220638 -0.0086370461109845711 -0.014457878873641078 -0.01606522672437825 -0.012105583506592011 -0.013119523148105605 -0.010963492745961041 -0.010026071793190171 0.019467651023479925 0.020262000537944178 0.016897110838733725 0.022467958664974481 0.022731403949543205 0.018964492751974014 0.023480800483876949 -0.017472848266192921 0.012163802210624484 0.015170688979960765 -0.031663077707576079 -0.010701379979245919 0.0060047540393325834 0.011250453186241901 0.011880926735080805 0.015393235317498439
leaf_weight=222402.35070285201 109287.01778157055 56095.180482730269 42738.015867993236 48184.731082484126 30994.568281680346 34371.736311256886 98854.513161420822 138528.48832248151 28492.8056011796 20680.337515428662 42729.555896520615 23009.466554656625 25568.415212616324 23652.158008262515 42075.193203657866 30360.830333456397 40194.070136189461 16207.712694481015 12416.852837502956 17040.164616420865 9619.1275561898947 12806.37536136806 33881.53659786284 16581.753233104944 3479.5585086941719 26258.873943910003 12647.149047747254 8933.1542905718088 7289.2638703435659 4269.7425340414047
leaf_count=896545 441674 226531 171379 193340 124317 139107 397666 557669 114633 83327 172249 92721 103171 94939 171927 123424 162675 66249 50068 69249 38861 51465 136506 66909 13976 105468 51121 35953 29547 17334
internal_value=5.67748e-06 -0.00102473 -0.00182872 -0.00114473 -0.000407392 0.000195185 -0.000454491 0.000748128 0.00245262 0.00321548 0.00386814 0.00504809 0.00583306 0.00668016 0.0074977 0.00635631 0.00532881 0.00407447 0.00323349 0.00252573 0.0016639 0.000998547 0.00178027 0.000471072 -0.000495632 -5.95005e-05 -0.00796947 -0.00652256 -0.00761138 -0.0099572
internal_weight=1.23965e+06 1.13036e+06 1.07427e+06 1.03153e+06 983346 952351 917979 814855 660104 631611 610931 555554 532545 506977 483324 441249 410888 370694 354487 342070 325030 315410 302604 268723 252141 248661 55376.7 154751 145818 103124
internal_count=5000000 4558326 4331795 4160416 3967076 3842759 3703652 3288652 2665483 2550850 2467523 2244153 2151432 2048261 1953322 1781395 1657971 1495296 1429047 1378979 1309730 1270869 1219404 1082898 1015989 1002013 223370 623169 587216 415000
is_linear=0
shrinkage=0.1


Tree=13
num_leaves=31
num_cat=0
split_feature=18 96 113 79 33 127 135 82 216 119 254 187 202 37 239 269 156 214 52 45 12 105 6 64 38 65 89 85 106 195
split_gain=1304.87 1210.37 1179.81 1125.43 1101.04 1065.63 1041.52 1034.31 1001.79 914.445 912.358 859.135 839.948 795.129 775.405 759.942 745.165 695.629 664.192 639.359 622.422 615.77 603.139 561.511 540.732 524.146 496.102 490.975 465.189 452.127
threshold=1.0000000180025095e-35 1.0000000180025095e-35 1.0000000180025095e-35 1.0000000180025095e-35 1.0000000180025095e-35 1.0000000180025095e-35 1.0000000180025095e-35 1.0000000180025095e-35 1.0000000180025095e-35 1.0000000180025095e-35 1.0000000180025095e-35 1.0000000180025095e-35 1.0000000180025095e-35 1.0000000180025095e-35 1.0000000180025095e-35 1.0000000180025095e-35 1.0000000180025095e-35 1.0000000180025095e-35 1.0000000180025095e-35 1.0000000180025095e-35 1.0000000180025095e-35 1.0000000180025095e-35 1.0000000180025095e-35 1.0000000180025095e-35 1.0000000180025095e-35 1.0000000180025095e-35 1.0000000180025095e-35 1.0000000180025095e-35 1.0000000180025095e-35 1.0000000180025095e-35
decision_type=2 2 2 2 2 2 2 2 2 2 2 2 2 2 2 2 2 2 2 2 2 2 2 2 2 2 2 2 2 2
left_child=1 2 3 4 5 6 7 8 9 10 11 12 13 14 15 16 17 18 19 20 21 22 23 24 25 26 27 28 29 -1
right_child=-2 -3 -4 -5 -6 -7 -8 -9 -10 -11 -12 -13 -14 -15 -16 -17 -18 -19 -20 -21 -22 -23 -24 -25 -26 -27 -28 -29 -30 -31
leaf_value=0.0080037071514019991 -0.016417504745857091 -0.013537927991470071 -0.015608583225617778 -0.026953334598340897 -0.015586439262288435 -0.015858291191865208 -0.016947430294686879 -0.015982947296084894 -0.011264785668585652 -0.02300519920660209 0.016879539729356779 0.03044843477784677 0.018616521045169258 -0.021596813461317865 0.026882199331404118 0.03139413738458216 0.014562709779963018 0.029634269075250266 -0.011636501707482427 -0.018476318898322189 -0.016626979155708873 -0.014219550664461247 -0.0065476834922735122 -0.021667054524274983 -0.0066502075822892116 -0.025157380247977448 -0.014911003368523246 -0.001947452018080017 -0.01386749427107151 0.030076157962062196
leaf_weight=439255.79215171933 46560.582835763693 57266.340562999249 39537.538310438395 13285.689568191767 33248.245105132461 29443.014393955469 24459.690832450986 25393.948291644454 38883.747259572148 11420.043340548873 65093.696851804852 12666.040592327714 38609.424804091454 12412.554647937417 14426.431972578168 9634.6164377480745 53094.382758647203 9179.2483414709568 34344.474444746971 14061.977797985077 15653.929931402206 18913.916170164943 49036.791662365198 7784.081233382225 35068.803942993283 5286.9173813611269 10615.128132596612 55567.687248140574 9520.8808669745922 9480.5368435978889
leaf_count=1773454 187218 230339 159162 53399 133972 118652 98544 102335 155904 45947 264050 51575 157693 49855 58297 39011 214965 37311 137623 56508 63046 76246 197247 31240 141348 21324 42705 224169 38400 38461
internal_value=5.72104e-06 0.00064688 0.00136233 0.00197464 0.00232966 0.00289734 0.00343881 0.00393975 0.00446131 0.00511803 0.00546724 0.00459799 0.0042091 0.00351667 0.00391079 0.00348401 0.00313336 0.00228317 0.00192685 0.00262186 0.00307399 0.00355546 0.0040963 0.00500787 0.00537551 0.00617163 0.00648746 0.00692953 0.00800595 0.00847004
internal_weight=1.23921e+06 1.19265e+06 1.13538e+06 1.09584e+06 1.08256e+06 1.04931e+06 1.01986e+06 995405 970011 931127 919707 854614 841948 803338 790926 776499 766865 713770 704591 670246 656184 640531 621617 572580 564796 529727 524440 513825 458257 448736
internal_count=5000000 4812782 4582443 4423281 4369882 4235910 4117258 4018714 3916379 3760475 3714528 3450478 3398903 3241210 3191355 3133058 3094047 2879082 2841771 2704148 2647640 2584594 2508348 2311101 2279861 2138513 2117189 2074484 1850315 1811915
is_linear=0
shrinkage=0.1


Tree=14
num_leaves=31
num_cat=0
split_feature=180 104 29 169 30 83 28 41 183 155 19 64 98 95 13 27 89 14 216 193 151 80 0 11 205 161 66 150 230 287
split_gain=1192.69 1125 999.397 947.826 874.062 856.359 740.123 701.239 664.443 647.406 608.693 581.48 529.027 526.764 530.921 518.396 441.375 429.133 429.762 440.063 365.307 355.422 353.96 342.018 347.93 329.44 284.284 273.457 258.101 252.459
threshold=1.0000000180025095e-35 1.0000000180025095e-35 1.0000000180025095e-35 1.0000000180025095e-35 1.0000000180025095e-35 1.0000000180025095e-35 1.0000000180025095e-35 1.0000000180025095e-35 1.0000000180025095e-35 1.0000000180025095e-35 1.0000000180025095e-35 1.0000000180025095e-35 1.0000000180025095e-35 1.0000000180025095e-35 1.0000000180025095e-35 1.0000000180025095e-35 1.0000000180025095e-35 1.0000000180025095e-35 1.0000000180025095e-35 1.0000000180025095e-35 1.0000000180025095e-35 1.0000000180025095e-35 1.0000000180025095e-35 1.0000000180025095e-35 1.0000000180025095e-35 1.0000000180025095e-35 1.0000000180025095e-35 1.0000000180025095e-35 1.0000000180025095e-35 1.0000000180025095e-35
decision_type=2 2 2 2 2 2 2 2 2 2 2 2 2 2 2 2 2 2 2 2 2 2 2 2 2 2 2 2 2 2
left_child=1 2 3 4 5 6 7 8 9 10 11 12 13 14 15 16 17 18 19 20 21 22 23 24 26 27 28 -7 29 -1
right_child=-2 -3 -4 -5 -6 25 -8 -9 -10 -11 -12 -13 -14 -15 -16 -17 -18 -19 -20 -21 -22 -23 -24 -25 -26 -27 -28 -29 -30 -31
leaf_value=-0.003579632587678753 -0.013706075208267275 -0.010531890667294729 0.011190240075431538 -0.015633914946726717 0.013895514175277289 0.011366049403146627 0.013905953337125363 0.012183821589227654 0.014799204340202028 -0.012154543341979848 0.013574595216867212 -0.027887660552317978 0.012609479552186501 0.014350222430505849 0.0030104193379272429 0.011934580937725502 -0.026514567413415093 0.0095371541770392365 -0.021034836429926405 -0.014955962617115166 -0.015173275657521674 0.014448012483364546 0.0089079014098509771 0.010983261797224394 -0.017724944362721332 -0.017720609803183421 0.010515951227596949 -0.0098415034045254979 -0.021910209111767776 -0.021304433586865817
leaf_weight=226501.07986287773 60345.215812519193 82792.237582504749 98062.829270035028 34670.622972369194 51303.15963421762 96328.471414372325 33527.33339728415 36879.587395370007 22950.632931396365 63134.630303472281 25571.677762463689 8667.5853900462389 24449.230176776648 18189.791722282767 118877.86923342943 18411.495361804962 9500.3863976150751 20110.180773198605 16909.685079947114 38079.305808380246 25438.143781259656 11615.666510745883 21846.642339080572 13954.173430368304 20120.763574898243 4464.4742536693811 12702.728640437126 6489.6718438714743 8536.1794586926699 8331.3482827246189
leaf_count=912277 242840 332896 397064 139579 207599 390339 136573 149838 92720 253054 103653 34830 98912 73463 480884 74375 38195 81052 67809 153081 102355 47396 88025 56666 80827 17908 51773 26273 34235 33509
internal_value=5.84098e-06 0.00070801 0.00155737 0.000610432 0.00119534 0.000480587 -0.000638806 -0.00127147 -0.00194762 -0.00248824 -0.00154618 -0.00216758 -0.00180425 -0.00240244 -0.00293617 -0.00449995 -0.00519771 -0.00472024 -0.00542988 -0.00474825 -0.00363464 -0.00272761 -0.00336707 -0.00429132 -0.00506304 0.00887276 -0.00406814 0.0100275 -0.00482936 -0.00420847
internal_weight=1.23876e+06 1.17842e+06 1.09563e+06 997563 962892 911589 804306 770779 733899 710949 647814 622242 613575 589125 570936 452058 433646 424146 404036 387126 349047 323609 311993 290146 276192 107283 256071 102818 243369 234832
internal_count=5000000 4757160 4424264 4027200 3887621 3680022 3245502 3108929 2959091 2866371 2613317 2509664 2474834 2375922 2302459 1821575 1747200 1709005 1627953 1560144 1407063 1304708 1257312 1169287 1112621 434520 1031794 416612 980021 945786
is_linear=0
shrinkage=0.1


Tree=15
num_leaves=31
num_cat=0
split_feature=191 178 248 66 13 80 233 33 263 246 187 27 294 95 98 1 28 41 43 40 11 205 5 0 7 93 94 184 62 55
split_gain=1108.15 1089.05 1052.12 1045.89 961.119 797.963 801.183 690.6 662.957 633.951 613.062 586.434 572.991 561.875 584.424 603.574 644.896 632.831 481.975 462.884 472.533 495.118 422.351 418.362 476.481 469.409 420.377 330.683 322.766 347.134
threshold=1.0000000180025095e-35 1.0000000180025095e-35 1.0000000180025095e-35 1.0000000180025095e-35 1.0000000180025095e-35 1.0000000180025095e-35 1.0000000180025095e-35 1.0000000180025095e-35 1.0000000180025095e-35 1.0000000180025095e-35 1.0000000180025095e-35 1.0000000180025095e-35 1.0000000180025095e-35 1.0000000180025095e-35 1.0000000180025095e-35 1.0000000180025095e-35 1.0000000180025095e-35 1.0000000180025095e-35 1.0000000180025095e-35 1.0000000180025095e-35 1.0000000180025095e-35 1.0000000180025095e-35 1.0000000180025095e-35 1.0000000180025095e-35 1.0000000180025095e-35 1.0000000180025095e-35 1.0000000180025095e-35 1.0000000180025095e-35 1.0000000180025095e-35 1.0000000180025095e-35
decision_type=2 2 2 2 2 2 2 2 2 2 2 2 2 2 2 2 2 2 2 2 2 2 2 2 2 2 2 2 2 2
left_child=1 2 3 4 5 6 7 8 9 10 11 12 13 14 15 16 17 18 19 20 21 22 23 24 25 26 28 -6 29 -1
right_child=-2 -3 -4 -5 27 -7 -8 -9 -10 -11 -12 -13 -14 -15 -16 -17 -18 -19 -20 -21 -22 -23 -24 -25 -26 -27 -28 -29 -30 -31
leaf_value=-0.015139244870318085 -0.013617670650400128 -0.014101283870843351 -0.013893399835593756 0.017247090625897198 0.0059304481391140151 0.01666476962108376 -0.009462649705078513 -0.016535132700038879 0.016932704683112507 0.013434071302080602 0.023733672601912486 0.014889134464231983 0.017779459830377341 0.01565558544621885 0.012613299442452078 0.0078598738543760108 0.011499825332773595 0.009852921466153285 0.0039422594850903984 0.0063405046091432344 0.0077030845114754278 -0.021961287026758484 0.0031136266990581772 0.0037616345455677193 0.0019898176555100209 0.011477175319541531 0.0091769383829532411 0.0176280789697656 0.00038023290960709655 -0.0015805084235736629
leaf_weight=196379.83889620006 56961.45627309382 47935.964784041047 43888.361813902855 42658.035528168082 164582.4505084604 27266.146656498313 93068.24462506175 23350.287104636431 25016.343150615692 35179.183538794518 10401.808654382825 23139.025919571519 15306.828481048346 17865.691981717944 24990.292319864035 46741.450411632657 25469.472598776221 27703.507106617093 46479.077788308263 25169.236359074712 19046.96290409565 25260.446473881602 34058.824370712042 25067.953314498067 30970.880517601967 8844.9360411763191 9047.2842565923929 28325.928180724382 17238.743465304375 20891.213783532381
leaf_count=789173 228662 192325 176664 174338 665907 111260 374431 93996 101238 142157 42400 93603 61884 72221 101159 188691 103859 112743 187729 101430 77341 101465 138762 100965 124611 35656 36411 114874 69371 84674
internal_value=5.64363e-06 0.000662526 0.00128694 0.00189844 0.00127301 -0.000167127 -0.000722283 0.000386535 0.00094284 0.000359102 -0.000348459 -0.000740063 -0.00132664 -0.00181307 -0.00234806 -0.00301766 -0.00401142 -0.00482404 -0.00571094 -0.00680001 -0.00765505 -0.00845048 -0.00745401 -0.00862091 -0.00971631 -0.0111527 -0.0119745 0.00764808 -0.0127905 -0.0138355
internal_weight=1.23831e+06 1.18134e+06 1.13341e+06 1.08952e+06 1.04686e+06 853954 826688 733619 710269 685253 650073 639672 616533 601226 583360 558370 511628 486159 458455 411976 386807 367760 342500 308441 283373 252402 243557 192908 234510 217271
internal_count=5000000 4771338 4579013 4402349 4228011 3447230 3335970 2961539 2867543 2766305 2624148 2581748 2488145 2426261 2354040 2252881 2064190 1960331 1847588 1659859 1558429 1481088 1379623 1240861 1139896 1015285 979629 780781 943218 873847
is_linear=0
shrinkage=0.1


Tree=16
num_leaves=31
num_cat=0
split_feature=229 168 269 232 277 263 285 104 183 195 37 202 188 214 156 256 175 249 255 45 246 80 162 11 174 235 239 127 52 294
split_gain=1064.33 1027.43 991.202 975.375 965.514 907.951 903.388 871.778 832.724 812.502 789.354 773.768 759.155 706.318 708.907 663.843 655.443 586.999 575.71 537.87 516.922 494.329 489.78 480.431 459.919 436.941 418.519 382.016 376.319 358.485
threshold=1.0000000180025095e-35 1.0000000180025095e-35 1.0000000180025095e-35 1.0000000180025095e-35 1.0000000180025095e-35 1.0000000180025095e-35 1.0000000180025095e-35 1.0000000180025095e-35 1.0000000180025095e-35 1.0000000180025095e-35 1.0000000180025095e-35 1.0000000180025095e-35 1.0000000180025095e-35 1.0000000180025095e-35 1.0000000180025095e-35 1.0000000180025095e-35 1.0000000180025095e-35 1.0000000180025095e-35 1.0000000180025095e-35 1.0000000180025095e-35 1.0000000180025095e-35 1.0000000180025095e-35 1.0000000180025095e-35 1.0000000180025095e-35 1.0000000180025095e-35 1.0000000180025095e-35 1.0000000180025095e-35 1.0000000180025095e-35 1.0000000180025095e-35 1.0000000180025095e-35
decision_type=2 2 2 2 2 2 2 2 2 2 2 2 2 2 2 2 2 2 2 2 2 2 2 2 2 2 2 2 2 2
left_child=1 2 3 4 5 6 7 8 9 10 11 12 13 14 15 16 17 18 19 20 21 22 23 24 25 26 27 28 29 -1
right_child=-2 -3 -4 -5 -6 -7 -8 -9 -10 -11 -12 -13 -14 -15 -16 -17 -18 -19 -20 -21 -22 -23 -24 -25 -26 -27 -28 -29 -30 -31
leaf_value=-0.011771954177993059 0.027112417395624984 0.014476886665313547 0.025521221660497691 0.017153678114192987 0.015452527092577897 0.012991502147121962 0.015874599716952542 -0.013694106966063498 0.014144503453005398 0.017641189462492417 -0.027274484437954501 0.010269268734048364 0.0081631864254759212 0.021425067744099757 0.006057833522092956 0.015597345034130433 0.0018565933156654193 0.010059994186082203 0.0095823428679602668 -0.028815354759469392 0.0047864252467556571 0.0083099351085756234 0.0094720681645632 0.005134496567795516 0.0012022652323152331 -0.0024308308844826444 0.0094344438960909365 -0.030320643184641418 -0.025702666698040413 0.0074372395710852208
leaf_weight=363143.65520910919 14317.42384172976 45241.448393836617 14051.417420595884 28257.99906411767 32060.223042547703 38223.607721820474 25570.261056944728 72931.25685697794 29646.629148244858 18908.419466495514 13531.376306205988 42262.672016754746 51673.327712282538 10503.942330539227 57140.190429538488 14620.276738241315 94269.250276654959 19371.670672297478 18859.796995639801 12349.995753124356 31247.391796603799 17086.85272410512 14026.393334254622 21609.394523277879 33614.318084985018 53778.985759288073 8901.3165249675512 11664.354975789785 18952.267654031515 9982.282679900527
leaf_count=1463493 58093 183600 57017 114267 129635 154853 103427 293150 120105 76708 54420 172875 208706 42767 231440 59014 380574 78179 76177 49652 126307 69548 56628 87731 135534 216828 35975 46905 76035 40357
internal_value=5.55169e-06 -0.000311658 -0.000879501 -0.00119815 -0.00165468 -0.00215153 -0.0026947 -0.00315122 -0.0023562 -0.002878 -0.00330037 -0.00294194 -0.00358907 -0.00433776 -0.00467576 -0.00550069 -0.0059239 -0.00707971 -0.0076194 -0.0081634 -0.00772667 -0.00843404 -0.00896813 -0.00946397 -0.0100948 -0.010909 -0.012014 -0.0124868 -0.0119563 -0.011258
internal_weight=1.2378e+06 1.22348e+06 1.17824e+06 1.16419e+06 1.13593e+06 1.10387e+06 1.06565e+06 1.04008e+06 967145 937498 918590 905058 862796 811122 800618 743478 728858 634589 615217 596357 584007 552760 535673 521647 500037 466423 412644 403743 392078 373126
internal_count=5000000 4941907 4758307 4701290 4587023 4457388 4302535 4199108 3905958 3785853 3709145 3654725 3481850 3273144 3230377 2998937 2939923 2559349 2481170 2404993 2355341 2229034 2159486 2102858 2015127 1879593 1662765 1626790 1579885 1503850
is_linear=0
shrinkage=0.1


Tree=17
num_leaves=31
num_cat=0
split_feature=18 215 64 113 6 243 161 155 230 150 193 216 190 157 191 244 242 205 212 287 238 197 25 83 29 163 1 0 164 167
split_gain=1008.13 943.284 942.275 923.267 902.269 871.993 886.969 847.618 807.412 814.196 847.094 866.463 787.701 854.436 804.752 790.083 829.201 821.463 729.407 729.844 650.624 672.373 595.897 458.521 387.918 381.854 319.95 306.064 289.303 268.158
threshold=1.0000000180025095e-35 1.0000000180025095e-35 1.0000000180025095e-35 1.0000000180025095e-35 1.0000000180025095e-35 1.0000000180025095e-35 1.0000000180025095e-35 1.0000000180025095e-35 1.0000000180025095e-35 1.0000000180025095e-35 1.0000000180025095e-35 1.0000000180025095e-35 1.0000000180025095e-35 1.0000000180025095e-35 1.0000000180025095e-35 1.0000000180025095e-35 1.0000000180025095e-35 1.0000000180025095e-35 1.0000000180025095e-35 1.0000000180025095e-35 1.0000000180025095e-35 1.0000000180025095e-35 1.0000000180025095e-35 1.0000000180025095e-35 1.0000000180025095e-35 1.0000000180025095e-35 1.0000000180025095e-35 1.0000000180025095e-35 1.0000000180025095e-35 1.0000000180025095e-35
decision_type=2 2 2 2 2 2 2 2 2 2 2 2 2 2 2 2 2 2 2 2 2 2 2 2 2 2 2 2 2 2
left_child=1 2 3 4 5 6 7 8 9 10 11 12 13 14 15 16 17 18 19 20 21 22 23 24 25 28 -8 -7 29 -1
right_child=-2 -3 -4 -5 -6 27 26 -9 -10 -11 -12 -13 -14 -15 -16 -17 -18 -19 -20 -21 -22 -23 -24 -25 -26 -27 -28 -29 -30 -31
leaf_value=0.019860670090129786 -0.014432085545583465 0.029501325684153801 -0.024950968813269019 -0.014235548287548248 -0.0092285578760456614 -0.018842179174478585 -0.014448023271613777 -0.0063078014579110529 -0.012750325318444916 -0.0069219666711840128 -0.0042518530982625057 -0.0088554600149322316 -0.0058452910716275883 -0.0024970358210819809 -0.0058931812995616575 -0.010191800946840662 -0.0017166255686296616 -0.0010451113215311991 -0.00071108201794073682 -0.0053629864922789807 -0.010994320349410048 -0.0022034710142353679 0.0062091508410336352 0.029223830304270226 0.028756571043790258 0.0082498046852838274 0.017841088125300702 0.027770617516325619 0.0025382726162827326 0.0018841436387838234
leaf_weight=177771.52700249851 46545.394483685493 11163.725355729461 14599.922689527273 40425.854978606105 78013.348150372505 24510.679809272289 38520.243183389306 89125.878299415112 28131.576812982559 58522.663416460156 83294.046217948198 35397.887085556984 43419.620321393013 68328.527524515986 32724.246854007244 18255.713275656104 46869.925651594996 42471.926822781563 33205.043621867895 17319.806808397174 8966.0359368026257 18721.324109047651 43005.446320831776 36957.010875865817 26923.404375940561 49378.957814916968 3334.4621684551239 1494.5406691879034 11292.781239405274 8704.4122380018234
leaf_count=721638 187218 45142 58721 162747 314277 99032 154778 357692 112984 236658 336371 142049 175715 276793 131402 73927 189970 171397 134574 70137 36371 75930 174256 150613 109743 199426 13395 6034 45691 35319
internal_value=5.48379e-06 0.000569788 0.000296001 0.000612375 0.00114608 0.00191937 0.0023801 0.0029897 0.00392112 0.0044655 0.00529541 0.00640033 0.00718948 0.00807256 0.0093339 0.0102569 0.0109727 0.0122255 0.0135294 0.0147144 0.0156254 0.0162657 0.0172424 0.0187679 0.017358 0.0161162 -0.0118756 -0.0161633 0.0180803 0.0190216
internal_weight=1.2374e+06 1.19085e+06 1.17969e+06 1.16509e+06 1.12466e+06 1.04665e+06 1.02064e+06 978788 889662 861530 803008 719714 684316 640896 572568 539843 521588 474718 432246 399041 381721 372755 354034 311028 274071 247148 41854.7 26005.2 197769 186476
internal_count=5000000 4812782 4767640 4708919 4546172 4231895 4126829 3958656 3600964 3487980 3251322 2914951 2772902 2597187 2320394 2188992 2115065 1925095 1753698 1619124 1548987 1512616 1436686 1262430 1111817 1002074 168173 105066 802648 756957
is_linear=0
shrinkage=0.1


Tree=18
num_leaves=31
num_cat=0
split_feature=96 79 119 179 180 12 28 89 52 127 169 65 82 33 243 164 105 248 85 287 161 239 245 178 158 185 191 230 66 5
split_gain=990.496 931.777 893.627 880.993 870.248 861.114 773.284 748.81 748.996 698.259 661.94 637.087 632.349 597.469 582.78 599.256 552.235 544.794 528.95 526.209 478.247 484.403 445.955 452.776 423.177 423.574 397.403 379.812 360.981 344.164
threshold=1.0000000180025095e-35 1.0000000180025095e-35 1.0000000180025095e-35 1.0000000180025095e-35 1.0000000180025095e-35 1.0000000180025095e-35 1.0000000180025095e-35 1.0000000180025095e-35 1.0000000180025095e-35 1.0000000180025095e-35 1.0000000180025095e-35 1.0000000180025095e-35 1.0000000180025095e-35 1.0000000180025095e-35 1.0000000180025095e-35 1.0000000180025095e-35 1.0000000180025095e-35 1.0000000180025095e-35 1.0000000180025095e-35 1.0000000180025095e-35 1.0000000180025095e-35 1.0000000180025095e-35 1.0000000180025095e-35 1.0000000180025095e-35 1.0000000180025095e-35 1.0000000180025095e-35 1.0000000180025095e-35 1.0000000180025095e-35 1.0000000180025095e-35 1.0000000180025095e-35
decision_type=2 2 2 2 2 2 2 2 2 2 2 2 2 2 2 2 2 2 2 2 2 2 2 2 2 2 2 2 2 2
left_child=1 2 3 4 5 6 7 8 9 10 11 12 13 14 15 16 17 18 19 20 21 22 23 24 25 26 27 28 29 -1
right_child=-2 -3 -4 -5 -6 -7 -8 -9 -10 -11 -12 -13 -14 -15 -16 -17 -18 -19 -20 -21 -22 -23 -24 -25 -26 -27 -28 -29 -30 -31
leaf_value=0.01195227779759489 -0.012585801679555695 -0.024980773644125806 -0.024334392792610241 -0.0076446595791054396 -0.010405939215394689 -0.016448117650667168 0.016920985012835274 -0.018039204972481942 -0.0099928235632123549 -0.012990675609868031 -0.010326050740586795 -0.023596738844115464 -0.01238389020638281 -0.0096728672183488164 -0.011143245658488539 -0.006994824054308256 -0.0091135092632101799 -0.0065544289999298726 -0.00029449292538837122 -0.0071499360657479253 -0.0039409460320866986 0.031471295415519039 -0.0069208631506076064 -0.0032406775417342295 -0.0029500627831034148 0.00022339607085968159 -0.00047175312120612705 -0.0027633171616483431 0.02793103365452726 0.022141325316314547
leaf_weight=358035.18645752966 59470.448296129704 14023.901716843247 13811.748435929418 101434.11846227944 52714.839029833674 22762.075410693884 39566.73783531785 17175.503193557262 42097.630269289017 24470.69839681685 30483.246836066246 7890.1315947473049 20497.836677253246 25430.466111063957 19533.531669721007 32177.043080702424 20762.006909325719 26750.562314763665 68921.888268575072 19614.369262620807 25293.282248809934 10426.209555774927 15657.079746887088 23905.507964104414 21292.330139607191 31377.672393321991 23314.693385049701 14871.537322312593 16641.775169596076 36533.868655189872
leaf_count=1449826 239324 56397 55579 408913 212256 91896 161890 69213 168905 98658 122848 31872 82665 102481 78874 130040 83898 107733 278796 79318 101607 42383 63250 95961 86328 127201 93591 59705 68599 149993
internal_value=5.6631e-06 0.000641621 0.000950468 0.00125424 0.00211539 0.00277844 0.00322835 0.00264777 0.00303567 0.0036633 0.00414308 0.00468167 0.00495678 0.0054064 0.0059076 0.00635432 0.00695642 0.00743812 0.00800025 0.00895791 0.00950514 0.0101212 0.00971021 0.0102053 0.0108455 0.0114565 0.0122408 0.0129364 0.0135042 0.0128957
internal_weight=1.23694e+06 1.17747e+06 1.16344e+06 1.14963e+06 1.0482e+06 995483 972721 933154 915979 873881 849410 818927 811037 790539 765109 745575 713398 692636 665885 596964 577349 552056 541630 525973 502067 480775 449397 426082 411211 394569
internal_count=5000000 4760676 4704279 4648700 4239787 4027531 3935635 3773745 3704532 3535627 3436969 3314121 3282249 3199584 3097103 3018229 2888189 2804291 2696558 2417762 2338444 2236837 2194454 2131204 2035243 1948915 1821714 1728123 1668418 1599819
is_linear=0
shrinkage=0.1


Tree=19
num_leaves=31
num_cat=0
split_feature=135 254 214 106 229 18 144 82 216 113 65 99 6 12 202 30 137 239 169 79 280 179 33 269 187 45 127 285 188 105
split_gain=918.014 888.769 806.623 785.651 760.693 756.2 745.37 733.78 688.654 650.637 640.171 622.588 606.674 564.447 569.695 527.801 507.936 504.056 493.763 461.011 453.389 433.595 389.829 383.124 379.878 374.437 361.607 352.82 337.097 337.758
threshold=1.0000000180025095e-35 1.0000000180025095e-35 1.0000000180025095e-35 1.0000000180025095e-35 1.0000000180025095e-35 1.0000000180025095e-35 1.0000000180025095e-35 1.0000000180025095e-35 1.0000000180025095e-35 1.0000000180025095e-35 1.0000000180025095e-35 1.0000000180025095e-35 1.0000000180025095e-35 1.0000000180025095e-35 1.0000000180025095e-35 1.0000000180025095e-35 1.0000000180025095e-35 1.0000000180025095e-35 1.0000000180025095e-35 1.0000000180025095e-35 1.0000000180025095e-35 1.0000000180025095e-35 1.0000000180025095e-35 1.0000000180025095e-35 1.0000000180025095e-35 1.0000000180025095e-35 1.0000000180025095e-35 1.0000000180025095e-35 1.0000000180025095e-35 1.0000000180025095e-35
decision_type=2 2 2 2 2 2 2 2 2 2 2 2 2 2 2 2 2 2 2 2 2 2 2 2 2 2 2 2 2 2
left_child=1 2 3 4 5 6 7 8 9 10 11 12 13 14 15 16 17 18 19 20 21 22 23 24 25 26 27 28 29 -1
right_child=-2 -3 -4 -5 -6 -7 -8 -9 -10 -11 -12 -13 -14 -15 -16 -17 -18 -19 -20 -21 -22 -23 -24 -25 -26 -27 -28 -29 -30 -31
leaf_value=0.0030866435312484368 -0.017709216448960296 0.010290287870859303 0.023583389455323608 -0.019946270221179469 0.024051937279947283 -0.013861421856236601 -0.017124446412492649 -0.01645474899274205 -0.012004607520672235 -0.012344967305558233 -0.02513287517798813 -0.013249125996603314 -0.0068931332601461382 -0.013646791530082839 0.015941708190245273 0.014530763942153718 0.01700976189603258 0.021722059017005343 -0.012211840863972383 -0.021119941851527886 0.023401949808419208 -0.0059208714965730165 -0.011170087114041887 0.026740770148212484 0.024201114863237276 -0.014862851964437145 -0.011601254808230915 0.019760969200017044 0.013425654818167957 -0.012557803006354923
leaf_weight=460535.46308557689 28576.908721655607 84899.045449897647 13940.869571551681 20646.167236641049 12724.616317719221 41003.107934087515 24849.868878006935 25166.996157735586 40059.092126369476 33311.999542817473 8687.0959018468857 25532.845741823316 62619.991344690323 19144.193730711937 36448.781434446573 38628.072635471821 23444.860822498798 12779.796573787928 24671.871065407991 8371.6536390334368 10211.940681070089 60112.651640027761 18784.172804936767 6989.6375956684351 8466.8081957399845 11671.754361540079 15922.586478829384 13323.321188867092 30726.608892306685 14226.509447157383
leaf_count=1863121 115192 345056 56951 83334 51820 164896 100238 101358 160805 134071 35029 103195 252226 77184 149696 156679 94777 51935 99324 33649 41323 242194 75606 28541 34724 46962 64115 54114 124514 57371
internal_value=5.71463e-06 0.00042482 -0.00032101 -0.000621487 -0.000254915 -0.000542447 -1.46364e-05 0.000406398 0.000837348 0.00138195 0.00188373 0.00214375 0.00259185 0.0033211 0.00372954 0.00314299 0.00253223 0.00204511 0.00167748 0.0021972 0.00249706 0.0021639 0.00300089 0.00347465 0.00318158 0.00285587 0.00324262 0.00369818 0.00327481 0.00261785
internal_weight=1.23648e+06 1.2079e+06 1.123e+06 1.10906e+06 1.08842e+06 1.07569e+06 1.03469e+06 1.00984e+06 984672 944613 911301 902614 877081 814461 795316 758868 720240 696795 684015 659343 650971 640760 580647 561863 554873 546406 534734 518812 505489 474762
internal_count=5000000 4884808 4539752 4482801 4399467 4347647 4182751 4082513 3981155 3820350 3686279 3651250 3548055 3295829 3218645 3068949 2912270 2817493 2765558 2666234 2632585 2591262 2349068 2273462 2244921 2210197 2163235 2099120 2045006 1920492
is_linear=0
shrinkage=0.1


Tree=20
num_leaves=31
num_cat=0
split_feature=19 66 215 93 41 232 183 233 5 43 96 98 205 168 256 255 14 95 1 28 150 40 11 94 80 0 7 92 55 62
split_gain=850.026 829.571 819.086 801.682 799.975 742.349 712.966 697.02 651.555 615.302 586.832 549.426 537.414 497.402 454.954 429.905 408.785 405.125 435.137 437.466 388.239 384.309 383.02 388.138 392.689 407.832 425.135 376.782 380.17 375.721
threshold=1.0000000180025095e-35 1.0000000180025095e-35 1.0000000180025095e-35 1.0000000180025095e-35 1.0000000180025095e-35 1.0000000180025095e-35 1.0000000180025095e-35 1.0000000180025095e-35 1.0000000180025095e-35 1.0000000180025095e-35 1.0000000180025095e-35 1.0000000180025095e-35 1.0000000180025095e-35 1.0000000180025095e-35 1.0000000180025095e-35 1.0000000180025095e-35 1.0000000180025095e-35 1.0000000180025095e-35 1.0000000180025095e-35 1.0000000180025095e-35 1.0000000180025095e-35 1.0000000180025095e-35 1.0000000180025095e-35 1.0000000180025095e-35 1.0000000180025095e-35 1.0000000180025095e-35 1.0000000180025095e-35 1.0000000180025095e-35 1.0000000180025095e-35 1.0000000180025095e-35
decision_type=2 2 2 2 2 2 2 2 2 2 2 2 2 2 2 2 2 2 2 2 2 2 2 2 2 2 2 2 2 2
left_child=1 2 3 4 5 6 7 8 9 10 11 12 13 14 15 16 17 18 19 21 -5 22 23 24 25 26 27 28 29 -1
right_child=-2 -3 -4 20 -6 -7 -8 -9 -10 -11 -12 -13 -14 -15 -16 -17 -18 -19 -20 -21 -22 -23 -24 -25 -26 -27 -28 -29 -30 -31
leaf_value=-0.015587027487959138 0.013863689418535366 0.012535360942616742 0.026553971182329002 0.018019000168447569 0.010423842941529669 0.01458884454714611 0.012153076916949182 -0.010603205317003525 0.0063800688749818665 0.0051283797719644652 -0.016328971742028811 0.010670617461501422 -0.014666485257875698 0.010937348885191305 0.015838600629524115 0.01160974995359064 0.0077100006905081488 0.010463564647254394 0.0039437931866972281 0.0070824741435672137 -0.031600757447844997 0.0039961047127658007 0.004915614925080046 0.0082357701942988529 0.0064222681823148733 0.0010483893481974765 -0.0010284123577557161 -0.001266447602305769 -0.0020141727324767436 -0.0014056244205685939
leaf_weight=231115.87024137378 42731.524462103844 46967.264117404819 10669.277071326971 27260.144630908966 51768.295299127698 25374.502742037177 31232.108654335141 112546.49279011786 79644.035124689341 81654.258103936911 36814.348817199469 26784.728769183159 43617.335357233882 23984.49544416368 11622.341173008084 16823.208036080003 25697.768927365541 16022.622761875391 43117.189791694283 22459.398954644799 1673.6588523685932 28673.980085641146 21917.798821315169 13164.491198405623 15421.275541529059 31442.451561465859 39137.794542253017 29103.161837518215 27291.750853821635 20325.144039496779
leaf_count=930117 173615 192454 43230 110337 210984 102761 126637 453247 325491 330514 147941 108444 175476 97417 46959 67979 103714 64769 174062 91775 6757 115765 89129 53097 62913 126832 157737 117242 110715 81890
internal_value=5.63638e-06 -0.000490603 -0.00102429 -0.00128337 -0.00171295 -0.00230851 -0.00272494 -0.00319036 -0.00224855 -0.00310098 -0.00402841 -0.00336995 -0.00393895 -0.00318099 -0.0037517 -0.0041431 -0.00461224 -0.00519952 -0.00567921 -0.00654353 0.0151488 -0.00721231 -0.00796162 -0.00865508 -0.00921967 -0.00985712 -0.0108454 -0.0120935 -0.013224 -0.0144407
internal_weight=1.23606e+06 1.19333e+06 1.14636e+06 1.13569e+06 1.10676e+06 1.05499e+06 1.02961e+06 998382 885835 806191 724537 687723 660938 617321 593336 581714 564891 539193 523170 480053 28933.8 457594 428920 407002 393837 378416 346974 307836 278733 251441
internal_count=5000000 4826385 4633931 4590701 4473607 4262623 4159862 4033225 3579978 3254487 2923973 2776032 2667588 2492112 2394695 2347736 2279757 2176043 2111274 1937212 117094 1845437 1729672 1640543 1587446 1524533 1397701 1239964 1122722 1012007
is_linear=0
shrinkage=0.1


Tree=21
num_leaves=31
num_cat=0
split_feature=277 180 83 187 246 13 287 185 19 27 11 14 66 0 80 104 130 52 89 35 216 156 235 92 248 191 137 1 161 184
split_gain=812.6 764.387 748.631 654.558 655.551 619.877 551.612 556.204 544.919 498.764 491.954 472.608 446.277 467.1 447.973 433.97 381.772 371.628 335.602 320.831 313.996 294.816 290.4 276.506 292.563 255.558 253.69 247.812 242.466 239.634
threshold=1.0000000180025095e-35 1.0000000180025095e-35 1.0000000180025095e-35 1.0000000180025095e-35 1.0000000180025095e-35 1.0000000180025095e-35 1.0000000180025095e-35 1.0000000180025095e-35 1.0000000180025095e-35 1.0000000180025095e-35 1.0000000180025095e-35 1.0000000180025095e-35 1.0000000180025095e-35 1.0000000180025095e-35 1.0000000180025095e-35 1.0000000180025095e-35 1.0000000180025095e-35 1.0000000180025095e-35 1.0000000180025095e-35 1.0000000180025095e-35 1.0000000180025095e-35 1.0000000180025095e-35 1.0000000180025095e-35 1.0000000180025095e-35 1.0000000180025095e-35 1.0000000180025095e-35 1.0000000180025095e-35 1.0000000180025095e-35 1.0000000180025095e-35 1.0000000180025095e-35
decision_type=2 2 2 2 2 2 2 2 2 2 2 2 2 2 2 2 2 2 2 2 2 2 2 2 2 2 2 2 2 2
left_child=1 2 3 4 5 6 7 8 9 10 11 12 13 14 15 16 17 18 19 20 21 23 29 24 25 26 27 -1 -4 -7
right_child=-2 -3 28 -5 -6 22 -8 -9 -10 -11 -12 -13 -14 -15 -16 -17 -18 -19 -20 -21 -22 -23 -24 -25 -26 -27 -28 -29 -30 -31
leaf_value=-0.0055194410465193352 0.015179838323715234 -0.011521606482328408 0.0082558768913762372 0.020081148913945791 0.010285833043661151 0.00047738009576396014 -0.017576203511044376 -0.013108313557944958 0.012570104405882672 0.011686340048660546 0.010133692922595685 0.0095025937602239482 0.0089939687148897877 0.0060012968895242005 0.0099751219227316203 -0.015899334742304067 -0.026733304610825057 -0.016899634707207671 -0.022744950871187546 0.0062536843038969465 -0.017584432684196061 0.0064787643127670845 0.014332532151735716 0.0054114400307819031 -0.019900705552712936 -0.017120712307345062 0.010536577475822557 0.0046877386373394801 -0.013631041236654493 0.011379364590357127
leaf_weight=265499.38872379065 34310.226982817054 59057.054918974638 122691.94087132812 14843.813187986612 48347.821326240897 132657.24298495054 24719.151641190052 45494.346709430218 25781.630034446716 24766.07231785357 28255.644277229905 27325.754951700568 25509.04415166378 39252.897792249918 18522.122708797455 39685.934369638562 7955.7539448291063 23480.73108702898 9338.1707262843847 30790.604265347123 17131.828535228968 26263.365988612175 22298.681475743651 26105.717550590634 13139.447025775909 15685.790043741465 11501.669993191957 26126.035737603903 5279.3210039287806 23775.75618173182
leaf_count=1072446 139169 237780 498724 60813 195980 537367 99740 183872 104850 100340 115081 110396 104517 158485 75774 159566 32105 94353 37601 124268 68853 106427 90395 105272 52865 63015 46474 105631 21196 96645
internal_value=5.43464e-06 -0.000427966 0.000145613 -0.000763757 -0.00107336 -0.00165081 -0.00287895 -0.00239299 -0.00169868 -0.0022426 -0.00277204 -0.00335708 -0.00394668 -0.00452533 -0.00530315 -0.0058551 -0.00501239 -0.00464082 -0.00398897 -0.00358376 -0.00433827 -0.0037478 0.00365619 -0.00449791 -0.00527722 -0.00467453 -0.00403048 -0.004605 0.00735295 0.00213434
internal_weight=1.23559e+06 1.20128e+06 1.14223e+06 1.01425e+06 999411 951063 772331 747612 702118 676336 651570 623314 595989 570479 531227 512704 473019 465063 441582 432244 401453 384321 178732 358058 331952 318813 303127 291625 127971 156433
internal_count=5000000 4860831 4623051 4103131 4042318 3846338 3121931 3022191 2838319 2733469 2633129 2518048 2407652 2303135 2144650 2068876 1909310 1877205 1782852 1745251 1620983 1552130 724407 1445703 1340431 1287566 1224551 1178077 519920 634012
is_linear=0
shrinkage=0.1


Tree=22
num_leaves=31
num_cat=0
split_feature=178 164 243 119 41 28 163 177 230 248 245 191 151 43 55 5 11 34 137 40 66 93 0 7 47 88 94 92 233 20
split_gain=775.981 756.977 724.563 719.517 700.949 665.825 665.039 688.833 597.932 578.254 607.261 584.859 621.46 546.646 501.741 502.163 475.908 425.837 406.831 393.581 399.822 384.518 393.772 419.628 418.725 409.093 405.774 366.388 363.456 325.656
threshold=1.0000000180025095e-35 1.0000000180025095e-35 1.0000000180025095e-35 1.0000000180025095e-35 1.0000000180025095e-35 1.0000000180025095e-35 1.0000000180025095e-35 1.0000000180025095e-35 1.0000000180025095e-35 1.0000000180025095e-35 1.0000000180025095e-35 1.0000000180025095e-35 1.0000000180025095e-35 1.0000000180025095e-35 1.0000000180025095e-35 1.0000000180025095e-35 1.0000000180025095e-35 1.0000000180025095e-35 1.0000000180025095e-35 1.0000000180025095e-35 1.0000000180025095e-35 1.0000000180025095e-35 1.0000000180025095e-35 1.0000000180025095e-35 1.0000000180025095e-35 1.0000000180025095e-35 1.0000000180025095e-35 1.0000000180025095e-35 1.0000000180025095e-35 1.0000000180025095e-35
decision_type=2 2 2 2 2 2 2 2 2 2 2 2 2 2 2 2 2 2 2 2 2 2 2 2 2 2 2 2 2 2
left_child=1 2 3 4 5 6 7 8 9 10 11 12 13 14 15 16 18 -8 19 20 21 22 23 24 25 26 27 28 29 -1
right_child=-2 -3 -4 -5 -6 -7 17 -9 -10 -11 -12 -13 -14 -15 -16 -17 -18 -19 -20 -21 -22 -23 -24 -25 -26 -27 -28 -29 -30 -31
leaf_value=-0.0058739839173640512 -0.012287456539254038 -0.011580369890974739 -0.014618975943865884 -0.021941270183903731 0.013326968020966647 0.013234918211747583 -0.0027470473067741233 -0.013104904045996991 -0.012398960439191318 -0.010148024760258206 -0.012325275867618758 -0.0078413099021177254 -0.0049020623505239757 0.015068629921049967 0.015903905076935444 0.013694906964099397 0.01757848570604183 -0.016150715980453898 0.018278524201877783 0.013707823533610703 0.014932106067581384 0.017680176323615609 0.010611625102653892 0.0086881281097031266 0.014828787666582811 0.021351841928661745 0.01545724519367421 0.0066163472283053831 -0.016020009122864328 0.0059575810814685159
leaf_weight=189924.11576323211 49302.736912503839 49569.283265098929 28786.487746924162 12994.818380653858 49739.846834868193 43868.880495578051 156124.64346715808 29597.866722166538 26267.30649061501 32291.766604602337 23389.598089069128 39053.152565613389 60637.731653735042 56651.411802113056 37576.939066678286 47761.177965000272 21155.010800927877 27945.174486011267 15242.964903056622 25468.02100944519 19298.763666331768 12156.204060837626 29883.243653535843 37035.094347536564 13203.873484164476 6537.640381872654 10379.520229682326 25953.678142309189 30891.133292034268 26510.739679411054
leaf_count=766578 198062 200237 116234 52312 203338 179749 630094 119489 105558 129999 94364 156894 245167 230403 153460 196405 86685 112710 61728 103162 79792 49362 120866 149621 53275 26378 41958 104818 124246 107056
internal_value=5.17382e-06 0.000516231 0.00104391 0.00145101 0.00172873 0.00117658 0.000648089 0.00187168 0.00243473 0.00294674 0.00352702 0.00405271 0.00474987 0.00571626 0.00475115 0.00393166 0.00292592 -0.00478197 0.00222538 0.00165265 0.00088848 0.000179873 -0.000394597 -0.00136072 -0.00258734 -0.00337977 -0.00394978 -0.00468688 -0.00587301 -0.00442476
internal_weight=1.2352e+06 1.1859e+06 1.13633e+06 1.10754e+06 1.09455e+06 1.04481e+06 1.00094e+06 816867 787269 761002 728710 705320 666267 605630 548978 511401 463640 184070 442485 427242 401774 382475 370319 340436 303401 290197 283659 273280 247326 216435
internal_count=5000000 4801938 4601701 4485467 4433155 4229817 4050068 3307264 3187775 3082217 2952218 2857854 2700960 2455793 2225390 2071930 1875525 742804 1788840 1727112 1623950 1544158 1494796 1373930 1224309 1171034 1144656 1102698 997880 873634
is_linear=0
shrinkage=0.1


Tree=23
num_leaves=31
num_cat=0
split_feature=29 30 8 162 37 169 272 195 269 93 249 64 230 105 202 239 98 215 175 263 255 18 229 156 262 214 184 285 254 294
split_gain=774.4 787.234 684.771 656.715 657.841 606.034 574.13 568.782 542.68 532.83 522.49 508.394 499.309 499.998 492.309 476.051 455.555 422.725 422.267 418.748 366.075 351.146 326.627 316.655 305.098 299.816 296.896 261.626 255.533 236.099
threshold=1.0000000180025095e-35 1.0000000180025095e-35 1.0000000180025095e-35 1.0000000180025095e-35 1.0000000180025095e-35 1.0000000180025095e-35 1.0000000180025095e-35 1.0000000180025095e-35 1.0000000180025095e-35 1.0000000180025095e-35 1.0000000180025095e-35 1.0000000180025095e-35 1.0000000180025095e-35 1.0000000180025095e-35 1.0000000180025095e-35 1.0000000180025095e-35 1.0000000180025095e-35 1.0000000180025095e-35 1.0000000180025095e-35 1.0000000180025095e-35 1.0000000180025095e-35 1.0000000180025095e-35 1.0000000180025095e-35 1.0000000180025095e-35 1.0000000180025095e-35 1.0000000180025095e-35 1.0000000180025095e-35 1.0000000180025095e-35 1.0000000180025095e-35 1.0000000180025095e-35
decision_type=2 2 2 2 2 2 2 2 2 2 2 2 2 2 2 2 2 2 2 2 2 2 2 2 2 2 2 2 2 2
left_child=1 2 3 4 5 6 7 8 9 10 11 12 13 14 15 16 17 18 19 20 21 22 23 24 25 26 27 28 29 -1
right_child=-2 -3 -4 -5 -6 -7 -8 -9 -10 -11 -12 -13 -14 -15 -16 -17 -18 -19 -20 -21 -22 -23 -24 -25 -26 -27 -28 -29 -30 -31
leaf_value=-0.0096352147606224778 0.0080654966064706429 0.010811659932740704 0.010797072174195949 0.014703999646772915 -0.022978609440222203 -0.015114195753816763 0.010565688256569422 0.015434859913184688 0.019899268252174376 0.01254289594012236 0.011533559201780364 -0.024884270150411544 -0.016814686640808079 -0.017300091051949639 0.0090477045772239043 0.015574906753748459 0.009437631531635602 0.021056979433245176 0.0026043888313550048 0.0086104044904063426 0.0087464530809259772 -0.018017929294206585 0.016393296264077008 0.0030396075118883942 0.0096279991209695694 0.014257534353999742 -0.0012252570380224647 0.0070974506723160179 7.4203233697878941e-05 0.0060153724492882418
leaf_weight=351910.19505080581 108701.27578702569 55754.970592930913 44294.81691968441 23274.314255282283 15133.886196449399 33876.582962363958 37849.619588240981 18331.983003333211 10822.056299611926 22555.282299280167 23963.506368756294 10913.472434327006 25939.567113548517 22846.616897791624 36497.967270553112 13766.768218442798 27471.66710986197 6835.9832732528448 86539.286317944527 22233.830782234669 17811.327031686902 22633.63143004477 6849.2716132998466 39480.885789185762 11797.44744092226 6766.0860612243414 76475.722932651639 11135.50008481741 32317.469141066074 9910.4744720458984
leaf_count=1420694 441674 226531 179215 94332 60992 136488 153294 74656 44194 91480 97081 43982 104305 92244 149910 55991 111444 27768 350293 90329 72179 91067 27969 160349 47735 27716 309441 45179 131314 40154
internal_value=5.15284e-06 -0.00077298 -0.00137649 -0.00190208 -0.00228755 -0.00197046 -0.00150356 -0.00200237 -0.00235855 -0.00263022 -0.00302628 -0.00344157 -0.00315936 -0.00271841 -0.00229154 -0.00284785 -0.0031952 -0.00368907 -0.00393217 -0.00486053 -0.00537069 -0.00581238 -0.00530702 -0.00558236 -0.00626275 -0.0066465 -0.00694009 -0.00801849 -0.00844556 -0.00920654
internal_weight=1.23469e+06 1.12599e+06 1.07024e+06 1.02594e+06 1.00267e+06 987532 953656 915806 897474 886652 864097 840133 829220 803280 780434 743936 730169 702697 695861 609322 587088 569277 546643 539794 500313 488515 481749 405274 394138 361821
internal_count=5000000 4558326 4331795 4152580 4058248 3997256 3860768 3707474 3632818 3588624 3497144 3400063 3356081 3251776 3159532 3009622 2953631 2842187 2814419 2464126 2373797 2301618 2210551 2182582 2022233 1974498 1946782 1637341 1592162 1460848
is_linear=0
shrinkage=0.1


Tree=24
num_leaves=31
num_cat=0
split_feature=155 38 232 216 65 89 158 106 277 256 135 254 33 85 82 156 253 249 255 18 294 214 208 285 188 45 220 183 195 160
split_gain=743.328 684.424 642.167 635.681 634.192 593.167 573.612 566.528 540.937 516.795 511.913 503.613 455.925 456.499 430.07 408.08 395.63 384.529 371.531 344.62 335.285 316.747 310.172 308.117 292.859 294.21 284.102 279.787 260.928 250.177
threshold=1.0000000180025095e-35 1.0000000180025095e-35 1.0000000180025095e-35 1.0000000180025095e-35 1.0000000180025095e-35 1.0000000180025095e-35 1.0000000180025095e-35 1.0000000180025095e-35 1.0000000180025095e-35 1.0000000180025095e-35 1.0000000180025095e-35 1.0000000180025095e-35 1.0000000180025095e-35 1.0000000180025095e-35 1.0000000180025095e-35 1.0000000180025095e-35 1.0000000180025095e-35 1.0000000180025095e-35 1.0000000180025095e-35 1.0000000180025095e-35 1.0000000180025095e-35 1.0000000180025095e-35 1.0000000180025095e-35 1.0000000180025095e-35 1.0000000180025095e-35 1.0000000180025095e-35 1.0000000180025095e-35 1.0000000180025095e-35 1.0000000180025095e-35 1.0000000180025095e-35
decision_type=2 2 2 2 2 2 2 2 2 2 2 2 2 2 2 2 2 2 2 2 2 2 2 2 2 2 2 2 2 2
left_child=1 2 3 4 5 6 7 8 9 10 11 12 13 14 15 16 17 18 19 20 21 22 23 24 25 26 27 28 29 -1
right_child=-2 -3 -4 -5 -6 -7 -8 -9 -10 -11 -12 -13 -14 -15 -16 -17 -18 -19 -20 -21 -22 -23 -24 -25 -26 -27 -28 -29 -30 -31
