tree
version=v4
num_class=1
num_tree_per_iteration=1
label_index=0
max_feature_idx=89
objective=binary sigmoid:1
feature_names=p0_n_games_log1p p0_smoothed_winrate p0_smoothed_winrate_hero p0_last10_winrate p0_days_since_last_log1p p0_n_games_hero_log1p p0_hero_diversity_log1p p0_coplay_mean p0_is_anonymous p1_n_games_log1p p1_smoothed_winrate p1_smoothed_winrate_hero p1_last10_winrate p1_days_since_last_log1p p1_n_games_hero_log1p p1_hero_diversity_log1p p1_coplay_mean p1_is_anonymous p2_n_games_log1p p2_smoothed_winrate p2_smoothed_winrate_hero p2_last10_winrate p2_days_since_last_log1p p2_n_games_hero_log1p p2_hero_diversity_log1p p2_coplay_mean p2_is_anonymous p3_n_games_log1p p3_smoothed_winrate p3_smoothed_winrate_hero p3_last10_winrate p3_days_since_last_log1p p3_n_games_hero_log1p p3_hero_diversity_log1p p3_coplay_mean p3_is_anonymous p4_n_games_log1p p4_smoothed_winrate p4_smoothed_winrate_hero p4_last10_winrate p4_days_since_last_log1p p4_n_games_hero_log1p p4_hero_diversity_log1p p4_coplay_mean p4_is_anonymous p5_n_games_log1p p5_smoothed_winrate p5_smoothed_winrate_hero p5_last10_winrate p5_days_since_last_log1p p5_n_games_hero_log1p p5_hero_diversity_log1p p5_coplay_mean p5_is_anonymous p6_n_games_log1p p6_smoothed_winrate p6_smoothed_winrate_hero p6_last10_winrate p6_days_since_last_log1p p6_n_games_hero_log1p p6_hero_diversity_log1p p6_coplay_mean p6_is_anonymous p7_n_games_log1p p7_smoothed_winrate p7_smoothed_winrate_hero p7_last10_winrate p7_days_since_last_log1p p7_n_games_hero_log1p p7_hero_diversity_log1p p7_coplay_mean p7_is_anonymous p8_n_games_log1p p8_smoothed_winrate p8_smoothed_winrate_hero p8_last10_winrate p8_days_since_last_log1p p8_n_games_hero_log1p p8_hero_diversity_log1p p8_coplay_mean p8_is_anonymous p9_n_games_log1p p9_smoothed_winrate p9_smoothed_winrate_hero p9_last10_winrate p9_days_since_last_log1p p9_n_games_hero_log1p p9_hero_diversity_log1p p9_coplay_mean p9_is_anonymous
feature_infos=[0:4.2626800537109375] [0.21052631735801697:0.76190477609634399] [0:0.80769228935241699] [0:1] [0.010420058853924274:5.9026331901550293] [0:3.8712010383605957] [0:3.5835189819335938] [0:33] [0:1] [0:4.0775375366210938] [0.18181818723678589:0.82142859697341919] [0:1] [0:1] [0.010534593835473061:5.9026331901550293] [0:3.5553481578826904] [0:3.5835189819335938] [0:33] [0:1] [0:4.0943446159362793] [0.1875:0.80645161867141724] [0.19947570562362671:1] [0:1] [0.010248232632875443:5.9026331901550293] [0:3.465735912322998] [0:3.7135720252990723] [0:26.5] [0:1] [0:4.2484951019287109] [0.21739129722118378:0.75] [0:1] [0:1] [0.010534593835473061:5.9026331901550293] [0:3.8918201923370361] [0:3.4965076446533203] [0:26] [0:1] [0:4.0775375366210938] [0.21739129722118378:0.76190477609634399] [0:1] [0:1] [0.010248232632875443:5.9026331901550293] [0:3.465735912322998] [0:3.6109178066253662] [0:22] [0:1] [0:4.2195076942443848] [0.17647059261798859:0.76190477609634399] [0:1] [0:1] [0.010213864035904408:5.9026331901550293] [0:3.6375861167907715] [0:3.6109178066253662] [0:26] [0:1] [0:4.143134593963623] [0.1944444477558136:0.77272725105285645] [0:1] [0:1] [0.010992599651217461:5.9026331901550293] [0:3.7135720252990723] [0:3.6888794898986816] [0:33] [0:1] [0:4.2766661643981934] [0.15000000596046448:0.78260868787765503] [0.15989318490028381:1] [0:1] [0.010775073431432247:5.9026331901550293] [0:3.6375861167907715] [0:3.5835189819335938] [0:27] [0:1] [0:4.143134593963623] [0.1944444477558136:0.77272725105285645] [0.1111111119389534:1] [0:1] [0.010248232632875443:5.9026331901550293] [0:3.5263605117797852] [0:3.7612001895904541] [0:28] [0:1] [0:4.2484951019287109] [0.1627907007932663:0.77272725105285645] [0:1] [0:1] [0.011335967108607292:5.9026331901550293] [0:3.7612001895904541] [0:3.7376697063446045] [0:33] [0:1]
tree_sizes=3410 3523 3513 3511 3516 3523 3522 3521 3518 3522 3520 3518 3524 3529 3526 3523 3530 3529 3521 3538 3533 3540 3531 3540 3539 3544 3513 3515 3535 3529 3526 3534 3522 3510 3517 3530 3529 3495 3506 3510 3521 3521 3496 3522 3504 3493 3497 3462 3474 3477

Tree=0
num_leaves=31
num_cat=0
split_feature=65 11 2 56 38 74 20 47 38 29 74 29 29 74 38 47 11 83 56 83 83 47 38 83 47 83 47 11 83 20
split_gain=350.905 218.383 164.88 100.302 99.2251 97.7049 81.2417 64.4804 62.2491 56.7465 56.209 53.6744 53.1904 46.9689 42.8236 38.8856 37.98 36.1648 35.2479 34.8416 34.2127 33.5859 33.3583 33.1551 32.8432 31.4366 30.7004 28.5059 27.3595 25.6702
threshold=0.49970306456089025 0.49879460036754614 0.51642584800720226 0.50139588117599498 0.49216157197952276 0.52039730548858654 0.49689042568206793 0.51070010662078869 0.49802730977535253 0.51061421632766735 0.49713373184204107 0.4964409619569779 0.51661318540573131 0.49846455454826361 0.49914771318435674 0.50539749860763561 0.48915205895900732 0.5128304958343507 0.49424940347671514 0.51499298214912426 0.49413302540779119 0.52779954671859752 0.46715463697910314 0.49235320091247564 0.49858176708221441 0.5524844527244569 0.51421013474464428 0.48296797275543218 0.49008345603942877 0.49302749335765844
decision_type=2 2 2 2 2 2 2 2 2 2 2 2 2 2 2 2 2 2 2 2 2 2 2 2 2 2 2 2 2 2
left_child=2 4 5 10 13 8 26 14 21 22 -3 -8 20 23 27 -12 -10 -9 -13 -18 -7 -1 -5 -2 -11 -16 -6 -4 -29 -24
right_child=1 3 7 9 6 12 11 17 16 24 15 18 -14 -15 25 -17 19 -19 -20 -21 -22 -23 29 -25 -26 -27 -28 28 -30 -31
leaf_value=0.14415329978120775 0.13761505223649498 0.16575791250213218 0.13343063261949298 0.086194019778506298 0.11770308800213072 0.1324389713025507 0.11539733985864464 0.16438430360705053 0.14158073203551455 0.15418141142232389 0.15399612952384739 0.16648346504708653 0.14143527055561805 0.082981877588211433 0.1922011564211194 0.12630895124217281 0.18231748961351024 0.13979311535319042 0.13409661830070208 0.15264907595359656 0.099090877780083547 0.11282745982232388 0.1060247517521755 0.098488214381957304 0.1282355106602886 0.14190662844183785 0.089795052694672362 0.19634103445184142 0.15763802150171086 0.13104285447399869
leaf_weight=1171.9166149199009 340.37832891941071 1472.7334275394678 278.67231607437134 315.24805755913258 875.32964995503426 479.71448695659637 901.95280872285366 1289.6059055477381 737.98400846123695 884.28697440028191 1010.1871457695961 547.39204943180084 1012.426476880908 1228.1487072706223 1284.1319850534201 1018.8956556469202 882.04764328896999 1115.1868934333324 870.35335859656334 718.07884302735329 857.6638156324625 483.44670547544956 661.10030697286129 595.41326104104519 1088.3149200975895 137.59445606172085 717.0835847556591 272.70076644420624 553.1147844940424 1080.352853924036
leaf_count=4710 1368 5919 1120 1267 3518 1928 3625 5183 2966 3554 4060 2200 4069 4936 5161 4095 3545 4482 3498 2886 3447 1943 2657 2393 4374 553 2882 1096 2223 4342
internal_value=0.137938 0.127128 0.150985 0.138508 0.113024 0.140323 0.122529 0.164701 0.149843 0.127749 0.150887 0.134468 0.124143 0.095842 0.175858 0.140093 0.160348 0.152981 0.146601 0.169003 0.111053 0.135005 0.116127 0.11272 0.139867 0.187334 0.105136 0.161086 0.170419 0.121545
internal_weight=24881.5 13607.2 11274.3 7531.12 6076.05 6343.28 3912.11 4931.01 3993.47 4029.3 3501.82 2319.7 2349.8 2163.94 2526.21 2029.08 2338.11 2404.79 1417.75 1600.13 1337.38 1655.36 2056.7 935.792 1972.6 1421.73 1592.41 1104.49 825.816 1741.45
internal_count=100000 54688 45312 30268 24420 25494 15723 19818 16050 16194 14074 9323 9444 8697 10153 8155 9397 9665 5698 6431 5375 6653 8266 3761 7928 5714 6400 4439 3319 6999
is_linear=0
shrinkage=1


Tree=1
num_leaves=31
num_cat=0
split_feature=2 11 74 47 20 20 56 56 65 83 29 29 38 29 65 47 74 38 47 83 56 29 74 38 20 65 29 65 56 74
split_gain=297.942 183.747 137.294 99.8527 86.8452 78.6879 74.5701 68.2539 56.087 51.5292 50.2434 50.1849 43.564 41.5681 39.4013 39.0885 38.2377 37.1168 34.7644 33.2938 32.0599 31.0424 30.2937 28.8753 34.0463 28.7987 28.6759 28.2989 26.1365 25.8263
threshold=0.51281493902206432 0.50451427698135387 0.50815421342849743 0.51229187846183788 0.49753151834011083 0.51313161849975597 0.49593681097030645 0.49549618363380438 0.49970306456089025 0.49664482474327093 0.51977789402008068 0.5042209029197694 0.4894211888313294 0.51420193910598766 0.5066685974597932 0.51265627145767223 0.49871698021888738 0.52703201770782482 0.4965235441923142 0.48940959572792059 0.51837262511253368 0.52308756113052379 0.51645234227180492 0.49592527747154241 0.49548429250717169 0.51871776580810558 0.52077969908714306 0.52033695578575145 0.53224700689315807 0.48291717469692236
decision_type=2 2 2 2 2 2 2 2 2 2 2 2 2 2 2 2 2 2 2 2 2 2 2 2 2 2 2 2 2 2
left_child=1 4 6 9 13 12 15 14 19 27 22 -7 -4 17 -6 -2 -11 -1 -9 -8 -14 -18 -5 -10 -25 -20 -26 -3 -15 -19
right_child=2 3 5 10 7 11 8 18 23 16 -12 -13 20 28 -16 -17 21 29 25 -21 -22 -23 -24 24 26 -27 -28 -29 -30 -31
leaf_value=-0.058621645812553851 0.048410437914307457 0.038437906296467775 -0.027680663868319091 -0.010451503372148348 0.020923199057952781 -0.0011284975757325838 0.046971697548000284 -0.0081638835916593971 -0.013087636435522019 0.017889925621430065 0.0041827644508721585 0.026030344941292367 0.0079224768367135833 -0.01520663282279389 -0.012242479766074531 0.022451125890284241 -0.020335197094472065 0.020244804953419369 -0.02159561471787784 0.016899181687202666 -0.017476435811504067 0.014035520628748386 -0.035002876845921647 -0.0094699969326504999 0.0097820514967200886 -0.051321203847705311 0.051637314618906062 0.0087827572565332898 -0.050791549734420217 -0.037294446485191778
leaf_weight=998.63919261097908 1234.4247481375933 886.77155300974846 986.57969883084297 1150.4651277214289 716.06891022622585 1309.8380670398474 544.30950307846069 878.56604646146297 787.02532091736794 952.5300330966711 1265.0765188783407 1415.7968811392784 1252.1480697989464 952.54508776962757 716.75426168739796 1094.2018509656191 796.7770998030901 103.06402502954006 798.78389735519886 1137.5267730206251 824.02122282981873 392.07399889826775 892.42750214040279 455.62325647473335 430.17241092026234 550.56102637946606 264.23295305669308 505.06144197285175 263.49960719048977 320.85736441612244
leaf_count=4008 4970 3568 3964 4626 2878 5266 2194 3529 3160 3832 5086 5695 5036 3825 2880 4401 3201 414 3209 4579 3313 1577 3583 1829 1728 2210 1062 2031 1058 1288
internal_value=2.81085e-06 -0.0103396 0.0115831 0.00100749 -0.0226628 0.000619432 0.0222534 -0.0126943 0.0132714 0.0126974 -0.0114784 0.0129788 -0.0103796 -0.0364928 0.00433243 0.0362124 0.00296119 -0.0480975 -0.0236447 0.0266319 -0.00215822 -0.009 -0.0211766 0.0016712 0.0117714 -0.0337243 0.0257087 0.0276768 -0.0229174 -0.0233055
internal_weight=24876.4 13140.5 11735.9 6841.18 6299.34 5788.38 5947.52 3660.73 3618.89 3533.21 3307.97 2725.63 3062.75 2638.61 1432.82 2328.63 2141.38 1422.56 2227.91 1681.84 2076.17 1188.85 2042.89 1937.05 1150.03 1349.34 694.405 1391.83 1216.04 423.921
internal_count=100000 52803 47197 27504 25299 23274 23923 14706 14552 14209 13295 10961 12313 10593 5758 9371 8610 5710 8948 6773 8349 4778 8209 7779 4619 5419 2790 5599 4883 1702
is_linear=0
shrinkage=0.1


Tree=2
num_leaves=31
num_cat=0
split_feature=65 11 20 38 47 56 11 56 29 83 2 11 38 74 74 38 20 56 74 74 2 2 2 38 83 38 29 2 29 2
split_gain=266.841 142.525 135.198 95.0806 76.1169 73.857 68.3151 56.983 52.2052 47.918 46.2805 44.4099 41.2994 39.0477 37.9767 37.6426 36.9632 35.0852 33.3916 33.0554 31.4858 31.2283 30.3253 29.5149 29.1504 27.6663 27.2295 25.9613 25.5344 25.1902
threshold=0.50727453827857982 0.49879460036754614 0.51799392700195324 0.49216157197952276 0.50082188844680797 0.50139588117599498 0.49586249887943273 0.49703420698642736 0.50614893436431896 0.53155812621116649 0.51348069310188305 0.46056242287158972 0.49216157197952276 0.49660514295101171 0.52024701237678539 0.48638682067394262 0.4902214258909226 0.52868396043777477 0.50815421342849743 0.483141839504242 0.51987203955650341 0.51394280791282665 0.51773905754089367 0.4885286688804627 0.51965016126632702 0.49802730977535253 0.50614893436431896 0.49241785705089575 0.51792949438095104 0.46133868396282202
decision_type=2 2 2 2 2 2 2 2 2 2 2 2 2 2 2 2 2 2 2 2 2 2 2 2 2 2 2 2 2 2
left_child=2 4 3 17 12 13 18 19 22 14 24 -9 -2 -3 27 -10 -14 20 -5 -4 -1 25 -6 -12 -7 -13 -21 -8 -15 -28
right_child=1 5 7 6 8 10 9 11 15 -11 23 21 16 28 -16 -17 -18 -19 -20 26 -22 -23 -24 -25 -26 -27 29 -29 -30 -31
leaf_value=-0.016882881318966102 -0.026737766215696387 0.023702812753703801 0.057447096182502988 0.0085436774879880002 -0.057656590654873233 -0.011241632595163703 0.018438730518167783 -0.018189783423442893 -0.045361562775360277 -0.0037523773785328356 -0.017811526374738557 -0.0075227159218601673 -0.021178305511901044 -0.0084465689544140875 0.0098569254316927361 -0.010331209297030188 0.010529421034309653 -0.032922748690548675 -0.01816705999647119 0.01479879411493939 0.0096642172961674943 0.030534467184830147 -0.028370637019552936 0.011126211492069847 -0.036024783274433834 0.02075479797104578 -0.0048727052034815491 0.046841360754838419 0.015255749891377275 0.048320019187130227
leaf_weight=1159.768503382802 899.91384594142437 1307.321307092905 523.57026800513268 933.74349915981293 911.88819351792336 1275.073349416256 499.91336597502232 372.01108980178833 423.96084421873093 674.12490595877171 512.05645276606083 605.42128592729568 553.18006274104118 1115.9941223114729 841.79434508085251 1109.5959026664495 1096.2248378098011 696.21982546150684 938.35370832681656 754.87679690122604 726.71120655536652 1208.3379629701376 577.50047348439693 1130.8670062869787 755.99892407655716 807.44045941531658 102.35992257297039 903.3319750726223 766.80874484777451 683.53733882308006
leaf_count=4659 3607 5274 2112 3760 3653 5122 2015 1496 1699 2712 2055 2432 2219 4485 3386 4455 4406 2798 3771 3038 2926 4874 2317 4545 3036 3248 412 3647 3085 2756
internal_value=5.02098e-06 -0.0103517 0.0103658 0.00172917 -0.0222333 -0.000706242 0.0100661 0.0229581 -0.0329663 0.0196286 -0.010372 0.014143 -0.00950626 0.0104256 0.0266492 -0.0200156 -0.000104767 -0.013737 -0.00484458 0.0357395 -0.00665639 0.0187318 -0.0463012 0.00210707 -0.0204663 0.00863768 0.028363 0.0367228 0.00120667 0.0413919
internal_weight=24867.9 12436.4 12431.5 7373.96 5572.26 6864.12 4791.26 5057.56 3022.95 2919.16 3674 2993.21 2549.32 3190.12 2245.04 1533.56 1649.4 2582.7 1872.1 2064.34 1886.48 2621.2 1489.39 1642.92 2031.07 1412.86 1540.77 1403.25 1882.8 785.897
internal_count=100000 49958 50042 29674 22356 27602 19291 20368 12124 11760 14758 12050 10232 12844 9048 6154 6625 10383 7531 8318 7585 10554 5970 6600 8158 5680 6206 5662 7570 3168
is_linear=0
shrinkage=0.1


Tree=3
num_leaves=31
num_cat=0
split_feature=47 56 29 38 83 2 11 20 65 20 29 29 83 83 20 83 74 56 74 83 2 2 56 29 74 56 83 65 56 2
split_gain=242.882 129.983 117.408 96.3398 74.8767 65.8714 63.668 62.9709 61.21 52.7398 44.169 43.6138 42.2082 36.1317 35.1101 32.9879 32.1641 31.9121 31.4601 27.906 27.7896 27.5477 26.6354 25.8712 24.5694 24.4684 25.4442 23.4822 22.2247 22.1696
threshold=0.51070010662078869 0.49632646143436437 0.51792949438095104 0.49592527747154241 0.51916736364364635 0.49433493614196783 0.52062442898750316 0.52618607878685009 0.49928487837314611 0.49878275394439703 0.52398890256881725 0.49245063960552221 0.48594215512275701 0.51743933558464061 0.51744529604911815 0.49618823826313024 0.51693779230117809 0.52206537127494823 0.48460586369037634 0.521507889032364 0.51773905754089367 0.54662317037582409 0.48436515033245092 0.53975629806518566 0.51318952441215526 0.53780630230903637 0.46237762272357946 0.48466880619525915 0.4929886013269425 0.48622785508632665
decision_type=2 2 2 2 2 2 2 2 2 2 2 2 2 2 2 2 2 2 2 2 2 2 2 2 2 2 2 2 2 2
left_child=1 5 4 11 8 23 9 10 18 25 21 15 -7 -9 28 -3 -14 20 -2 -12 -10 27 -11 -1 -13 26 -4 -5 -6 -20
right_child=2 3 6 7 14 12 -8 13 17 22 19 24 16 -15 -16 -17 -18 -19 29 -21 -22 -23 -24 -25 -26 -27 -28 -29 -30 -31
leaf_value=0.0027116718573862845 0.023457358212289642 -0.0066757555028650137 0.019615699880803167 0.0087289530324730462 -0.025092783730947761 0.049428766076673368 0.016971615278924618 0.041567446786707603 -0.023006058661045738 0.025178395541319228 0.03174834333414811 0.0070957589369191418 0.034188007742894273 0.009196710851689131 -0.01744024489440699 -0.042703729476196516 0.01021349307184667 -0.036468663774291608 -0.024632990209858575 -0.002854133848622542 0.00386303320244829 0.026263918144548943 -0.002509437162965979 0.037401334583007928 -0.015575061467558736 -0.051361264896528286 -0.021334779368899756 -0.016254723430707087 -0.049066333712988595 0.0029150008373165209
leaf_weight=1622.4306406229734 542.61534367501736 415.91943626105785 177.95306584239006 516.1807017326355 612.28706654906273 890.93583337962627 1776.192328915 827.36118611693382 978.75585205852985 474.00013488531113 672.94209606945515 1023.6301744878292 1285.8997901082039 591.20475536584854 1138.9671503156424 653.37821105122566 990.73677024245262 840.66201396286488 404.9592497497797 356.56111788749695 634.43601487576962 243.16253201663494 1301.2746267616749 247.82856306433678 896.87639290094376 222.89162909984589 1029.6522774398327 1387.3282306492329 1049.5546101182699 1048.5129642784595
leaf_count=6530 2190 1671 715 2082 2459 3601 7154 3337 3925 1911 2713 4115 5201 2381 4576 2621 3989 3369 1626 1435 2549 980 5233 999 3602 894 4135 5575 4209 4223
internal_value=6.82679e-06 0.00973834 -0.0100347 0.00146789 -0.0181554 0.0221896 0.00178428 0.0105593 -0.0100934 -0.00663043 0.00273556 -0.0125037 0.0309761 0.0280765 -0.0309645 -0.0286901 0.0237549 -0.0206713 0.00291038 0.019764 -0.012439 -0.00543097 0.00488324 0.00730841 -0.00349151 -0.0209191 -0.0153003 -0.00947982 -0.0402335 -0.00476028
internal_weight=24855.1 12622.4 12232.7 7584.54 7250.75 5037.83 4981.96 4594.74 4449.94 3205.77 3176.17 2989.8 3167.57 1418.57 2800.81 1069.3 2276.64 2453.85 1996.09 1029.5 1613.19 2146.67 1775.27 1870.26 1920.51 1430.5 1207.61 1903.51 1661.84 1453.47
internal_count=100000 50832 49168 30512 29126 20320 20042 18503 17882 12888 12785 12009 12791 5718 11244 4292 9190 9843 8039 4148 6474 8637 7144 7529 7717 5744 4850 7657 6668 5849
is_linear=0
shrinkage=0.1


Tree=4
num_leaves=31
num_cat=0
split_feature=11 47 29 65 2 74 2 20 38 29 2 29 2 83 38 74 65 65 74 20 83 38 20 56 65 29 20 74 38 47
split_gain=212.987 118.865 107.609 75.2911 69.1692 67.7566 55.8975 52.3486 47.0205 45.8225 45.1305 37.8072 34.9822 34.0523 32.411 31.6266 30.0435 29.8399 29.0207 26.9563 26.5853 25.872 25.2709 24.7993 23.8291 23.6811 22.2923 22.228 21.6895 21.6448
threshold=0.49879460036754614 0.51329573988914501 0.5014658272266389 0.5167939066886903 0.49515245854854589 0.483141839504242 0.52490687370300304 0.49878275394439703 0.5297108292579652 0.53263637423515331 0.49557399749755865 0.49520532786846166 0.51642584800720226 0.48125129938125616 0.48365601897239691 0.5167013704776765 0.49278661608695989 0.49706190824508673 0.50565707683563244 0.51398956775665294 0.51965016126632702 0.48902173340320593 0.52047872543334972 0.48399277031421667 0.53050509095191967 0.49736274778842932 0.47695492208004003 0.49846455454826361 0.49216157197952276 0.537685126066208
decision_type=2 2 2 2 2 2 2 2 2 2 2 2 2 2 2 2 2 2 2 2 2 2 2 2 2 2 2 2 2 2
left_child=2 3 6 10 14 17 8 29 16 12 22 -5 20 -12 24 -9 19 -3 28 -1 -7 -14 -2 -17 -4 -20 -16 -18 -15 -6
right_child=1 5 4 11 7 9 -8 15 -10 -11 13 -13 21 18 26 23 27 -19 25 -21 -22 -23 -24 -25 -26 -27 -28 -29 -30 -31
leaf_value=-0.036358709669550633 0.0030586606787076 0.03137172313840865 -0.02333123810825926 -0.0086586055501261059 -0.0011584668207971674 -0.012529732431724819 -0.0056273600335035416 0.028660632007018978 -0.0081492786345134186 0.010538351052659456 0.054230027725298224 0.013896372303548713 -0.019975258072750746 0.019475724022647242 -0.030239138728720673 0.032062437483028269 -0.02954042955628243 0.0042924824859700414 -0.0015116250731264272 -0.0018729716929993725 -0.035394648698453081 0.0074479153042085501 0.028663805134090614 -0.0068279702811327629 -0.069553052233875229 0.028976186733815142 -0.0019938432502377697 -0.052887220833749075 0.050892324359570841 -0.033221383428343347
leaf_weight=491.52177263796329 1035.789728179574 703.10449002683163 458.28573060035706 1216.772433206439 1324.8130640983582 1345.9890096783638 1590.2271608412266 1177.1735815256834 867.89103157818317 1070.8082060813904 617.58685693144798 1909.3597116917372 511.4974068403244 338.72024938464165 350.25653338432312 222.01301454007626 706.32314038276672 966.05772690474987 449.6924763917923 420.64032760262489 817.28313885629177 1050.7675173729658 613.89798817038536 627.12191534042358 147.41188564896584 587.76361891627312 1381.6811579018831 964.87579920887947 625.65933865308762 250.32949356734753
leaf_count=1972 4173 2840 1838 4895 5325 5403 6398 4753 3485 4314 2511 7702 2056 1369 1404 897 2831 3888 1812 1693 3277 4231 2479 2525 590 2375 5552 3865 2543 1004
internal_value=8.29384e-06 0.00824984 -0.010395 0.0169087 -0.00127424 -0.00165411 -0.0211396 0.00742029 -0.0282872 -0.00769316 0.025543 0.00511738 -0.0129333 0.0337025 -0.0146694 0.01805 -0.0350526 0.0156991 0.0273696 -0.0204557 -0.0211681 -0.00153064 0.0125871 0.00334023 -0.0345805 0.015761 -0.007706 -0.0430198 0.0398578 -0.00625407
internal_weight=24841.3 13860.7 10980.6 7395.24 5939.09 6465.51 5041.48 3601.45 3451.25 4796.35 4269.11 3126.13 3725.54 2619.42 2337.64 2026.31 2583.36 1669.16 2001.84 912.162 2163.27 1562.26 1649.69 849.135 605.698 1037.46 1731.94 1671.2 964.38 1575.14
internal_count=100000 55868 44132 29859 23888 26009 20244 14504 13846 19281 17262 12597 14967 10610 9384 8175 10361 6728 8099 3665 8680 6287 6652 3422 2428 4187 6956 6696 3912 6329
is_linear=0
shrinkage=0.1


Tree=5
num_leaves=31
num_cat=0
split_feature=56 20 74 38 83 65 65 47 65 11 65 47 2 11 38 2 20 11 38 11 20 29 2 20 29 20 65 11 29 2
split_gain=191.255 117.949 99.5243 83.1747 61.2199 58.3053 45.4853 44.8463 43.2184 42.1104 41.3339 39.9208 34.6511 31.0184 28.1045 28.0869 27.8041 27.5348 26.6803 26.3574 25.1883 25.034 24.6692 23.106 22.495 22.0753 21.859 21.9036 20.9137 24.3223
threshold=0.49832929670810705 0.4805442094802857 0.52083137631416332 0.49592527747154241 0.51777157187461864 0.5167939066886903 0.47222462296485906 0.51070010662078869 0.49890165030956274 0.49502550065517431 0.49640737473964697 0.53677731752395641 0.49112811684608465 0.51366513967514049 0.51354888081550609 0.49707974493503576 0.47169403731822973 0.51640170812606823 0.5285988748073579 0.52863335609436046 0.52121695876121532 0.5343996286392213 0.49805448949337011 0.50002554059028637 0.49897757172584539 0.49384360015392309 0.5014236867427827 0.47381620109081274 0.47596421837806707 0.50062024593353283
decision_type=2 2 2 2 2 2 2 2 2 2 2 2 2 2 2 2 2 2 2 2 2 2 2 2 2 2 2 2 2 2
left_child=2 8 5 10 9 7 20 23 14 15 28 26 -8 -12 -2 -5 -9 -10 19 -14 -4 -11 -7 -1 -18 -24 27 -6 -3 -30
right_child=1 3 6 4 11 22 12 16 17 21 13 -13 18 -15 -16 -17 24 -19 -20 -21 -22 -23 25 -25 -26 -27 -28 -29 29 -31
leaf_value=0.023648173703449397 -0.024293564777756193 -0.023482122652747871 0.0069362277464333575 -0.016697373776078946 -0.02226449224095621 -0.0039825942538954376 -0.021793587104113887 -0.012390085956080923 -0.044837663817745115 0.015594233655066229 -0.031326653032913675 -0.035280186156790669 -0.01493621794542639 -0.0093426376154708158 0.0034080368729003901 0.011002316265218423 0.0064738490546434593 -0.020092023811318496 0.018778526426794673 0.014524935294057221 0.047801902280770414 0.040877826574409512 -0.00017719660141267635 0.045567315324713323 0.029978639954674383 0.023509764628293975 -0.011250639628063308 0.015485413252008015 -0.01027314336520173 0.016644256345088936
leaf_weight=853.97473937273026 785.49082155525684 338.18291112780571 439.00124382972717 625.24801129102707 187.37543657422066 1255.323986902833 1129.2526708394289 319.22238044440746 1062.2233361154795 1858.8086912184954 1413.3305341154337 425.00036118924618 1107.1168126016855 1175.7092276662588 686.17399652302265 883.06413321197033 716.23940254747868 779.73966601490974 553.29618661105633 418.44644977152348 229.77051566541195 496.1327578574419 632.30521230399609 1100.9192783534527 943.56136704981327 1041.540485933423 1159.9211877137423 855.31457750499249 619.11326812207699 733.28257957100868
leaf_count=3464 3158 1359 1767 2509 753 5050 4535 1285 4255 7508 5663 1706 4455 4720 2769 3559 2886 3130 2230 1687 929 2011 2550 4485 3813 4210 4659 3451 2485 2959
internal_value=9.37182e-06 -0.00765553 0.0100609 -0.00257958 0.004556 0.017296 -0.00274708 0.0252494 -0.0241542 0.0125654 -0.0134021 -0.00721981 -0.00769256 -0.0213435 -0.0113775 -0.000480172 0.0146377 -0.0343623 -3.27792e-05 -0.00685532 0.0209765 0.0209209 0.00661446 0.0359922 0.0198358 0.0145619 -0.00180548 0.00870161 -0.00124014 0.00432174
internal_weight=24824.1 14084.1 10740 10770.5 6490.87 6863.09 3876.88 3933.92 3313.63 3863.25 4279.62 2627.61 3208.11 2589.04 1471.66 1508.31 1979.02 1841.96 2078.86 1525.56 668.772 2354.94 2929.17 1954.89 1659.8 1673.85 2202.61 1042.69 1690.58 1352.4
internal_count=100000 56654 43346 43342 26156 27743 15603 15933 13312 15587 17186 10569 12907 10383 5927 6068 7984 7385 8372 6142 2696 9519 11810 7949 6699 6760 8863 4204 6803 5444
is_linear=0
shrinkage=0.1


Tree=6
num_leaves=31
num_cat=0
split_feature=74 29 56 65 2 65 2 11 47 47 38 38 20 29 20 38 47 83 20 47 11 56 38 4 20 38 11 83 47 38
split_gain=176.681 111.901 77.8406 62.6613 57.3263 54.1772 46.1231 42.5976 42.0678 35.6571 31.0114 29.4653 28.4091 26.9008 26.2301 25.1806 24.9983 24.951 24.795 24.4981 24.4116 23.6019 24.4997 22.7871 22.768 22.2662 20.9081 20.8345 20.757 20.0541
threshold=0.49713373184204107 0.5014658272266389 0.52238753437995922 0.5002591907978059 0.52683618664741527 0.50606179237365734 0.53308853507041942 0.51882553100585949 0.4965235441923142 0.49697606265544897 0.5343671739101411 0.48365601897239691 0.52876737713813793 0.53508403897285473 0.50002554059028637 0.51964852213859569 0.50628510117530834 0.52213895320892345 0.48490332067012792 0.54511409997940075 0.48240791261196142 0.49632646143436437 0.45845316350460058 0.01602257136255503 0.48856733739376074 0.53972250223159801 0.49045062065124517 0.50394466519355785 0.50678288936615001 0.51469507813453685
decision_type=2 2 2 2 2 2 2 2 2 2 2 2 2 2 2 2 2 2 2 2 2 2 2 2 2 2 2 2 2 2
left_child=2 4 5 9 7 14 12 16 18 15 24 -10 28 26 -1 -3 -2 -11 -4 20 -6 -9 -23 -24 -7 -14 -13 -22 -5 -18
right_child=1 3 8 6 19 10 -8 21 11 17 -12 13 25 -15 -16 -17 29 -19 -20 -21 27 22 23 -25 -26 -27 -28 -29 -30 -31
leaf_value=0.015683982009758835 -0.020444565645388546 0.012502131967493649 -0.010802788597823111 -0.0089325094684488734 -0.018793084902492391 -0.010861278293466245 0.013172101405766868 0.0027871288382980523 -0.030749705762438063 0.010183983192615886 0.02642421913992828 -0.028125963695647512 -0.0036530820981922653 0.023356945229489973 0.033749334368075055 0.039410418661462852 -0.049394064414217717 -0.012813657944502316 0.019263061893502648 -0.032573823417277846 0.021290442743736256 -0.060598561834079911 0.12724250536306231 -0.016264013066057726 0.0089004939002875951 0.042517575862623898 -0.00095083666074845849 -0.0036334879217922687 -0.02751098827744345 -0.025962680706371408
leaf_weight=1454.7461564689875 1371.5530647784472 914.96368189156055 372.02821034193039 1194.3487064242363 439.78352484107018 836.27374133467674 879.56021571159363 760.57527306675911 552.87516245245934 1408.8450988382101 704.24674564599991 429.89491420984268 794.92615823447704 294.20185746252537 1795.9715137183666 561.00457213819027 836.99913407862186 709.26168331503868 1044.1124610751867 236.84427598118782 646.00802057981491 131.3022221326828 11.18957097828388 992.73189342021942 1925.0503116101027 120.25198391079903 829.24913507699966 697.52952176332474 1211.2586735337973 648.08765272796154
leaf_count=5890 5506 3702 1497 4806 1767 3366 3544 3059 2219 5688 2843 1726 3200 1187 7316 2279 3356 2855 4218 951 2608 526 45 3986 7768 485 3342 2807 4860 2598
internal_value=1.03221e-05 -0.00706515 0.0100769 0.00110476 -0.0164677 0.0163914 -0.00718915 -0.0224661 -0.00196315 0.0107977 0.00769284 -0.0109242 -0.0125821 -0.0038678 0.0256648 0.0227298 -0.0301787 0.00248308 0.0113646 -0.00235648 0.00165671 -0.0108445 -0.0199773 -0.0146645 0.00291559 0.00241362 -0.0102289 0.00835059 -0.018287 -0.0391687
internal_weight=24805.7 14567 10238.7 7794.42 6772.6 6716.29 4200.35 4752.44 3522.36 3594.08 3465.57 2106.22 3320.79 1553.35 3250.72 1475.97 2856.64 2118.11 1416.14 2020.17 1783.32 1895.8 1135.22 1003.92 2761.32 915.178 1259.14 1343.54 2405.61 1485.09
internal_count=100000 58628 41372 31419 27209 27183 16895 19076 14189 14524 13977 8474 13351 6255 13206 5981 11460 8543 5715 8133 7182 7616 4557 4031 11134 3685 5068 5415 9666 5954
is_linear=0
shrinkage=0.1


Tree=7
num_leaves=31
num_cat=0
split_feature=2 11 47 29 47 74 20 11 38 74 74 56 20 47 65 29 11 65 11 20 20 56 38 38 74 20 29 83 38 65
split_gain=150.147 97.0153 73.6347 67.9531 60.149 49.3804 43.9416 39.541 38.5007 35.7724 34.601 34.4355 33.0088 31.7383 29.5974 24.3848 23.731 22.9416 23.8266 21.5432 21.1423 21.1361 20.969 20.8037 20.1965 19.7921 19.7644 19.4915 19.3895 19.3209
threshold=0.51642584800720226 0.51429706811904918 0.54640203714370739 0.5014658272266389 0.50299003720283519 0.5167013704776765 0.48856733739376074 0.48724278807640081 0.49718734622001654 0.52800089120864879 0.49871698021888738 0.51807835698127758 0.48636059463024145 0.52553087472915661 0.51303210854530346 0.53508403897285473 0.55334657430648815 0.47222462296485906 0.47979497909545904 0.54052826762199413 0.5238519310951234 0.57734638452529918 0.51412197947502147 0.53212222456932079 0.52887856960296642 0.46429927647113806 0.50614893436431896 0.45958982408046728 0.51964852213859569 0.47222462296485906
decision_type=2 2 2 2 2 2 2 2 2 2 2 2 2 2 2 2 2 2 2 2 2 2 2 2 2 2 2 2 2 2
left_child=1 4 3 7 10 11 -6 -2 17 25 29 16 -10 15 -8 -7 22 -5 21 27 -13 -19 -3 -12 -14 -9 -16 -4 -29 -1
right_child=2 5 19 8 6 13 14 9 12 -11 23 20 24 -15 26 -17 -18 18 -20 -21 -22 -23 -24 -25 -26 -27 -28 28 -30 -31
leaf_value=0.031314718514062222 -0.011935596973455725 0.0024025333171359088 0.016471250825336591 0.032309023772796541 -0.037890502765885251 -0.0057851167281232421 -0.0058041729112786062 -0.0072533369466527805 0.010206993355372545 -0.0082602734650478876 -0.018713365987953555 -0.0099029853295120145 0.039899581615421134 -0.023587821425474876 -0.038214751917756369 0.023813845185630966 0.038643012135960109 -0.012365198671557274 0.011220660324715852 0.018665233290813252 0.015180592043751577 -0.13986205817285841 0.024554029986971065 0.0055188716567262713 0.017668979779160914 0.019564865323086333 -0.014439168410876793 -0.036023679248685457 -0.0058875722588917836 0.001494526364031946
leaf_weight=261.74093991518021 1272.8064435273409 917.89568810164928 131.28003621101379 369.11319690942764 1274.9177705198526 1559.6475816369057 1491.5819532424212 321.55355814099312 804.99926626682281 864.91796873509884 1583.9250363707542 1015.8580783754587 1545.6373178958893 867.80007334053516 683.42883482575417 338.79482869803905 444.34582397341728 382.3948362916708 1340.9313655793667 171.77934388816357 502.11545355618 13.460159227252005 799.60251948237419 456.36415787041187 555.56362316012383 1908.5581351816654 715.88319846987724 570.31345070898533 341.2398012727499 1278.8840714693069
leaf_count=1060 5120 3713 530 1500 5114 6272 6002 1299 3256 3483 6360 4090 6310 3481 2741 1370 1801 1539 5420 694 2027 54 3246 1836 2254 7734 2872 2295 1375 5152
internal_value=1.07287e-05 -0.00671363 0.00901888 0.0120189 -0.0142554 0.00234992 -0.022425 0.00290125 0.0199645 0.00900279 -0.00475138 0.00993853 0.0274252 -0.00774489 -0.0156046 -0.000502905 0.0180446 0.00966849 0.00485678 -0.0141487 -0.00160584 -0.0167004 0.0127154 -0.0132932 0.0340217 0.015698 -0.0260512 -0.019554 -0.0247422 0.00656076
internal_weight=24787.3 14192.8 10594.5 9379.94 7746.73 6446.06 4165.81 4367.84 5012.1 3095.03 3580.91 3679.82 2906.2 2766.24 2890.89 1898.44 2161.84 2105.9 1736.79 1214.61 1517.97 395.855 1717.5 2040.29 2101.2 2230.11 1399.31 1042.83 911.553 1540.63
internal_count=100000 57137 42863 37969 31137 26000 16729 17636 20333 12516 14408 14877 11820 11123 11615 7642 8760 8513 7013 4894 6117 1593 6959 8196 8564 9033 5613 4200 3670 6212
is_linear=0
shrinkage=0.1


Tree=8
num_leaves=31
num_cat=0
split_feature=83 38 56 65 2 47 56 2 29 74 20 65 2 2 83 29 38 23 11 20 29 65 56 11 2 74 11 29 74 11
split_gain=143.302 110.084 64.4077 60.6595 48.092 47.7405 42.9408 39.4777 34.6935 33.6386 32.9798 27.3105 26.4979 25.7315 24.4901 24.6803 23.0293 22.4128 21.1233 21.0585 20.5979 20.5679 20.2239 20.1583 20.1479 20.0528 19.7888 18.7255 24.0765 18.4762
threshold=0.49261425435543066 0.49547754228115087 0.49327774345874792 0.50426831841468822 0.52597156167030346 0.52869185805320751 0.50522339344024669 0.48478740453720098 0.50342932343482982 0.51285827159881603 0.49689042568206793 0.47945159673690801 0.53724700212478649 0.49750138819217687 0.47214329242706304 0.53078377246856701 0.51674649119377147 1.0000000180025095e-35 0.51118007302284252 0.52031216025352489 0.50894963741302501 0.5167939066886903 0.48300552368164068 0.49702510237693792 0.53048190474510204 0.52371281385421764 0.48936280608177191 0.51925256848335277 0.52800089120864879 0.5479426681995393
decision_type=2 2 2 2 2 2 2 2 2 2 2 2 2 2 2 2 2 2 2 2 2 2 2 2 2 2 2 2 2 2
left_child=3 4 10 7 8 9 25 -1 22 13 17 -10 20 -4 15 23 -16 21 -13 -7 29 -3 -2 -9 -12 -5 -6 28 -28 -8
right_child=1 2 5 6 26 19 12 14 11 -11 24 18 -14 -15 16 -17 -18 -19 -20 -21 -22 -23 -24 -25 -26 -27 27 -29 -30 -31
leaf_value=0.0027977811725236634 -0.013962376262471453 0.0066169677955833705 -0.0035519540946582513 0.018764320493097054 -0.01764595964482121 -0.028189697642915734 -0.025841673142736596 0.0098212711730744501 0.0069274579569616902 -0.0091596463462943027 0.01412234869032738 -0.029880430103537976 0.017514089020953905 0.01779515828814195 0.0058141905872260286 0.056097993195708053 0.02963794057639875 0.037678665709465715 -0.0080080525569533115 -0.0046029978888071582 -0.0011498662175305058 -0.018681774017650789 -0.037096133523277008 0.037362794459848796 0.037032200289862274 -0.0014164015398225832 0.0053101141962322062 0.019268838630021476 -0.033924808728633564 0.016008576631686287
leaf_weight=1140.2900080233812 501.25784496963024 760.56915138661861 1002.3810698986053 1520.1010036915541 611.30449955165386 1065.3202269226313 937.35247407853603 442.2611280977726 510.68770305812359 2046.4479779452085 1632.6068834215403 914.98804280161858 375.2848189920187 1293.0701648443937 934.79255250096321 373.38823500275612 716.94557748734951 142.4865712672472 853.32227571308613 587.14350534975529 1008.4078399389982 556.49335364997387 1535.5221085250378 665.87559780478477 501.87416577339172 728.28185544908047 570.8673352599144 502.9088964164257 215.42482377588749 118.86913602054119
leaf_count=4605 2018 3077 4039 6147 2457 4279 3762 1790 2060 8239 6620 3673 1512 5247 3794 1528 2928 575 3438 2363 4058 2241 6165 2722 2051 2930 2304 2036 865 477
internal_value=1.1179e-05 -0.00571677 0.00100313 0.0101127 -0.016082 -0.00534309 0.00225786 0.0187298 -0.0219188 0.000162426 0.0115878 -0.0134427 -0.00692918 0.00847327 0.024528 0.033863 0.016155 3.48217e-06 -0.0193256 -0.019809 -0.0113722 -0.00407241 -0.0314028 0.0263709 0.0195091 0.0122275 -0.00282738 0.00419919 -0.0054393 -0.0211318
internal_weight=24766.5 15804.7 9588.39 8961.85 6216.28 5994.36 4688.3 4273.55 4315.78 4341.9 3594.03 2279 2439.91 2295.45 3133.26 1481.52 1651.74 1459.55 1768.31 1652.46 2064.63 1317.06 2036.78 1108.14 2134.48 2248.38 1900.51 1289.2 786.292 1056.22
internal_count=100000 63747 38731 36253 25016 24167 18886 17367 17354 17525 14564 9171 9809 9286 12762 6040 6722 5893 7111 6642 8297 5318 8183 4512 8671 9077 7662 5205 3169 4239
is_linear=0
shrinkage=0.1


Tree=9
num_leaves=31
num_cat=0
split_feature=47 83 38 11 29 56 2 11 65 65 83 2 11 20 29 83 56 56 20 65 74 38 59 74 74 65 74 74 47 2
split_gain=124.633 73.6879 72.4019 58.4464 46.8602 44.9584 38.1167 35.483 34.7011 34.5944 28.244 28.1805 26.7477 25.632 25.2631 24.0649 23.709 21.7036 21.2352 20.3988 20.2255 19.3322 19.0191 18.4164 17.7918 23.067 17.786 17.3981 20.3659 17.2896
threshold=0.50299003720283519 0.49413302540779119 0.48699457943439489 0.48054002225399023 0.51792949438095104 0.49327774345874792 0.48812702298164373 0.46002848446369177 0.4972022026777268 0.50606179237365734 0.4743781983852387 0.51179087162017833 0.4980322271585465 0.51398956775665294 0.49696162343025213 0.53491216897964489 0.49746797978878027 0.53088223934173595 0.47843566536903387 0.43792067468166357 0.48816478252410894 0.55862352252006542 1.0000000180025095e-35 0.5167013704776765 0.53089687228202831 0.52298358082771312 0.47947429120540624 0.49501465260982519 0.53628605604171764 0.55131417512893688
decision_type=2 2 2 2 2 2 2 2 2 2 2 2 2 2 2 2 2 2 2 2 2 2 2 2 2 2 2 2 2 2
left_child=1 6 8 11 9 13 -1 -7 26 10 -5 22 18 24 19 -16 -6 -10 -8 -9 -20 -14 23 -4 25 -3 -2 -12 -29 -11
right_child=2 5 3 4 16 7 12 14 17 29 27 -13 21 -15 15 -17 -18 -19 20 -21 -22 -23 -24 -25 -26 -27 -28 28 -30 -31
leaf_value=0.0033585105137501842 0.012974301654141233 0.019304949749186097 -0.011737284998156343 0.028351409281192369 0.022772313095768729 -0.028307712775423939 -0.01034645527049867 0.035189861301381867 -0.020811168059058763 -0.016332817017817022 0.012207301226300737 -0.0042661649303694519 0.029177962506613239 0.022020770294742045 0.011701693094100907 -0.010254216766205236 0.0045196748363861726 -0.043940791371664872 0.04154208250807509 -0.013638113069258757 0.010790676080550801 0.071195123751335951 -0.067912211679934387 -0.038642753441561817 -0.016454930775783656 -0.01123355085770282 -0.012637368864075385 0.00038914690771394436 -0.030047476384072513 0.013912279117125066
leaf_weight=1282.3759045302868 350.06252045929432 728.7402476221323 608.63889896869659 410.11746042966843 1224.7882844656706 556.9627591073513 298.08349126577377 90.562627777457237 1701.4492128789425 1904.6331005692482 626.58407601714134 1032.0225250273943 1630.9846632480621 1260.4899641722441 1680.0563242137432 710.24863915145397 1698.5609029978514 532.70768427848816 305.24703508615494 1548.709338799119 714.54784107208252 117.38448143005371 103.54947678744793 437.11240564286709 367.8881995677948 374.42246156930923 1202.7653749287128 720.41709904372692 316.39261655509472 209.82829357683659
leaf_count=5178 1416 2965 2445 1665 4974 2238 1201 366 6839 7651 2541 4159 6681 5145 6799 2867 6859 2140 1245 6229 2894 484 416 1755 1480 1513 4840 2899 1271 845
internal_value=1.15335e-05 0.00752577 -0.00669098 -0.00194141 0.00245091 0.00139943 0.0178355 -0.00464936 -0.0183457 -0.00433121 0.00484678 -0.0162608 0.0238901 0.011556 -0.00137933 0.00517777 0.0121669 -0.0263261 0.0131324 -0.0109406 0.0199952 0.031999 -0.0270315 -0.0229835 0.00258905 0.00893993 -0.00686359 -0.000948393 -0.00889889 -0.0133314
internal_weight=24746.3 11666.7 13079.6 9292.65 7111.32 7318.08 4348.62 4586.54 3786.98 4187.97 2073.51 2181.32 3066.25 2731.54 4029.58 2390.3 2923.35 2234.16 1317.88 1639.27 1019.79 1748.37 1149.3 1045.75 1471.05 1103.16 1552.83 1663.39 1036.81 2114.46
internal_count=100000 47285 52715 37480 28705 29602 17683 18499 15235 16872 8376 8775 12505 11103 16261 9666 11833 8979 5340 6595 4139 7165 4616 4200 5958 4478 6256 6711 4170 8496
is_linear=0
shrinkage=0.1


Tree=10
num_leaves=31
num_cat=0
split_feature=74 56 2 20 20 65 83 11 38 83 86 83 47 83 2 20 38 11 38 38 47 2 47 83 65 0 5 65 20 10
split_gain=113.729 65.9149 64.8892 46.8687 43.5187 38.7863 37.5362 33.398 33.2786 33.2258 26.4824 35.0991 25.1332 24.9826 22.8309 22.5041 22.4853 21.2032 20.657 20.5921 20.0572 19.6614 19.4654 21.9928 18.9711 18.5728 18.2499 18.2335 17.6034 17.4545
threshold=0.50815421342849743 0.49378240108489996 0.49733649194240576 0.52713346481323253 0.48947039246559149 0.47222462296485906 0.5563531517982484 0.49466769397258764 0.49216157197952276 0.52889922261238109 1.0000000180025095e-35 0.45570600032806402 0.52665910124778759 0.47063913941383367 0.49112811684608465 0.47912482917308813 0.5033174753189088 0.47381620109081274 0.53047525882720958 0.46281550824642187 0.52869185805320751 0.53453379869461071 0.48682291805744177 0.47134360671043402 0.4899247437715531 2.4414010047912602 1.0000000180025095e-35 0.52158227562904369 0.5238519310951234 0.42163743078708654
decision_type=2 2 2 2 2 2 2 2 2 2 2 2 2 2 2 2 2 2 2 2 2 2 2 2 2 2 2 2 2 2
left_child=2 5 9 7 24 -2 8 15 -6 10 11 -1 21 -14 26 29 -5 -11 28 -16 27 -9 25 -24 -4 -21 -7 -10 -13 -3
right_child=1 3 4 16 6 14 -8 12 20 17 -12 18 13 -15 19 -17 -18 -19 -20 22 -22 -23 23 -25 -26 -27 -28 -29 -30 -31
leaf_value=0.035303707195020732 0.022518828648055076 0.021260863106828568 0.014340783331973295 -0.010513664882306567 0.0093838720036512474 -0.016199802233749023 -0.011358408780879698 -0.0099794531486455691 0.03927188381830507 -0.04036064704371381 -0.030147575559118813 -0.008813004234122835 0.011107208756683543 -0.031087455383147986 -0.018732867366975072 -0.020143603713702399 0.0095853874402603012 -0.0089477506826200811 0.01588127731794977 0.026197803671234574 0.01373964797643672 0.0131703822785302 0.028355081755330299 -0.0037900888228566982 -0.004682932018341193 -0.055628080935305572 0.019458850856700943 0.019496421455903315 0.009368704041130424 -0.046208366546711628
leaf_weight=350.51382440328598 809.20794829726219 40.780963644385338 792.69390314817429 1085.6384941488504 1589.9936544746161 1203.8295641243458 390.4343413412571 1868.5980061739683 1373.3975127637386 264.94340804219246 224.53536739945412 1583.172528102994 167.65143422782421 860.75374706089497 340.39352113008499 1445.8259425312281 1142.2237904816866 1137.023156017065 798.86517836153507 605.42909942567348 778.36696331202984 456.50459696352482 255.75557591021061 1268.3537358492613 1547.6958470344543 29.071365490555763 162.95452530682087 705.88483525812626 802.40421570837498 641.60076873004436
leaf_count=1418 3285 164 3233 4370 6449 4839 1586 7525 5683 1065 908 6381 675 3456 1371 5810 4617 4584 3235 2460 3161 1848 1037 5119 6246 118 655 2877 3246 2579
internal_value=1.17445e-05 -0.00675825 0.00680624 -0.0124393 0.0129552 0.00261038 0.0183706 -0.0174099 0.0209803 -0.0017456 0.00315394 0.00526921 -0.0111918 -0.0242088 -0.00155697 -0.0272081 -0.000208892 -0.0148842 0.00196329 0.00412644 0.0274326 -0.00543427 0.00773115 0.00160408 0.00176043 0.0224487 -0.0119484 0.0325584 -0.00269747 -0.0421762
internal_weight=24724.5 12384.6 12339.9 7709.58 7178.47 4675 4838.08 5481.72 4447.64 5161.46 3759.49 3534.96 3353.51 1028.41 3865.79 2128.21 2227.86 1401.97 3184.44 2499 2857.65 2325.1 2158.61 1524.11 2340.39 634.5 1366.78 2079.28 2385.58 682.382
internal_count=100000 49928 50072 31044 29235 18884 19756 22057 18170 20837 15188 14280 13504 4131 15599 8553 8987 5649 12862 10105 11721 9373 8734 6156 9479 2578 5494 8560 9627 2743
is_linear=0
shrinkage=0.1


Tree=11
num_leaves=31
num_cat=0
split_feature=29 20 38 2 38 74 74 56 83 83 56 83 3 47 11 47 5 65 74 2 38 37 56 47 65 47 76 56 20 83
split_gain=104.906 81.4527 65.9686 51.5457 42.2787 41.4533 35.086 31.7922 26.2961 25.6667 24.2341 23.9549 23.3581 22.9298 21.9041 21.8795 20.3546 20.2857 19.554 19.5509 24.6225 19.84 18.4461 18.4134 18.2678 17.6023 17.2493 17.4334 18.3193 17.2461
threshold=0.50743725895881664 0.52031216025352489 0.52995935082435619 0.50467243790626537 0.48401004076004034 0.52269536256790172 0.51910081505775463 0.51837262511253368 0.49288177490234381 0.47214329242706304 0.53485587239265453 0.521507889032364 0.35416667163372045 0.53819066286087047 0.49466769397258764 0.48682291805744177 1.0000000180025095e-35 0.56029635667800914 0.46797934174537664 0.51281493902206432 0.54078567028045665 0.41588050127029424 0.49668307602405554 0.47250631451606756 0.5162768065929414 0.5043148696422578 0.52719780802726757 0.53695955872535717 0.48328344523906713 0.53836345672607433
decision_type=2 2 2 2 2 2 2 2 2 2 2 2 2 2 2 2 2 2 2 2 2 2 2 2 2 2 2 2 2 2
left_child=2 4 3 8 12 15 7 17 26 22 24 25 -2 18 16 -5 -10 -6 -14 20 -11 -21 -3 -16 -4 -9 -1 28 -28 -8
right_child=1 9 10 5 6 -7 29 11 14 19 -12 -13 13 -15 23 -17 -18 -19 -20 21 -22 -23 -24 -25 -26 -27 27 -29 -30 -31
leaf_value=-0.026730910888385685 0.021720917608123527 0.053115811901466206 0.017659063795970348 0.016287224342377008 0.021511693175818275 -0.016620673548813872 -0.0013686167897075489 0.023796832979169073 -0.039798069967952113 0.0027537127114370518 -0.012041130775269695 -0.018042531262955713 0.01543204346767397 -0.041111993008162623 0.0056016837012437763 -0.0021713666128783983 0.0068413923820841091 -0.017136669087847427 -0.015183637289627024 0.086847905835283304 0.035051142369173109 0.019743468481270815 0.02130937931880254 -0.021953916574810647 0.0004427019977702264 -0.0040012197689632302 -0.019278830740628417 -0.029712161556474916 0.011052498152895475 -0.026049940300580526
leaf_weight=383.83786988258362 188.69992992281914 301.09879745543003 1446.7019099146128 901.51211446523666 1947.8152953386307 1605.7299027740955 1905.0450708717108 430.52226462960243 992.46361489593983 1762.1822454184294 599.74057242274284 505.28196503221989 246.03033104538918 288.91264912486076 290.93834359943867 2232.1069362163544 103.31484949588776 145.98791997134686 1371.81971180439 45.218001410365105 272.5544895529747 1719.631457388401 462.2818982899189 1456.5850034207106 1073.752991065383 483.75056862831116 272.474459156394 195.77218410372734 739.70113544166088 332.52611500024796
leaf_count=1547 760 1245 5883 3673 7948 6461 7687 1755 3998 7126 2419 2035 995 1161 1171 9031 416 591 5528 185 1108 7050 1886 5856 4326 1954 1097 788 2983 1337
internal_value=1.19332e-05 0.00649827 -0.00653493 -0.0108067 0.000320007 -0.00355574 0.00475095 0.0109844 -0.0185552 0.0171223 0.00602565 -0.000568553 -0.0118406 -0.0151619 -0.0243166 0.00313899 -0.0354007 0.018817 -0.0105278 0.0137606 0.00707998 0.0214628 0.0338547 -0.0173663 0.0103246 0.00908862 -0.00826405 -0.00239601 0.0028874 -0.00503652
internal_weight=24704 12409.4 12294.6 9174.44 7846.39 4739.35 5750.93 3513.36 4435.09 4562.97 3120.2 1419.55 2095.46 1906.76 2843.3 3133.62 1095.78 2093.8 1617.85 3799.59 2034.74 1764.85 763.381 1747.52 2520.45 914.273 1591.79 1207.95 1012.18 2237.57
internal_count=100000 50351 49649 37021 31751 19165 23307 14283 17856 18600 12628 5744 8444 7684 11441 12704 4414 8539 6523 15469 8234 7235 3131 7027 10209 3709 6415 4868 4080 9024
is_linear=0
shrinkage=0.1


Tree=12
num_leaves=31
num_cat=0
split_feature=11 20 83 56 38 65 38 74 47 83 56 83 74 65 29 65 2 47 65 29 29 74 38 37 74 73 79 18 20 2
split_gain=97.5948 61.4081 53.0353 46.6983 44.7406 33.5212 33.2487 29.3217 29.0292 29.0116 27.0527 24.8696 24.1155 23.1176 22.4138 21.7657 20.7535 20.3095 19.4068 19.0283 18.771 18.029 17.593 17.5439 16.6409 15.9005 15.8528 15.8312 15.6162 15.5942
threshold=0.49879460036754614 0.52342408895492565 0.54455444216728222 0.49424940347671514 0.51218181848526012 0.50359743833541881 0.51784741878509533 0.4923472553491593 0.48051322996616369 0.47214329242706304 0.53121963143348705 0.51777157187461864 0.48039762675762182 0.54700505733490001 0.5343996286392213 0.47281493246555334 0.4835717529058457 0.52140963077545177 0.52126300334930431 0.47731384634971624 0.5580621361732484 0.51499047875404369 0.48699457943439489 0.4236596822738648 0.55817249417305004 0.46247655153274542 0.58333334326744091 1.4978661537170412 0.49781094491481787 0.52645209431648265
decision_type=2 2 2 2 2 2 2 2 2 2 2 2 2 2 2 2 2 2 2 2 2 2 2 2 2 2 2 2 2 2
left_child=2 3 4 7 8 16 14 25 -1 29 15 -8 -11 22 17 26 -6 18 -5 -18 -14 23 -9 -17 -13 -2 -10 -21 -7 -3
right_child=1 9 -4 6 5 28 11 13 10 12 -12 24 20 -15 -16 21 19 -19 -20 27 -22 -23 -24 -25 -26 -27 -28 -29 -30 -31
leaf_value=0.0027794430554059957 -0.0062971942167202024 0.023292804398871596 -0.025675207861085014 -0.00088916694980703244 -0.0048682106999877184 -0.014609423976188862 0.012944519900032767 -0.0078920117199369477 0.014571818710864982 0.026072840870841968 -0.030429909813477502 -0.0042794251523879112 0.0047528380886207085 -0.025095272394196858 0.0054534379136520709 0.048682549379004729 -0.0032173679388191804 -0.026667933349556486 -0.022944644874491035 0.018022859131991739 0.034977189254630704 -0.023964886249660741 0.012874659357356003 -0.008989691111904655 -0.055049025905510564 0.026847856864536668 -0.045966298752201727 0.047879140034595542 0.0015312799786866315 0.053954151038047272
leaf_weight=1160.988845333457 167.24690324068069 541.49124893546104 1340.4073318392038 1142.3767623007298 568.28341528773308 1055.4306296259165 1407.5573810786009 573.68872961401939 441.53799071907997 871.49671728909016 900.2685938179493 877.06574104726315 2658.9081148058176 255.24804843962193 667.98549309372902 55.074923694133759 352.96703904867172 962.27329447865486 613.04731445014477 1061.0512426644564 222.69138714671135 1093.8115201145411 1412.0774040967226 1247.5315920561552 69.69093456864357 1075.2814909517765 47.953984156250954 213.30245111882687 1387.3460544645786 239.12695336341858
leaf_count=4685 687 2218 5402 4615 2290 4241 5726 2314 1786 3575 3630 3537 10794 1029 2700 222 1430 3868 2462 4334 911 4404 5741 5033 280 4416 194 871 5610 995
internal_value=1.19228e-05 0.00561564 -0.00704392 0.000931553 -0.00443859 0.00261707 -0.00461159 0.0100653 -0.0110539 0.0151451 -0.0152957 0.00451529 0.0114969 0.00323378 -0.0109582 -0.0105745 0.0115839 -0.014992 -0.00859161 0.0173293 0.00708859 -0.0144995 0.00687516 -0.00655128 -0.00801658 0.0223865 0.00864109 0.0230202 -0.0054425 0.0326853
internal_weight=24683.2 13757.3 10926 9223.54 9585.55 4638.38 5740 3483.54 4947.17 4533.71 3786.18 2354.31 3753.1 2241.01 3385.68 2885.91 2195.6 2717.7 1755.42 1627.32 2881.6 2396.42 1985.77 1302.61 946.757 1242.53 489.492 1274.35 2442.78 780.618
internal_count=100000 55868 44132 37375 38730 18776 23188 14187 19954 18493 15269 9543 15280 9084 13645 11639 8925 10945 7077 6635 11705 9659 8055 5255 3817 5103 1980 5205 9851 3213
is_linear=0
shrinkage=0.1


Tree=13
num_leaves=31
num_cat=0
split_feature=65 83 2 20 29 38 86 20 56 29 11 2 29 47 56 38 47 83 47 74 38 65 21 33 38 74 20 86 56 2
split_gain=86.5173 60.8296 48.5308 45.6632 45.37 35.3668 29.4059 29.1105 26.7008 25.1743 24.0999 23.5581 23.2815 22.0029 21.9049 21.875 21.3797 19.8674 19.3879 21.7421 18.9994 18.9294 17.6986 17.6637 16.1958 16.0674 15.8309 18.109 15.7154 15.6647
threshold=0.50727453827857982 0.47214329242706304 0.54984459280967724 0.51643201708793651 0.51061421632766735 0.51674649119377147 1.0000000180025095e-35 0.4827472865581513 0.51579806208610546 0.57175311446189891 0.46374975144863134 0.51794758439064037 0.52939656376838695 0.53312939405441295 0.53425467014312755 0.52946060895919811 0.46437503397464758 0.49235320091247564 0.52919298410415661 0.53348812460899364 0.53722476959228527 0.48858983814716345 0.18333333730697635 2.3502402305603032 0.51674649119377147 0.49418713152408605 0.49631352722644811 1.4978661537170412 0.5066492259502412 0.49220034480094915
decision_type=2 2 2 2 2 2 2 2 2 2 2 2 2 2 2 2 2 2 2 2 2 2 2 2 2 2 2 2 2 2
left_child=1 6 4 5 8 18 12 -6 15 10 -5 -7 -1 26 25 -2 -10 28 19 29 -19 -8 -18 -17 -24 -12 -4 -28 -9 -3
right_child=2 3 13 9 7 11 21 17 16 -11 14 -13 -14 -15 -16 23 22 20 -20 -21 -22 -23 24 -25 -26 -27 27 -29 -30 -31
leaf_value=0.020557194411817151 -0.013059378891983636 -0.01262094283631076 0.0037547416893703072 -0.010246213329662525 -0.014403224256880951 -0.0020773231089043307 0.01454550907531465 0.022498249302096977 0.0011347881361102288 0.042991645505539508 0.025477270175015429 0.017634154795412579 0.047597310367141016 -0.012944359489336447 -0.0037786390665638134 0.0034956091371965456 0.014387564587041763 -0.006225219157306951 -0.022630800422703296 -0.023116102923294257 0.017043178611746396 -0.028678362249597078 -0.035209688812982878 0.091017797462184274 -0.017196628137828397 0.0099810502447262132 0.03129346923513348 -0.093643893367753361 0.0017458238363161568 0.0066270658247647232
leaf_weight=1213.0728314369917 2340.1833043545485 652.60888738930225 415.14981679618359 579.74427577853203 1322.5964655280113 1512.9628632068634 270.40225294232368 722.61876977980137 344.00023259222507 225.34361727535725 1052.0263487845659 1011.7995466887951 431.74044461548328 274.09916388988495 728.76484306156635 776.23569336533546 104.76769880950451 2210.588810890913 879.45354953408241 530.15320095419884 417.13811685144901 162.03045479953289 1204.8810764551163 23.765217766165733 852.18007279932499 1838.2726609706879 614.59698262810707 11.824616447091101 737.17545120418072 1200.7763655334711
leaf_count=4972 9437 2626 1675 2349 5325 6124 1113 2945 1382 928 4352 4143 1792 1105 2958 3134 422 8927 3539 2132 1695 664 4859 96 3424 7475 2504 48 2980 4875
internal_value=1.19473e-05 0.0059549 -0.0058913 0.00278177 -0.00805185 -0.00306464 0.0215542 -0.00150774 -0.0143225 0.0104302 0.00868264 0.00582206 0.0276548 0.0122647 0.0117149 -0.00817941 -0.0220208 0.00266484 -0.00994079 -0.00525856 -0.00253148 -0.00165027 -0.0257054 0.00609559 -0.0277474 0.0156214 0.0188987 0.0289351 0.0120186 -0.00015049
internal_weight=24661 12289.2 12371.8 10211.9 11056.1 5787.75 2077.25 5410.12 5646.01 4424.15 4198.81 2524.76 1644.81 1315.67 3619.06 3140.18 2505.83 4087.52 3262.99 2383.54 2627.73 432.433 2161.83 800.001 2057.06 2890.3 1041.57 626.422 1459.79 1853.39
internal_count=100000 50042 49958 41501 44626 23439 8541 21872 22754 18062 17134 10267 6764 5332 14785 12667 10087 16547 13172 9633 10622 1777 8705 3230 8283 11827 4227 2552 5925 7501
is_linear=0
shrinkage=0.1


Tree=14
num_leaves=31
num_cat=0
split_feature=47 65 2 11 11 56 56 2 20 29 65 74 83 59 74 47 38 58 20 45 47 2 5 56 20 29 83 31 46 13
split_gain=80.7106 51.4647 51.5274 45.4996 41.6623 35.1519 33.4955 28.899 26.2657 25.0063 22.3804 22.1719 21.9529 21.7466 20.3095 20.1392 19.5888 18.4991 17.7122 17.3459 20.1708 16.963 18.3809 16.3558 15.3711 15.1719 15.1013 15.0623 15.0569 15.0397
threshold=0.51070010662078869 0.47222462296485906 0.53864058852195751 0.52180632948875438 0.4669030904769898 0.53279548883438121 0.49928578734397894 0.52683618664741527 0.52962273359298717 0.49839806556701666 0.48072130978107458 0.47277586162090307 0.59794875979423534 1.0000000180025095e-35 0.53778898715972911 0.53900110721588146 0.49012650549411779 0.015794742852449421 0.53240805864334118 1.4978661537170412 0.47418697178363806 0.49060817062854772 1.0000000180025095e-35 0.49152131378650671 0.53616163134574901 0.49394929409027105 0.53515863418579113 0.017104045487940315 0.57979625463485729 0.026785046793520454
decision_type=2 2 2 2 2 2 2 2 2 2 2 2 2 2 2 2 2 2 2 2 2 2 2 2 2 2 2 2 2 2
left_child=1 -1 4 5 27 7 13 11 9 19 -5 -2 16 21 -12 -9 -4 24 25 20 -8 22 -6 -17 -13 -7 -11 -3 -16 -30
right_child=3 2 12 10 6 18 8 15 -10 26 14 17 -14 -15 28 23 -18 -19 -20 -21 -22 -23 -24 -25 -26 -27 -28 -29 29 -31
leaf_value=0.019939899973829858 0.0046009434084015579 0.051274318137441592 0.0059022705765045258 0.015807031347686903 -0.00075883448962229063 -0.041227542618156331 0.0056162179074434196 0.010742407802949846 0.0100687707861448 0.0045437249105544112 0.0020170347012257862 -0.10946205223752299 -0.045508472138468065 -0.015735467388803961 -0.024284519678930611 0.0072323348643977704 0.030266091260350937 -0.013544917989118322 -0.0036936573458781537 -0.04309493151419401 -0.022404140789869575 0.018804362195410769 0.038767069162314434 -0.027696036869037613 0.075848027249133324 -0.019682935240464095 -0.019692782602735995 -0.018182623659478588 -0.066899072417864122 0.10085426673838377
leaf_weight=2099.7122531086206 750.45062915980816 31.995095625519753 499.8174019753933 991.37948620319366 1079.7117300778627 528.93963174521923 387.64761221408844 1283.2395313978195 1099.0692334473133 1406.6630532443523 2680.3320474177599 32.516384974122047 49.818210542201996 294.50282169878483 464.33666294813156 240.64062747359276 971.2950454801321 3611.704611197114 386.14788085222244 228.96700555086136 761.72682598233223 1828.6450895369053 132.04149204492569 302.71046011149883 5.1907344162464133 855.55509202182293 314.57699796557426 1292.212133333087 7.4513024091720608 18.900668948888779
leaf_count=8632 3037 129 2030 4036 4374 2140 1561 5205 4470 5699 10843 131 202 1204 1869 975 4006 14574 1559 921 3069 7520 535 1222 21 3450 1265 5215 30 76
internal_value=1.20083e-05 0.00566192 0.00277334 -0.00578608 -0.000146374 -0.0101993 0.00272896 -0.00666374 -0.00321369 -0.00792347 0.00269283 -0.0110533 0.0197775 0.0102108 -0.00140716 0.0039098 0.0219884 -0.0142724 -0.0226319 -0.0179607 -0.0129538 0.012724 0.0035482 -0.0122269 -0.0839524 -0.027914 0.000114216 -0.0165044 -0.0201115 0.0534202
internal_weight=24637.9 12478.4 10378.7 12159.5 8857.76 7997.1 7533.55 6226.45 4198.65 3099.58 4162.4 4399.86 1520.93 3334.9 3171.02 1826.59 1471.11 3649.41 1770.64 1378.34 1149.37 3040.4 1211.75 543.351 37.7071 1384.49 1721.24 1324.21 490.689 26.352
internal_count=100000 50832 42200 49168 35962 32314 30618 25165 16985 12515 16854 17763 6238 13633 12818 7402 6036 14726 7149 5551 4630 12429 4909 2197 152 5590 6964 5344 1975 106
is_linear=0
shrinkage=0.1


Tree=15
num_leaves=31
num_cat=0
split_feature=20 83 23 11 38 29 74 83 47 56 65 11 2 2 82 38 11 56 2 11 74 20 2 14 10 29 56 65 38 73
split_gain=74.0772 63.918 58.9839 47.9082 40.8328 36.1025 28.9963 28.7322 23.1236 23.1109 23.029 21.1578 20.2897 18.9808 18.1732 17.9558 16.9224 16.7053 15.9353 15.9055 15.4942 15.0472 14.9091 14.6882 14.3085 13.9781 15.0433 13.893 13.6195 14.0079
threshold=0.4827472865581513 0.51560947299003612 1.0000000180025095e-35 0.53323450684547435 0.4923721998929978 0.51948779821395885 0.52112770080566417 0.48759023845195776 0.49679426848888403 0.49549618363380438 0.47222462296485906 0.49466769397258764 0.5831238627433778 0.50005444884300243 0.45584416389465338 0.46120300889015203 0.48054002225399023 0.52088642120361339 0.49475173652172094 0.4669030904769898 0.46056649088859564 0.46585206687450414 0.5418963134288789 0.89587974548339855 0.46547618508338934 0.52831298112869274 0.48364278674125677 0.53424662351608287 0.50000765919685375 0.43826219439506536
decision_type=2 2 2 2 2 2 2 2 2 2 2 2 2 2 2 2 2 2 2 2 2 2 2 2 2 2 2 2 2 2
left_child=2 3 10 4 7 6 16 14 -5 19 21 25 -13 27 -2 -15 23 -16 -10 -6 -21 -1 -11 -3 -9 26 -12 -7 -4 -30
right_child=1 5 28 8 9 13 -8 24 18 22 11 12 -14 15 17 -17 -18 -19 -20 20 -22 -23 -24 -25 -26 -27 -28 -29 29 -31
leaf_value=-0.011458206408622249 -0.024130842895850158 -0.019542047176365155 0.00088174751841748602 0.033541845777679651 0.0005254431817155287 0.0015725239368528715 -0.018791631502896214 0.014312006724564692 -0.0007379607715013298 0.0022083310173351398 -0.012114061831422619 -0.012760655997086904 0.034554306550472418 -0.015587941125520833 0.017365399641926814 0.015973595701343209 0.0010395571791871081 -0.0058408508501944208 0.021788679249061291 0.048760422018840961 0.019241029614075176 0.014915042916894303 0.022681846793008834 0.042244625544226103 -0.018766782917217843 -0.010402848905586808 -0.037510838979295323 -0.02244979280516194 -0.027516448246602283 0.030499289893414119
leaf_weight=449.70881824195385 190.77407705783844 704.52903378009796 440.51415124535561 919.58409243822098 392.39942128956318 1171.7247827500105 1816.9008310437202 146.46836552023888 520.11019960045815 2763.142672970891 313.77309958636761 2571.6876899898052 93.942203491926193 205.08278711140156 846.67098005115986 1489.0016840100288 2451.9790387451649 489.5671903938055 792.53305944800377 203.62708434462547 1402.4122149199247 416.87729866802692 408.23680612444878 40.697686553001404 1219.7435436099768 451.55833804607391 908.61344346404076 303.0072390884161 45.899279937148094 446.19375844299793
leaf_count=1826 774 2844 1778 3805 1601 4738 7318 591 2107 11230 1264 10393 382 831 3445 6098 9949 1978 3246 852 5771 1694 1684 164 4930 1819 3674 1220 186 1808
internal_value=1.16894e-05 0.0031735 -0.00950562 0.00841695 0.00482768 -0.0034235 -0.00870389 -0.00468497 0.0213818 0.0101513 -0.0136544 -0.0166265 -0.0110932 0.00493181 0.00474112 0.0121528 -0.00297125 0.00886316 0.0128629 0.018574 0.0229837 0.00122883 0.00484379 -0.0161678 -0.0152205 -0.0254378 -0.0309918 -0.00336324 0.0136542 0.025088
internal_weight=24617 18478.2 6138.77 10295.3 8063.04 8182.92 5014.11 2893.22 2232.23 5169.82 5206.16 4339.57 2665.63 3168.82 1527.01 1694.08 3197.21 1336.24 1312.64 1998.44 1606.04 866.586 3171.38 745.227 1366.21 1673.94 1222.39 1474.73 932.607 492.093
internal_count=100000 75176 24824 42014 32856 33162 20275 11718 9158 21138 21052 17532 10775 12887 6197 6929 12957 5423 5353 8224 6623 3520 12914 3008 5521 6757 4938 5958 3772 1994
is_linear=0
shrinkage=0.1


Tree=16
num_leaves=31
num_cat=0
split_feature=74 65 47 47 29 83 20 37 32 83 38 38 38 1 74 2 11 29 11 46 11 9 20 21 29 16 47 2 2 38
split_gain=68.7578 44.2837 38.4872 37.9871 30.1239 26.529 25.9789 25.0839 22.5327 22.2572 21.1546 19.5835 18.9105 18.1693 18.0188 16.9283 16.5954 16.4633 16.3177 15.7608 15.3964 16.5525 14.9236 17.0376 14.5699 14.7338 14.5488 14.3129 14.0717 13.8201
threshold=0.49713373184204107 0.52521711587905895 0.52414163947105419 0.53819066286087047 0.45977459847927099 0.49455621838569647 0.51643201708793651 0.42997199296951299 1.0000000180025095e-35 0.48940959572792059 0.4923721998929978 0.48868855834007269 0.54167792201042186 0.41277891397476202 0.55880141258239757 0.51243731379508983 0.54193025827407848 0.52002477645874035 0.50696608424186718 0.45049019157886511 0.48296797275543218 1.7005987167358401 0.46711409091949468 0.43650794029235845 0.46143484115600591 1.5833333134651186 0.4897578656673432 0.51550811529159557 0.5361849069595338 0.48985712230205541
decision_type=2 2 2 2 2 2 2 2 2 2 2 2 2 2 2 2 2 2 2 2 2 2 2 2 2 2 2 2 2 2
left_child=3 2 6 4 8 -6 14 -4 -1 16 20 -11 24 -9 18 -5 28 29 19 -2 21 26 23 -12 -8 -26 -7 -13 -3 -15
right_child=1 9 7 15 5 10 12 13 -10 11 22 27 -14 17 -16 -17 -18 -19 -20 -21 -22 -23 -24 -25 25 -27 -28 -29 -30 -31
leaf_value=-0.016680419115614104 -0.042831485146498843 -0.011170678484494939 0.03085926081569116 -0.018457681583468343 0.018662761825102871 -0.0008929524622263166 -0.012150391571273442 0.033810319399014382 0.016816363115109523 -0.0292639317376093 0.032546007526491609 -0.019173911535110274 0.032137184539402217 -0.030780983850070678 -0.020283665467008622 0.0026819526635232156 0.0256917294292799 -0.0032311845356065498 0.0075973064746882122 -0.0037331289493674046 0.0029604849778112566 0.023933684895709 0.014455317153839032 -0.014745387292707161 0.0085646156513122587 0.043785750916174225 -0.043778339675210991 -0.0024394144094179522 0.017606035306617054 -0.012577228187184403
leaf_weight=724.20627370476723 110.45977221429348 1047.8318393677473 145.80774693191051 784.98830437660217 2859.0203493833542 123.51956060528755 323.80087335407734 85.718618109822273 277.8732832968235 965.25298967957497 95.953721657395363 1199.2869094908237 360.52347822487354 621.45087234675884 464.70259346067905 732.08278416097164 183.60464444756508 1112.541110470891 1703.7907992601395 1547.4758936166763 1289.7806242108345 73.482135340571404 2572.2984810620546 369.68604409694672 2113.7859669476748 125.84146048128605 220.0019421428442 890.67186309397221 202.81908093392849 1267.9973368495703
leaf_count=2949 446 4231 589 3175 11786 498 1310 346 1131 3900 390 4831 1486 2509 1876 2975 744 4502 6925 6249 5232 296 10554 1498 8634 514 888 3599 824 5113
internal_value=1.1593e-05 -0.00441015 -0.000700919 0.00633365 0.00890566 0.0110535 0.00359624 -0.00967179 -0.00739187 -0.0126589 0.00646836 -0.0174832 0.010693 -0.0115858 -0.0018267 -0.00825647 -0.00238244 -0.012882 0.000724669 -0.00633805 -0.00243999 -0.0191435 0.0114733 -0.00500012 0.00767703 0.0105436 -0.0283581 -0.0120422 -0.00650394 -0.0185646
internal_weight=24596.3 14473.4 9983.9 10122.9 8605.82 7603.74 6750.38 3233.52 1002.08 4489.47 4744.72 3055.21 2923.95 3087.71 3826.43 1517.07 1434.26 3001.99 3361.73 1657.94 1706.78 417.004 3037.94 465.64 2563.43 2239.63 343.522 2089.96 1250.65 1889.45
internal_count=100000 58628 40499 41372 35222 31142 27440 13059 4080 18129 19356 12330 11944 12470 15496 6150 5799 12124 13620 6695 6914 1682 12442 1888 10458 9148 1386 8430 5055 7622
is_linear=0
shrinkage=0.1


Tree=17
num_leaves=31
num_cat=0
split_feature=56 11 59 38 65 83 65 47 12 20 83 29 2 29 11 83 68 2 47 30 2 38 1 38 56 20 74 11 47 38
split_gain=64.3972 43.6747 32.9894 31.7046 30.9634 30.274 29.399 27.9485 23.1182 26.9031 21.5188 20.614 19.8551 19.5161 19.5005 18.3814 17.159 17.0982 16.7993 19.7285 16.5014 16.0835 18.0481 15.7507 15.4667 15.3454 15.3239 14.9754 14.6444 19.5678
threshold=0.49327774345874792 0.49466769397258764 1.0000000180025095e-35 0.51784741878509533 0.47222462296485906 0.55003488063812267 0.51359614729881298 0.48294967412948614 0.31666667759418493 0.4824077188968659 0.4746785461902619 0.5587764084339143 0.54002326726913463 0.49862459301948553 0.48982284963130956 0.52979350090026867 1.0000000180025095e-35 0.49060817062854772 0.53628605604171764 0.81666666269302379 0.53215405344963085 0.48439849913120275 0.40967366099357611 0.51702103018760692 0.47148723900318151 0.48695634305477148 0.55880141258239757 0.54996243119239818 0.4897578656673432 0.61978089809417736
decision_type=2 2 2 2 2 2 2 2 2 2 2 2 2 2 2 2 2 2 2 2 2 2 2 2 2 2 2 2 2 2
left_child=2 5 4 6 16 8 10 24 -2 21 23 17 13 -11 -13 28 -1 -9 26 -20 27 -10 -23 -3 -6 -19 -12 -4 29 -5
right_child=1 3 20 15 7 -7 -8 11 9 12 18 14 -14 -15 -16 -17 -18 25 19 -21 -22 22 -24 -25 -26 -27 -28 -29 -30 -31
leaf_value=0.028082334106035459 0.012670397745385135 0.02184507743905657 -0.023338424244928449 0.018899942320628534 0.028714524305203649 -0.031257386476330785 -0.01227919212386425 -0.0078301441528362947 -0.041867826866439202 -0.017821520971428046 0.0040470916478907611 -0.0081914364525397017 0.012401622444390248 -0.0020366810979157417 0.041392624973620208 -0.0046074324591927783 -5.6439699840032272e-05 -0.0062041016386047256 -0.016538032648241503 -0.13589819428014391 0.014216649411313559 0.087244035350201241 -0.018070846788877919 -0.0784710475252135 0.0092550743762038236 0.0093771925749432748 -0.02961435276134837 0.020209562359982083 0.0063036232716987932 0.10274424834691805
leaf_weight=1093.8074635416269 485.11630329489708 584.18653127551079 645.20221397280693 920.56711114943027 683.58336867392063 633.96599841117859 2604.5813288539648 1618.9289207011461 336.21224223077297 1392.4515945911407 1905.5286036729813 117.53112396597862 504.98224137723446 1790.3847332149744 243.93847180902958 977.90128248929977 270.25622582435608 889.49531365931034 379.23881702125072 14.372449710965155 202.71720431745052 16.599805817008018 825.05484260618687 16.082500040531158 1014.799076423049 2184.1189033091068 145.57070781290531 89.978950291872025 1960.6226551383734 28.703090369701385
leaf_count=4523 1961 2401 2627 3802 2812 2560 10502 6545 1368 5629 7731 478 2055 7241 1004 3955 1116 3603 1529 58 837 67 3333 67 4174 8951 587 369 7996 119
internal_value=1.11012e-05 -0.00389845 0.00671335 0.000303481 0.00876523 -0.0105947 -0.00447942 0.00598917 -0.00814654 -0.010222 0.00219226 0.00225968 -0.00601967 -0.00894235 0.0252705 0.00725377 0.0225073 0.000487143 -0.00197332 -0.0208964 -0.0110434 -0.0233793 -0.0159937 0.0191574 0.0170873 0.00486801 0.00165807 -0.0180086 0.0112399 0.0214351
internal_weight=24576.5 15522.1 9054.36 9537.36 8116.46 5984.77 5649.56 6752.4 5350.8 4865.69 3044.98 5054.01 3687.82 3182.84 361.47 3887.79 1364.06 4692.54 2444.71 393.611 937.898 1177.87 841.655 600.269 1698.38 3073.61 2051.1 735.181 2909.89 949.27
internal_count=100000 62961 37039 38747 33206 24214 22875 27567 21654 19693 12373 20581 14925 12870 1482 15872 5639 19099 9905 1587 3833 4768 3400 2468 6986 12554 8318 2996 11917 3921
is_linear=0
shrinkage=0.1


Tree=18
num_leaves=31
num_cat=0
split_feature=29 20 83 74 47 74 47 56 38 20 2 38 75 11 47 83 4 65 19 28 37 2 86 38 54 83 46 13 2 23
split_gain=56.0982 37.2291 36.1333 31.1585 26.2758 25.9548 22.8852 21.4672 18.6828 18.4845 17.6212 17.1873 18.3905 16.9128 16.9018 16.6881 16.2875 15.7241 16.2827 15.8125 14.9178 14.6657 14.6273 14.5621 14.4952 14.1422 13.9351 13.7353 14.0219 18.2815
threshold=0.5014658272266389 0.52212226390838634 0.52889922261238109 0.48936429619789129 0.55114012956619274 0.51557213068008434 0.47551101446151739 0.53314509987831127 0.53764221072196972 0.53525426983833324 0.51426976919174205 0.51573488116264354 0.23611111193895343 0.5311948060989381 0.50483289361000072 0.55822402238845836 0.020341470837593082 0.49121457338333135 0.48331478238105779 0.47100840508937841 0.41588050127029424 0.51987203955650341 1.0000000180025095e-35 0.51674649119377147 2.9174053668975835 0.4746785461902619 0.43826219439506536 0.016432530246675018 0.49952264130115515 1.0000000180025095e-35
decision_type=2 2 2 2 2 2 2 2 2 2 2 2 2 2 2 2 2 2 2 2 2 2 2 2 2 2 2 2 2 2
left_child=2 4 3 11 5 7 -4 21 10 -8 -3 12 -1 17 -10 23 -6 19 -19 -5 -12 -2 26 -7 -16 -21 -20 -27 -29 -30
right_child=1 8 6 13 16 15 9 -9 14 -11 20 -13 -14 -15 24 -17 -18 18 22 25 -22 -23 -24 -25 -26 27 -28 28 29 -31
leaf_value=-0.038187890357734511 0.0062362084211463713 0.0030917180489474644 0.0026323937167811733 0.025853956117665524 0.02966799715963845 -0.0078532063713261657 -0.022709280276752657 -0.00579812309645343 0.042988775469710604 0.00059227051648038146 0.072392306956482147 0.016121119072572181 0.003242269996892113 0.0039283839490559126 0.0085718111541317667 -0.028601804583626291 -0.019604943082840318 0.0063258089738993314 -0.050349114638186421 0.013339010270776087 0.01520237450516676 0.019754483145227923 -0.046043483289887138 0.0057888211338893783 0.16121715000797349 -0.10795784464580803 -0.012593895923287059 -0.023303496513789407 -0.004401279291632725 0.060980181414325624
leaf_weight=116.32914651930332 2150.4559836089611 2128.9667409211397 626.18485935032368 196.05173808336258 73.043727681040764 1830.2423412799835 2029.050838842988 936.90945819020271 337.84783437848091 409.07257398962975 46.926730930805206 1192.1940217018127 1356.6661573946476 1329.4029817432165 333.99373136460781 255.0358447432518 822.62165623903275 366.7447644174099 102.28832811117172 325.24188758432865 1626.062831133604 1280.3431901037693 154.54037472605705 1366.8117676377296 6.3390184491872779 14.338513135910032 2207.6670233458281 406.09247310459614 480.62860953807831 46.943470627069473
leaf_count=473 8761 8666 2535 796 295 7391 8208 3805 1426 1654 196 4901 5519 5396 1375 1028 3323 1484 414 1327 6755 5300 625 5550 26 58 8933 1638 1951 191
internal_value=1.08973e-05 0.00444564 -0.00514068 -0.00171277 0.00063737 0.00249564 -0.0144201 0.00761747 0.0118541 -0.0187997 0.0091267 0.00719492 -2.96584e-05 -0.00592963 0.027144 -0.0039847 -0.0155866 -0.00897698 -0.013333 -0.000583253 0.0168065 0.0112811 -0.0162584 -0.00202094 0.011415 -0.004654 -0.0142658 -0.0108271 -0.0093354 0.00141638
internal_weight=24555 13195.6 11359.4 8295.13 8715.46 7819.8 3064.31 4367.71 4480.14 2438.12 3801.96 2665.19 1473 5629.94 678.181 3452.09 895.665 4300.54 2831.24 1469.3 1672.99 3430.8 2464.5 3197.05 340.333 1273.24 2309.96 948.003 933.665 527.572
internal_count=100000 53897 46103 33706 35453 31835 12397 17866 18444 9862 15617 10893 5992 22813 2827 13969 3618 17417 11456 5961 6951 14061 9972 12941 1401 5165 9347 3838 3780 2142
is_linear=0
shrinkage=0.1


Tree=19
num_leaves=31
num_cat=0
split_feature=11 65 20 23 68 11 2 74 14 29 29 29 74 47 65 38 83 2 11 38 47 37 83 18 11 28 37 56 47 29
split_gain=52.5859 50.6646 42.4685 44.698 36.9848 33.421 27.3861 23.3952 23.3714 21.7849 19.3376 18.7271 18.1393 17.6731 17.1467 16.7166 16.4931 15.6811 16.2347 15.2533 15.5773 15.5241 15.0928 16.2075 15.0238 14.8808 14.3766 14.2283 14.2248 13.9888
threshold=0.55334657430648815 0.47222462296485906 0.47695492208004003 1.0000000180025095e-35 1.0000000180025095e-35 0.47979497909545904 0.53447315096855175 0.48141932487487799 1.0000000180025095e-35 0.45743826031684881 0.53901124000549328 0.52968358993530285 0.60468205809593212 0.48998668789863592 0.5348951816558839 0.47843775153160101 0.46058076620101934 0.48392018675804144 0.51348137855529796 0.54420036077499401 0.53819066286087047 0.40778534114360815 0.4755272120237351 0.89587974548339855 0.46002848446369177 0.46737588942050939 0.40967366099357611 0.47283881902694708 0.49736686050891882 0.48711235821247106
decision_type=2 2 2 2 2 2 2 2 2 2 2 2 2 2 2 2 2 2 2 2 2 2 2 2 2 2 2 2 2 2
left_child=1 4 3 11 17 8 7 9 16 -7 12 24 14 -6 19 26 -4 18 28 20 21 -9 -19 25 -3 -24 -8 -2 -1 -29
right_child=27 2 5 -5 13 6 15 10 -10 -11 -12 -13 -14 -15 -16 -17 -18 22 -20 -21 -22 -23 23 -25 -26 -27 -28 29 -30 -31
leaf_value=0.01102284605259371 0.031546996907928268 -0.041751897767841717 0.0070695878434301404 0.010962157687843234 0.011393259743938204 -0.021486916976711724 0.089509138838675617 0.046852992529578273 0.0086436316656231596 0.011911367816874744 0.0094051678388075016 -0.0044555324961996334 -0.039356741843330253 -0.020629215037110814 -0.015404544955699363 0.016630809179781207 -0.015499026579066334 0.035792330056803962 0.019367152867676075 0.014123996882277884 -0.01960097347906984 -0.0025158592445553283 0.0427322918374776 0.031929697909597432 -0.018848359297869072 0.0059390833782167916 -0.0080125925675669403 -0.0026243764162719981 -0.025008646159223148 0.016281890954556909
leaf_weight=186.71411307156086 399.99433907866478 330.57373137772083 367.29061540961266 658.87417431175709 256.24370385706425 218.0310260206461 15.637596011161802 65.003527536988258 605.98076668381691 1873.4802315831184 963.32634845376015 818.06640706956387 157.71119156479836 526.39422762393951 1224.2409905791283 1646.4031919538975 2735.3867988586426 416.19040846824646 318.13930466771126 516.78026615083218 559.12351241707802 3162.5365434139967 120.83673299849033 412.73719626665115 2143.355178207159 1217.0993844717741 453.69845615327358 551.3180003464222 265.18184095621109 1348.7947798073292
leaf_count=759 1654 1342 1492 2669 1060 887 64 264 2454 7688 3935 3309 637 2148 4945 6810 11082 1744 1299 2110 2259 12836 496 1696 8679 4998 1844 2240 1071 5529
internal_value=1.07146e-05 -0.00147829 -0.00361778 -0.0128131 0.00917189 -0.0011234 0.00167645 -0.000794713 -0.0093191 0.00842974 -0.00369648 -0.0175716 -0.00591641 -0.0101447 -0.00496232 0.0118849 -0.0128274 0.0143195 0.0020619 -0.00199172 -0.00419109 -0.00152156 0.0186754 0.0146062 -0.0219088 0.00926209 -0.00476331 0.0144048 -0.0101212 0.0107962
internal_weight=24535.1 22235 18515.5 3950.87 3719.54 14564.6 10856 8740.23 3708.66 2091.51 6648.72 3292 5685.4 782.638 5527.68 2115.74 3102.68 2936.9 770.035 4303.44 3786.66 3227.54 2166.86 1750.67 2473.93 1337.94 469.336 2300.11 451.896 1900.11
internal_count=100000 90577 75306 15999 15271 59307 44279 35561 15028 8575 26986 13330 23051 3208 22414 8718 12574 12063 3129 17469 15359 13100 8934 7190 10021 5494 1908 9423 1830 7769
is_linear=0
shrinkage=0.1


Tree=20
num_leaves=31
num_cat=0
split_feature=56 29 20 59 83 47 47 74 10 50 83 86 2 11 38 45 11 84 38 11 65 56 2 10 64 2 75 47 19 65
split_gain=50.6041 35.8085 29.8546 26.866 27.0906 27.4791 26.1085 24.2173 23.6811 21.1548 19.6235 19.4594 19.0884 18.6632 17.5812 16.3157 16.1085 16.6086 16.025 16.1297 15.8946 17.9627 17.198 15.3751 15.3117 15.2206 14.8159 14.4379 14.1163 13.9169
threshold=0.49688993394374853 0.53508403897285473 0.47695492208004003 1.0000000180025095e-35 0.47214329242706304 0.47827890515327459 0.4965235441923142 0.47136215865612036 0.43534001708030706 1.0000000180025095e-35 0.57608804106712352 1.0000000180025095e-35 0.50598722696304332 0.55246180295944225 0.51338502764701854 1.8688347935676577 0.51956370472908031 0.61250001192092907 0.51674649119377147 0.53871038556098949 0.48466880619525915 0.60606333613395702 0.54531919956207286 0.41763564944267279 0.40212766826152807 0.56353840231895458 0.38750000298023229 0.55757638812065136 0.46770833432674414 0.46533058583736425
decision_type=2 2 2 2 2 2 2 2 2 2 2 2 2 2 2 2 2 2 2 2 2 2 2 2 2 2 2 2 2 2
left_child=3 2 8 4 11 -6 9 26 -2 10 20 -1 13 15 25 -8 17 -3 19 -9 24 22 -22 -5 -4 28 -7 -14 -10 -20
right_child=1 16 6 23 5 7 12 18 14 -11 -12 -13 27 -15 -16 -17 -18 -19 29 -21 21 -23 -24 -25 -26 -27 -28 -29 -30 -31
leaf_value=0.025331471266681855 0.023667946901588282 -0.0023426877471466549 -0.055585061921103324 0.047229101970457127 0.016225832023460375 -0.011652453524992924 -0.019049892508125221 -0.0093867513595217583 -0.005422064882641504 -0.019562852415470365 -0.033176905943006346 -0.0030732907700049949 0.0008705486080481103 0.011494492979127701 -0.0087327705491905272 0.007191026291918901 0.016721651489297384 0.03257605828513329 0.024813243286717728 0.012474365288149679 0.0014120980002504376 -0.042491929902490767 0.028652821435368948 -0.013190736619975699 0.02116222048040825 0.014154990051863731 0.0219465863824829 -0.020249554155279178 -0.033559722795666158 0.001912877551021204
leaf_weight=1185.7146789580584 145.21290631592274 1546.2844272106886 26.838849812746048 44.156599774956703 1635.9826198071241 157.84604550898075 2255.0388082414865 2373.7405503690243 216.28506663441658 373.01258505880833 126.01709055900574 302.7694187015295 2430.95167337358 267.35796003043652 1129.1193163990974 264.76451559364796 1002.8427653610706 149.36968156695366 311.27996408939362 393.44663774967194 2036.3326480537653 84.282700598239899 261.52648034691811 911.8603403121233 827.17835995554924 89.223330080509186 778.70142285525799 373.395168364048 1015.1274578124285 1799.429937183857
leaf_count=4930 588 6285 111 181 6755 650 9123 9632 876 1520 508 1253 9872 1080 4571 1072 4120 607 1289 1604 8257 342 1078 3732 3410 360 3214 1510 4123 7347
internal_value=1.05818e-05 -0.00372713 -0.00608169 0.00553321 0.00723728 0.00477663 -0.00344209 0.00155523 -0.0155688 0.00303135 0.00553804 0.0195537 -0.00776642 -0.0136272 -0.0178946 -0.0162927 0.00667505 0.000733295 -0.00127263 -0.00627847 0.00704561 0.00284938 0.00451245 -0.0104001 0.0187503 -0.0257279 0.0162838 -0.00194157 -0.0286176 0.00529014
internal_weight=24515.1 14620.2 11921.7 9894.93 8938.91 7450.43 9326.7 5814.44 2594.97 3735.19 3362.18 1488.48 5591.51 2787.16 2449.76 2519.8 2698.5 1695.65 4877.9 2767.19 3236.16 2382.14 2297.86 956.017 854.017 1320.64 936.547 2804.35 1231.41 2110.71
internal_count=100000 59413 48401 40587 36674 30491 37883 23736 10518 15226 13706 6183 22657 11275 9930 10195 11012 6892 19872 11236 13198 9677 9335 3913 3521 5359 3864 11382 4999 8636
is_linear=0
shrinkage=0.1


Tree=21
num_leaves=31
num_cat=0
split_feature=83 65 56 10 38 20 47 56 83 74 47 28 86 29 73 59 2 11 56 70 65 38 23 74 72 20 74 29 74 73
split_gain=45.0935 39.1406 28.2148 27.7511 26.418 25.827 20.7744 20.431 20.023 18.1215 19.4961 17.4849 17.3903 21.676 17.085 16.5123 16.2894 16.5722 16.0999 16.4282 15.7576 14.9866 17.8018 14.8534 17.3877 14.0489 13.8475 13.683 13.4872 16.7013
threshold=0.53155812621116649 0.49970306456089025 0.46987079083919531 0.43364779651165014 0.51784741878509533 0.49689042568206793 0.46037328243255621 0.48364278674125677 0.47214329242706304 0.55880141258239757 0.53819066286087047 0.48074074089527136 1.0000000180025095e-35 0.52993190288543712 0.44562648236751562 1.0000000180025095e-35 0.52597156167030346 0.50451427698135387 0.48870682716369634 1.1250000000000002 0.43880130350589758 0.48753169178962713 1.0000000180025095e-35 0.50815421342849743 1.4978661537170412 0.6057320535182954 0.5038704276084901 0.45430250465869909 0.53735262155532848 0.56711712479591381
decision_type=2 2 2 2 2 2 2 2 2 2 2 2 2 2 2 2 2 2 2 2 2 2 2 2 2 2 2 2 2 2
left_child=1 3 14 -1 8 21 -7 -6 12 10 16 -10 13 -5 -3 -16 17 18 19 -2 -19 -4 27 24 -9 -25 -8 -23 -13 -30
right_child=9 2 5 4 7 6 26 23 11 -11 -12 28 -14 -15 15 -17 -18 20 -20 -21 -22 22 -24 25 -26 -27 -28 -29 29 -31
leaf_value=0.032618520484192337 0.0056677515953889278 -0.028939589363929347 -0.02056389584356878 0.010737153282163292 0.026338981481296021 0.017643854697474044 0.003893944694399866 0.021503235393485597 0.016995188699903983 -0.027710625987928918 -0.020557449633685776 -0.0018794125823928922 -0.012175694297494237 0.048049812084639508 0.018823105545094199 -0.0069330451380808893 0.005534879094656461 0.039099874291285704 -0.022126965950592863 -0.066458915276379357 -0.0030520643024768337 -0.033007175207135246 0.019698561430591122 -0.0010097577254325621 -0.010091402235720463 0.072287323005931367 -0.007135734676505784 -0.0065495813232594978 -0.025150028194926451 0.041850481512934273
leaf_weight=415.65421164035797 427.35136570036411 102.43676880002022 1048.4194862097502 621.13968010246754 849.61858250200748 624.38035072386265 2202.6336595118046 1021.7404878735542 422.97381123900414 422.10782368481159 800.40188218653202 2763.6358624696732 209.20261846482754 207.77180129289627 1159.2856527268887 316.96863125264645 1357.1113454550505 94.097925126552582 1033.5403062701225 34.098682940006256 1542.037818685174 215.86225295066833 237.82803224027157 1203.6296804845333 209.98504975438118 26.730512410402298 2355.5917858034372 2069.1072275191545 459.58728356659412 40.481395438313484
leaf_count=1709 1734 418 4257 2568 3567 2556 8991 4272 1725 1708 3241 11291 862 878 4738 1289 5538 385 4190 138 6252 874 961 4927 879 111 9545 8372 1860 164
internal_value=1.03115e-05 0.00237601 -0.00175249 0.00742299 0.00611985 -0.00397163 0.000537284 0.0129681 0.00131975 -0.00777131 -0.00617987 -0.0021347 0.0135876 0.0200898 0.0105526 0.013293 -0.00361587 -0.00758204 -0.0151928 0.000337978 -0.000627809 -0.010515 -0.00633896 0.00835413 0.016117 0.000582677 -0.00180595 -0.00904904 -0.00461392 -0.0197262
internal_weight=24495.4 18784.7 10332.5 8452.15 8036.5 8753.82 5182.61 3311.7 4724.79 5710.75 5288.64 3686.68 1038.11 828.911 1578.69 1476.25 4488.24 3131.13 1494.99 461.45 1636.14 3571.22 2522.8 2462.09 1231.73 1230.36 4558.23 2284.97 3263.7 500.069
internal_count=100000 76814 42001 34813 33104 35556 21092 13756 19348 23186 21478 15040 4308 3446 6445 6027 18237 12699 6062 1872 6637 14464 10207 10189 5151 5038 18536 9246 13315 2024
is_linear=0
shrinkage=0.1


Tree=22
num_leaves=31
num_cat=0
split_feature=2 5 74 65 29 32 29 38 83 56 11 64 56 55 20 86 64 38 82 2 11 76 83 55 41 74 61 83 10 28
split_gain=42.4893 43.8053 37.124 27.2425 24.2487 23.6706 21.8608 24.1568 22.2324 19.3118 19.2722 18.8833 17.8709 18.0701 16.7502 16.5044 15.4231 14.6622 14.548 13.943 13.3345 14.6954 13.3027 13.5829 13.2142 13.1232 12.8734 13.2341 12.9498 12.7593
threshold=0.49515245854854589 1.0000000180025095e-35 0.52866098284721386 0.53455963730812084 0.47431962192058569 1.0000000180025095e-35 0.53901124000549328 0.52884352207183849 0.52920481562614452 0.52730238437652599 0.51333457231521618 0.503086417913437 0.48364278674125677 0.48528139293193823 0.51762017607688915 0.89587974548339855 0.53158244490623485 0.53376948833465587 0.45889639854431158 0.48892505466938024 0.47752936184406286 0.020307446829974655 0.49717690050601965 0.48749218881130224 1.0000000180025095e-35 0.3857180923223496 1.8750000000000002 0.49618823826313024 0.59611794352531444 0.4301948100328446
decision_type=2 2 2 2 2 2 2 2 2 2 2 2 2 2 2 2 2 2 2 2 2 2 2 2 2 2 2 2 2 2
left_child=1 6 3 4 5 20 7 8 15 17 24 -5 13 -4 -3 29 19 22 -16 -9 -2 -22 -6 -24 -11 -10 27 -21 -29 -1
right_child=2 14 12 11 9 -7 -8 16 25 10 -12 -13 -14 -15 18 -17 -18 -19 -20 26 21 -23 23 -25 -26 -27 -28 28 -30 -31
leaf_value=0.017929864301576257 -0.026544561944585696 0.0036274999497796947 -0.020965130693542708 -0.0086275626431983263 0.019018966582473623 0.023415418803178923 0.004758986642036239 -0.0076549925495288445 0.069387131335397506 -0.0088307690521669535 0.013733001882624255 0.014942292035957695 -0.0087325278651144023 0.012715529140516147 -0.022384926728972646 -0.046544434067420579 0.026935576607183761 0.025493404048475984 0.03623397423455188 0.043621527944401613 -0.04354080856747413 0.00088223128726133389 -0.013217098971512379 0.010079056288107568 0.030473718796463097 -0.024650494509835121 -0.071277796888549433 -0.00011274431636909239 0.14378012257245118 -0.0093165581920428512
leaf_weight=180.34593370556831 289.68319666385651 597.25267739593983 195.85190045833588 1667.3820878714323 1619.7962076961994 302.45981246232986 1244.1265965104103 1379.8400382250547 14.996441483497618 1025.6602031290531 964.98352137207985 426.94824463129044 3001.3619462102652 853.39761210978031 47.71467337012291 114.62434165179729 191.11360669136047 1026.3945596367121 375.70914262533188 129.13032804429531 80.411091908812523 1007.4263275116682 285.58677311241627 2024.388536259532 93.320491328835487 1423.8382444381714 16.945476993918419 229.6947865486145 6.4294386059045783 3658.3508512675762
leaf_count=731 1174 2420 799 6785 6773 1238 5069 5603 61 4179 3970 1740 12187 3485 194 465 775 4320 1527 530 330 4130 1174 8324 380 5775 69 930 26 14837
internal_value=1.0219e-05 -0.00517176 0.00336032 0.00641878 0.00887848 -0.00191649 -0.00749911 -0.00957535 -0.0130268 0.0114545 0.00337749 -0.00382263 -0.00480523 0.00642873 0.0144139 -0.00915301 -4.67733e-05 0.0148507 0.0296283 -0.00297332 -0.00747858 -0.00240144 0.012071 0.00719891 -0.00555286 -0.0236704 0.0139287 0.0178818 0.00380532 -0.00803649
internal_weight=24475.2 9610.11 14865.1 10814.4 8720.11 1679.98 8589.44 7345.31 5392.16 7040.13 2083.96 2094.33 4050.61 1049.25 1020.68 3953.32 1953.15 4956.17 423.424 1762.04 1377.52 1087.84 3929.77 2309.98 1118.98 1438.83 382.2 365.255 236.124 3838.7
internal_count=100000 39012 60988 44517 35992 6872 34871 29802 21869 29120 8529 8525 16471 4284 4141 16033 7933 20591 1721 7158 5634 4460 16271 9498 4559 5836 1555 1486 956 15568
is_linear=0
shrinkage=0.1


Tree=23
num_leaves=31
num_cat=0
split_feature=11 20 14 56 2 65 10 74 65 47 1 46 82 83 28 38 64 1 38 34 2 29 37 31 29 2 83 82 59 29
split_gain=39.2054 32.4645 24.4561 24.4288 18.0885 18.7961 17.789 17.4449 20.8669 17.4122 20.0228 16.7947 15.9809 16.6006 15.1713 14.6951 14.3379 14.5809 14.1897 16.1121 14.8727 14.1016 13.8479 13.2169 13.0789 14.9134 12.9302 17.138 12.9259 13.618
threshold=0.48054002225399023 0.52342408895492565 1.0000000180025095e-35 0.49832929670810705 0.54759320616722118 0.5134265422821046 0.44913792610168463 0.4923472553491593 0.54700505733490001 0.50082188844680797 0.55217784643173229 0.4236596822738648 0.64400920271873485 0.5563531517982484 0.45889639854431158 0.4892007857561112 0.64400920271873485 0.46470099687576299 0.51918134093284618 7.5833332538604745 0.55637678503990184 0.50743725895881664 0.45049019157886511 0.017502188682556156 0.48220995068550115 0.49733649194240576 0.46943445503711706 0.46966911852359777 1.0000000180025095e-35 0.53673097491264354
decision_type=2 2 2 2 2 2 2 2 2 2 2 2 2 2 2 2 2 2 2 2 2 2 2 2 2 2 2 2 2 2
left_child=2 3 9 7 5 14 -5 15 28 10 11 -1 13 16 -3 -2 17 -8 20 -20 -19 -7 -11 -4 -24 26 27 -26 29 -9
right_child=1 4 23 6 -6 21 12 8 -10 22 -12 -13 -14 -15 -16 -17 -18 18 19 -21 -22 -23 24 -25 25 -27 -28 -29 -30 -31
leaf_value=-0.042682135105981997 -0.00066363214498983843 0.035142947742650379 0.067011606969957602 0.01772135936266736 0.023788832966789214 -0.0073615147016200498 0.010923593331580765 0.0018749320669159777 -0.021330963779507078 0.015548322657602011 -0.042643558395011778 0.00075904333345283462 0.064354833575083925 -0.022712762248976105 0.0095343519454263413 0.018096901806848986 -0.07675136472580453 -0.011724068948652484 1.4795784011270066e-05 0.13719592185345272 0.011994730637466105 0.0075084635127930016 -0.030473283607848241 0.0052143737973280114 -0.063865291630616924 -0.005593632145896265 -0.029068098821597384 0.024572144009419369 -0.017886016762525579 0.020574197621381157
leaf_weight=93.204929172992706 615.72583262622356 253.11063966155052 36.004564642906189 342.35988032817841 661.96848011016846 1286.6718595921993 578.58550524711609 2371.2066103816032 399.37686207890511 134.89874576032162 123.57263466715813 1970.6715152859688 32.465262442827225 544.87157109379768 2689.6212884634733 1297.0597702562809 27.354859665036201 3161.7546571046114 2179.4426583945751 8.5955563932657224 288.48755910992622 1264.498527571559 581.02962693572044 893.08848124742508 27.962834373116493 1075.2177066802979 680.58282013237476 101.26764848828316 271.69379045069218 465.99950125813484
leaf_count=379 2524 1050 146 1392 2778 5213 2351 9665 1614 549 503 8021 132 2203 11173 5422 111 12819 8890 35 1174 5179 2368 3629 113 4366 2766 410 1105 1920
internal_value=1.0089e-05 0.00222149 -0.00723845 -0.000689415 0.00817251 0.00629087 -0.004522 0.00437533 0.000186646 -0.0101193 -0.00354383 -0.00120277 -0.00563835 -0.00597305 0.011737 0.0120579 -0.00451234 -0.00419448 -0.00574586 0.000553702 -0.00974085 8.85368e-06 -0.0156494 0.00760916 -0.017356 -0.0133128 -0.0235619 0.00543609 0.00295085 0.00494621
internal_weight=24458.4 18740.9 5717.5 12585 6155.87 5493.9 7163.92 5421.06 3508.28 4788.41 2187.45 2063.88 6821.56 6789.09 2942.73 1912.79 6244.22 6216.87 5638.28 2188.04 3450.24 2551.17 2600.96 929.093 2466.06 1885.03 809.813 129.23 3108.9 2837.21
internal_count=100000 76750 23250 51357 25393 22615 29107 22250 14304 19475 8903 8400 27715 27583 12223 7946 25380 25269 22918 8925 13993 10392 10572 3775 10023 7655 3289 523 12690 11585
is_linear=0
shrinkage=0.1


Tree=24
num_leaves=31
num_cat=0
split_feature=47 38 74 83 20 56 40 23 20 73 12 19 74 50 20 65 85 38 83 11 83 43 67 2 29 63 11 73 41 29
split_gain=36.5987 26.2617 23.1199 22.978 22.3472 17.303 19.4589 21.2618 17.2953 16.7169 20.5228 15.5686 15.096 14.6076 14.7048 14.5913 14.2667 13.7448 14.2483 13.4755 13.4644 13.3173 16.3682 13.2474 13.009 12.9916 12.9216 12.6537 12.4475 12.3377
threshold=0.51070010662078869 0.4923721998929978 0.47947429120540624 0.53155812621116649 0.52783551812171947 0.46987079083919531 1.1056437492370608 1.0000000180025095e-35 0.4827472865581513 0.48610039055347448 0.81666666269302379 0.42163743078708654 0.57403245568275463 1.0000000180025095e-35 0.46073809266090399 0.47222462296485906 0.018638868816196922 0.47329331934452062 0.53596779704093944 0.55246180295944225 0.6036452353000642 1.8750000000000002 0.028473846614360813 0.47610478103160864 0.47351096570491796 2.6735538244247441 0.48296797275543218 0.45889639854431158 1.0000000180025095e-35 0.53901124000549328
decision_type=2 2 2 2 2 2 2 2 2 2 2 2 2 2 2 2 2 2 2 2 2 2 2 2 2 2 2 2 2 2
left_child=1 24 9 4 5 -3 16 13 -4 10 -2 -10 17 14 -8 -11 -7 28 23 -20 25 22 -5 -19 27 -17 -26 -1 -13 -18
right_child=2 3 8 21 -6 6 7 -9 11 15 -12 12 -14 -15 -16 20 29 18 19 -21 -22 -23 -24 -25 26 -27 -28 -29 -30 -31
leaf_value=-0.051630450765223629 -0.0069656621751232328 0.021011370705595295 -0.013755284339800051 0.02038959173029703 0.019857596341298286 0.040791798332868917 -0.011535949530127314 0.045137557819497319 0.022750557210015985 0.026315958038821231 -0.093646490175891883 -0.018529216822211682 -0.0240535885463974 -0.02179466963208301 0.011100488618779413 0.0044447863514169598 -0.016816708582657047 -0.0095202660664452394 -0.016914917567336017 0.025377193046491137 -0.053248385865827023 -0.053665693134614924 -0.0052486775136008825 0.0038845383188454903 -0.010155331120859189 0.064692944663448493 0.0036412598939688096 -0.0097012146242443104 0.00797110542665601 0.015564747329945144
leaf_weight=80.016691148281097 517.21903100609779 684.8797395825386 2326.8411041945219 297.90693475306034 1732.5959632396698 54.909496709704399 333.53137999773026 145.83255977928638 214.06242428719997 363.27336142957211 28.83728601038456 922.41231109201908 378.20375618338585 177.48077946901321 2055.8109613955021 1776.9550548791885 749.28987324237823 938.78655338287354 798.82941555976868 83.185338020324707 39.65071564912796 49.39662866294384 1517.2668533176184 3434.0030620992184 904.36621898412704 36.526871562004089 2722.2937137633562 716.20551307499409 219.40898711979389 139.58315835893154
leaf_count=325 2112 2864 9461 1218 7282 227 1359 598 870 1503 118 3742 1533 728 8477 7261 3082 3799 3238 337 161 202 6192 13994 3665 149 11122 2909 890 582
internal_value=9.59829e-06 0.0038348 -0.00390528 0.00727522 0.0102561 0.00642418 0.00369188 0.00799486 -0.00628777 0.0041291 -0.0115433 -0.00380159 -0.00464055 0.00588462 0.00794064 0.00799031 -0.00867589 -0.00349274 -0.00133194 -0.0129262 0.00439789 -0.00243506 -0.00104092 0.00100668 -0.00234031 0.0056583 0.000200857 -0.0139149 -0.013437 -0.0117317
internal_weight=24439.6 12361.4 12078.2 7938.48 6073.91 4341.32 3656.44 2712.66 9315.73 2762.46 546.056 6988.89 6774.83 2566.82 2389.34 2216.41 943.783 6396.63 5254.8 882.015 1853.13 1864.57 1815.17 4372.79 4422.88 1813.48 3626.66 796.222 1141.82 888.873
internal_count=100000 50832 49168 32811 25199 17917 15053 11162 37864 11304 2230 28403 27533 10564 9836 9074 3891 26000 21368 3575 7571 7612 7410 17793 18021 7410 14787 3234 4632 3664
is_linear=0
shrinkage=0.1


Tree=25
num_leaves=31
num_cat=0
split_feature=11 65 68 83 2 38 38 74 86 83 28 29 20 47 65 47 47 2 11 74 11 16 67 74 29 84 76 12 11 10
split_gain=35.3295 31.8481 30.0608 25.1345 26.6148 20.6506 17.0883 18.3532 17.0434 19.6267 17.4111 14.8046 14.5359 15.194 13.9162 13.8251 13.2877 12.8918 12.723 12.6988 12.6838 12.6341 12.2053 12.1868 12.3046 14.7558 14.1217 12.0843 15.8147 11.9941
threshold=0.55334657430648815 0.47222462296485906 1.0000000180025095e-35 0.50325036048889171 0.53666865825653087 0.52766239643096935 0.57203447818756115 0.5895947813987733 1.0000000180025095e-35 0.45178316533565527 0.45889639854431158 0.53768384456634533 0.52292996644973766 0.53819066286087047 0.5889510214328767 0.46828407049179083 0.48880328238010412 0.49241785705089575 0.51366513967514049 0.56597283482551586 0.51279893517494213 10.625000000000002 0.014900015201419594 0.53153041005134594 0.4766457080841065 0.15476191043853763 0.020307446829974655 0.35416667163372045 0.44346822798252111 0.43534001708030706
decision_type=2 2 2 2 2 2 2 2 2 2 2 2 2 2 2 2 2 2 2 2 2 2 2 2 2 2 2 2 2 2
left_child=1 2 -1 4 6 12 7 8 9 11 -11 14 13 17 -3 -12 -4 -5 20 -7 -15 27 -14 24 26 -26 -19 -17 -29 -9
right_child=-2 3 16 5 -6 19 -8 29 -10 10 15 -13 22 18 -16 21 -18 23 -20 -21 -22 -23 -24 -25 25 -27 -28 28 -30 -31
leaf_value=0.011925259611918934 0.011845851381149148 0.010980747408492834 0.0098671074918593484 -0.017598458429192033 0.013798408883870215 0.0026636264071966532 0.021191999874702022 0.061578494844567268 -0.018601084082133866 0.016333334518364905 0.0084905009768330725 0.044591539691641348 0.10456595280909864 -0.033511544547060866 -0.0606908389131047 0.011360079914804996 -0.018682995748489313 -0.083226145602441959 -0.0093392102959439505 -0.026214075548389087 -0.12709920863998739 0.13506346781090203 -0.0032935317356164173 -0.018462644851497727 -0.051374955969236726 0.0039267193607000267 -0.012130379822098206 -0.033023601644688545 -0.0064900065259644859 -0.03822210401566805
leaf_weight=2915.425823032856 2285.7121949344873 726.35169379413128 232.14608454704285 1449.3341476917267 1369.0415734350681 2581.744468331337 320.35753548145294 12.849747791886328 538.95941607654095 456.63821613788605 742.56399847567081 132.1474474966526 10.53921854496002 414.05734287202358 28.140576153993607 346.03452627360821 547.44842593371868 30.149746149778366 278.56899003684521 161.8225644826889 15.006327345967291 6.3109028637409201 2312.0313153117895 582.44438497722149 49.866330057382584 1487.3619911521673 380.90330454707146 239.67984986305237 3577.4434165209532 191.57499900460243
leaf_count=12063 9423 2978 968 5888 5683 10541 1321 52 2203 1865 3048 551 43 1698 114 1410 2240 122 1128 655 61 26 9412 2356 203 6051 1546 974 14600 777
internal_value=9.43951e-06 -0.00121271 0.00726108 -0.00291052 0.00100111 -0.00639474 -0.00139265 -0.00242644 -0.00153817 -6.80283e-05 -0.00234438 0.0137155 -0.00927326 -0.0124785 0.00830759 -0.00408072 -0.0101814 -0.0100779 -0.0259804 0.000960346 -0.0367847 -0.0063196 -0.00280409 -0.00577093 -0.0019767 0.00213278 -0.0173451 -0.00653392 -0.00815607 -0.0319488
internal_weight=24422.7 22136.9 3695.02 18441.9 8688.09 9753.83 7319.05 6998.69 6794.27 6255.31 5368.67 886.64 7010.26 4687.69 754.492 4912.03 779.595 3980.06 707.633 2743.57 429.064 4169.47 2322.57 2530.73 1948.28 1537.23 411.053 4163.16 3817.12 204.425
internal_count=100000 90577 15271 75306 35602 39704 29919 28598 27769 25566 21923 3643 28508 19053 3092 20058 3208 16166 2887 11196 1759 17010 9455 10278 7922 6254 1668 16984 15574 829
is_linear=0
shrinkage=0.1


Tree=26
num_leaves=31
num_cat=0
split_feature=56 74 83 11 12 11 29 28 20 47 49 84 6 11 83 22 29 38 1 29 32 46 74 83 52 67 68 30 19 27
split_gain=34.1714 32.1284 23.5266 20.7103 18.2213 18.1671 18.0877 17.9589 16.975 16.8616 15.1694 14.4593 14.6411 13.8122 18.4964 13.6493 13.53 14.9182 13.3412 12.9005 18.1343 13.0869 12.5102 14.851 12.3117 12.2295 12.001 11.5649 11.5433 11.4791
threshold=0.53354430198669445 0.49660514295101171 0.47134360671043402 0.53408619761466991 0.38750000298023229 0.46374975144863134 0.51925256848335277 0.47100840508937841 0.4805442094802857 0.54747828841209423 0.021588205359876159 0.21111111342906955 2.3502402305603032 0.50261700153350841 0.55751311779022228 0.018070691265165809 0.52767980098724376 0.4775842428207398 0.3514705896377564 0.46143484115600591 1.0000000180025095e-35 0.58434957265853893 0.4735455214977265 0.50651279091835033 5.8750000000000009 0.017160933464765552 2.1383330821990971 0.47222222387790685 0.52440476417541515 1.7005987167358401
decision_type=2 2 2 2 2 2 2 2 2 2 2 2 2 2 2 2 2 2 2 2 2 2 2 2 2 2 2 2 2 2
left_child=1 3 10 19 24 25 7 -7 -6 13 15 -5 -13 14 -10 -3 22 -18 -8 20 -1 -22 -15 -24 27 -4 -20 -2 -21 -17
right_child=4 2 5 11 8 6 18 -9 9 -11 -12 12 -14 16 -16 29 17 -19 26 28 21 -23 23 -25 -26 -27 -28 -29 -30 -31
leaf_value=-0.016569808007110564 0.04183417612551759 0.089305364637843568 0.040615024191090178 -0.02327758196323846 -0.019863137045325618 0.010426931508791122 -0.11055683458729787 -0.0075299485304156106 -0.0070838904494286469 -0.025038828004668008 0.011771330150803748 0.021070102230899668 -0.040024432972910785 0.018493075093062378 -0.04814761905304573 -0.014664383449589972 -0.016759826192573674 0.026173801463211372 0.0049833681121187502 0.0077797216258799432 0.013401160617262273 0.14721491438318934 0.0047610155983476149 -0.019535823645337475 -0.13571208212148175 -0.01556392359145504 -0.099522628466132371 0.0046371155744462924 -0.0070427713152520933 -0.085600817322960404
leaf_weight=581.15564961731434 107.20395773649216 10.768181815743445 39.899599879980087 83.695270001888275 1116.3128096610308 636.44656679034233 10.087127685546873 4459.067431718111 1359.6905612945557 402.35008957982063 1696.9846810847521 1460.9837592691183 40.307694867253304 226.11949673295021 119.31626684963703 130.69228300452232 102.91717860102654 378.85789752006531 3219.9964179694653 4659.9958122819662 188.71490705013275 7.6030968725681296 497.01940587162971 509.40564043819904 5.6443215608596793 1343.9880061745644 11.026068449020384 379.36950215697289 592.16090355813503 27.6360734552145
leaf_count=2373 437 45 162 351 4549 2587 41 18116 5529 1634 6995 6109 168 928 486 539 418 1572 13172 19247 773 31 2034 2063 23 5464 45 1545 2451 113
internal_value=8.84151e-06 0.0019569 -0.0013592 0.00700275 -0.00717861 -0.00333354 -0.00157216 -0.00528707 -0.00909106 -0.00574676 0.00892524 0.0171746 0.0194298 -0.00331601 -0.0103966 -0.0196369 0.0027927 0.0170023 0.00426826 0.0043289 -0.00769331 0.0185836 -0.00276152 -0.00753692 0.0111292 -0.0139442 0.00462673 0.0128325 0.00610854 -0.0270463
internal_weight=24405.4 19201.2 11586.6 7614.62 5204.21 9720.51 8336.62 5095.51 4711.99 3595.68 1866.08 1584.99 1501.29 3193.33 1479.01 169.097 1714.32 481.775 3241.11 6029.63 777.474 196.318 1232.54 1006.43 492.218 1383.89 3231.02 486.573 5252.16 158.328
internal_count=100000 78782 47279 31503 21218 39587 33961 20703 19213 14664 7692 6628 6277 13030 6015 697 7015 1990 13258 24875 3177 804 5025 4097 2005 5626 13217 1982 21698 652
is_linear=0
shrinkage=0.1


Tree=27
num_leaves=31
num_cat=0
split_feature=65 20 56 82 47 49 10 2 29 32 83 12 2 11 74 38 52 29 38 15 58 65 85 11 66 74 70 47 68 27
split_gain=30.0737 24.7 18.9152 26.9797 17.8498 17.3177 16.6972 16.2065 18.6573 19.0177 15.8499 15.3771 16.153 15.0843 14.5672 15.7376 14.4874 14.1293 13.7408 13.4 15.6898 13.2903 13.1854 12.6533 12.1478 12.8324 12.0996 11.5981 13.7645 10.9966
