tree
version=v4
num_class=1
num_tree_per_iteration=1
label_index=0
max_feature_idx=390
objective=binary sigmoid:1
feature_names=r_hero_1 r_hero_2 r_hero_3 r_hero_4 r_hero_5 r_hero_6 r_hero_7 r_hero_8 r_hero_9 r_hero_10 r_hero_11 r_hero_12 r_hero_13 r_hero_14 r_hero_15 r_hero_16 r_hero_17 r_hero_18 r_hero_19 r_hero_20 r_hero_21 r_hero_22 r_hero_23 r_hero_24 r_hero_25 r_hero_26 r_hero_27 r_hero_28 r_hero_29 r_hero_30 r_hero_31 r_hero_32 r_hero_33 r_hero_34 r_hero_35 r_hero_36 r_hero_37 r_hero_38 r_hero_39 r_hero_40 r_hero_41 r_hero_42 r_hero_43 r_hero_44 r_hero_45 r_hero_46 r_hero_47 r_hero_48 r_hero_49 r_hero_50 r_hero_51 r_hero_52 r_hero_53 r_hero_54 r_hero_55 r_hero_56 r_hero_57 r_hero_58 r_hero_59 r_hero_60 r_hero_61 r_hero_62 r_hero_63 r_hero_64 r_hero_65 r_hero_66 r_hero_67 r_hero_68 r_hero_69 r_hero_70 r_hero_71 r_hero_72 r_hero_73 r_hero_74 r_hero_75 r_hero_76 r_hero_77 r_hero_78 r_hero_79 r_hero_80 r_hero_81 r_hero_82 r_hero_83 r_hero_84 r_hero_85 r_hero_86 r_hero_87 r_hero_88 r_hero_89 r_hero_90 r_hero_91 r_hero_92 r_hero_93 r_hero_94 r_hero_95 r_hero_96 r_hero_97 r_hero_98 r_hero_99 r_hero_100 r_hero_101 r_hero_102 r_hero_103 r_hero_104 r_hero_105 r_hero_106 r_hero_107 r_hero_108 r_hero_109 r_hero_110 r_hero_111 r_hero_112 r_hero_113 r_hero_114 r_hero_115 r_hero_116 r_hero_117 r_hero_118 r_hero_119 r_hero_120 r_hero_121 r_hero_122 r_hero_123 r_hero_124 r_hero_125 r_hero_126 r_hero_127 r_hero_128 r_hero_129 r_hero_130 r_hero_131 r_hero_132 r_hero_133 r_hero_134 r_hero_135 r_hero_136 r_hero_137 r_hero_138 r_hero_139 r_hero_140 r_hero_141 r_hero_142 r_hero_143 r_hero_144 r_hero_145 r_hero_146 r_hero_147 r_hero_148 r_hero_149 r_hero_150 d_hero_1 d_hero_2 d_hero_3 d_hero_4 d_hero_5 d_hero_6 d_hero_7 d_hero_8 d_hero_9 d_hero_10 d_hero_11 d_hero_12 d_hero_13 d_hero_14 d_hero_15 d_hero_16 d_hero_17 d_hero_18 d_hero_19 d_hero_20 d_hero_21 d_hero_22 d_hero_23 d_hero_24 d_hero_25 d_hero_26 d_hero_27 d_hero_28 d_hero_29 d_hero_30 d_hero_31 d_hero_32 d_hero_33 d_hero_34 d_hero_35 d_hero_36 d_hero_37 d_hero_38 d_hero_39 d_hero_40 d_hero_41 d_hero_42 d_hero_43 d_hero_44 d_hero_45 d_hero_46 d_hero_47 d_hero_48 d_hero_49 d_hero_50 d_hero_51 d_hero_52 d_hero_53 d_hero_54 d_hero_55 d_hero_56 d_hero_57 d_hero_58 d_hero_59 d_hero_60 d_hero_61 d_hero_62 d_hero_63 d_hero_64 d_hero_65 d_hero_66 d_hero_67 d_hero_68 d_hero_69 d_hero_70 d_hero_71 d_hero_72 d_hero_73 d_hero_74 d_hero_75 d_hero_76 d_hero_77 d_hero_78 d_hero_79 d_hero_80 d_hero_81 d_hero_82 d_hero_83 d_hero_84 d_hero_85 d_hero_86 d_hero_87 d_hero_88 d_hero_89 d_hero_90 d_hero_91 d_hero_92 d_hero_93 d_hero_94 d_hero_95 d_hero_96 d_hero_97 d_hero_98 d_hero_99 d_hero_100 d_hero_101 d_hero_102 d_hero_103 d_hero_104 d_hero_105 d_hero_106 d_hero_107 d_hero_108 d_hero_109 d_hero_110 d_hero_111 d_hero_112 d_hero_113 d_hero_114 d_hero_115 d_hero_116 d_hero_117 d_hero_118 d_hero_119 d_hero_120 d_hero_121 d_hero_122 d_hero_123 d_hero_124 d_hero_125 d_hero_126 d_hero_127 d_hero_128 d_hero_129 d_hero_130 d_hero_131 d_hero_132 d_hero_133 d_hero_134 d_hero_135 d_hero_136 d_hero_137 d_hero_138 d_hero_139 d_hero_140 d_hero_141 d_hero_142 d_hero_143 d_hero_144 d_hero_145 d_hero_146 d_hero_147 d_hero_148 d_hero_149 d_hero_150 side_bit p0_n_games_log1p p0_smoothed_winrate p0_smoothed_winrate_hero p0_last10_winrate p0_days_since_last_log1p p0_n_games_hero_log1p p0_hero_diversity_log1p p0_coplay_mean p0_is_anonymous p1_n_games_log1p p1_smoothed_winrate p1_smoothed_winrate_hero p1_last10_winrate p1_days_since_last_log1p p1_n_games_hero_log1p p1_hero_diversity_log1p p1_coplay_mean p1_is_anonymous p2_n_games_log1p p2_smoothed_winrate p2_smoothed_winrate_hero p2_last10_winrate p2_days_since_last_log1p p2_n_games_hero_log1p p2_hero_diversity_log1p p2_coplay_mean p2_is_anonymous p3_n_games_log1p p3_smoothed_winrate p3_smoothed_winrate_hero p3_last10_winrate p3_days_since_last_log1p p3_n_games_hero_log1p p3_hero_diversity_log1p p3_coplay_mean p3_is_anonymous p4_n_games_log1p p4_smoothed_winrate p4_smoothed_winrate_hero p4_last10_winrate p4_days_since_last_log1p p4_n_games_hero_log1p p4_hero_diversity_log1p p4_coplay_mean p4_is_anonymous p5_n_games_log1p p5_smoothed_winrate p5_smoothed_winrate_hero p5_last10_winrate p5_days_since_last_log1p p5_n_games_hero_log1p p5_hero_diversity_log1p p5_coplay_mean p5_is_anonymous p6_n_games_log1p p6_smoothed_winrate p6_smoothed_winrate_hero p6_last10_winrate p6_days_since_last_log1p p6_n_games_hero_log1p p6_hero_diversity_log1p p6_coplay_mean p6_is_anonymous p7_n_games_log1p p7_smoothed_winrate p7_smoothed_winrate_hero p7_last10_winrate p7_days_since_last_log1p p7_n_games_hero_log1p p7_hero_diversity_log1p p7_coplay_mean p7_is_anonymous p8_n_games_log1p p8_smoothed_winrate p8_smoothed_winrate_hero p8_last10_winrate p8_days_since_last_log1p p8_n_games_hero_log1p p8_hero_diversity_log1p p8_coplay_mean p8_is_anonymous p9_n_games_log1p p9_smoothed_winrate p9_smoothed_winrate_hero p9_last10_winrate p9_days_since_last_log1p p9_n_games_hero_log1p p9_hero_diversity_log1p p9_coplay_mean p9_is_anonymous
feature_infos=[0:1] [0:1] [0:1] [0:1] [0:1] [0:1] [0:1] [0:1] [0:1] [0:1] [0:1] [0:1] [0:1] [0:1] [0:1] [0:1] [0:1] [0:1] [0:1] [0:1] [0:1] [0:1] [0:1] none [0:1] [0:1] [0:1] [0:1] [0:1] [0:1] [0:1] [0:1] [0:1] [0:1] [0:1] [0:1] [0:1] [0:1] [0:1] [0:1] [0:1] [0:1] [0:1] [0:1] [0:1] [0:1] [0:1] [0:1] [0:1] [0:1] [0:1] [0:1] [0:1] [0:1] [0:1] [0:1] [0:1] [0:1] [0:1] [0:1] [0:1] [0:1] [0:1] [0:1] [0:1] [0:1] [0:1] [0:1] [0:1] [0:1] [0:1] [0:1] [0:1] [0:1] [0:1] [0:1] [0:1] [0:1] [0:1] [0:1] [0:1] [0:1] [0:1] [0:1] [0:1] [0:1] [0:1] [0:1] [0:1] [0:1] [0:1] [0:1] [0:1] [0:1] [0:1] [0:1] [0:1] [0:1] [0:1] [0:1] [0:1] [0:1] [0:1] [0:1] [0:1] [0:1] [0:1] [0:1] [0:1] [0:1] [0:1] [0:1] [0:1] [0:1] none none none none [0:1] [0:1] [0:1] none [0:1] none none [0:1] none [0:1] [0:1] none [0:1] none none none [0:1] [0:1] [0:1] [0:1] none none none none none none [0:1] none none none none none [0:1] [0:1] [0:1] [0:1] [0:1] [0:1] [0:1] [0:1] [0:1] [0:1] [0:1] [0:1] [0:1] [0:1] [0:1] [0:1] [0:1] [0:1] [0:1] [0:1] [0:1] [0:1] [0:1] none [0:1] [0:1] [0:1] [0:1] [0:1] [0:1] [0:1] [0:1] [0:1] [0:1] [0:1] [0:1] [0:1] [0:1] [0:1] [0:1] [0:1] [0:1] [0:1] [0:1] [0:1] [0:1] [0:1] [0:1] [0:1] [0:1] [0:1] [0:1] [0:1] [0:1] [0:1] [0:1] [0:1] [0:1] [0:1] [0:1] [0:1] [0:1] [0:1] [0:1] [0:1] [0:1] [0:1] [0:1] [0:1] [0:1] [0:1] [0:1] [0:1] [0:1] [0:1] [0:1] [0:1] [0:1] [0:1] [0:1] [0:1] [0:1] [0:1] [0:1] [0:1] [0:1] [0:1] [0:1] [0:1] [0:1] [0:1] [0:1] [0:1] [0:1] [0:1] [0:1] [0:1] [0:1] [0:1] [0:1] [0:1] [0:1] [0:1] [0:1] [0:1] [0:1] [0:1] [0:1] [0:1] [0:1] [0:1] [0:1] [0:1] [0:1] none none none none [0:1] [0:1] [0:1] none [0:1] none none [0:1] none [0:1] [0:1] none [0:1] none none none [0:1] [0:1] [0:1] [0:1] none none none none none none [0:1] none none none none none [1:1] [0:7.0130157470703125] [0.036082472652196884:0.87671232223510742] [0.12689225375652313:0.8565782904624939] [0:1] [0.010019085370004177:5.9026331901550293] [0:6.0402545928955078] [0:4.8520302772521973] [0:402] [0:1] [0:7.0909099578857422] [0.094594597816467285:0.88235294818878174] [0.12466321885585785:0.87920045852661133] [0:1] [0.0097325770184397697:5.9026331901550293] [0:6.2971091270446777] [0:4.8520302772521973] [0:402] [0:1] [0:7.1284961700439453] [0.08235294371843338:0.90909093618392944] [0.12424736469984055:0.876517653465271] [0:1] [0.0097898850217461586:5.9026331901550293] [0:6.7428808212280273] [0:4.8520302772521973] [0:364] [0:1] [0:7.133296012878418] [0.044117648154497147:0.82758623361587524] [0.16474752128124237:0.88867843151092529] [0:1] [0.0094459867104887962:5.9026331901550293] [0:6.1633148193359375] [0:4.8520302772521973] [0:393] [0:1] [0:7.1155819892883301] [0.0625:0.91525423526763916] [0.10203877091407776:0.90370708703994751] [0:1] [0.0097784241661429405:5.9026331901550293] [0:6.7226300239562988] [0:4.8520302772521973] [0:393] [0:1] [0:7.0942349433898926] [0.0625:0.875] [0.12493445724248886:0.87366443872451782] [0:1] [0.0099732493981719017:5.9026331901550293] [0:6.5366916656494141] [0:4.8520302772521973] [0:317] [0:1] [0:7.1396603584289551] [0.080459773540496826:0.8928571343421936] [0.13540196418762207:0.89764654636383057] [0:1] [0.0099044917151331902:5.9026331901550293] [0:6.107022762298584] [0:4.8520302772521973] [0:366] [0:1] [0:7.0570368766784668] [0.052238807082176208:0.796875] [0.13965688645839691:0.89339512586593628] [0:1] [0.010248232632875443:5.9026331901550293] [0:6.5496506690979004] [0:4.8441872596740723] [0:366] [0:1] [0:7.0934047698974609] [0.086206898093223572:0.80000001192092896] [0.12688092887401581:0.8802148699760437] [0:1] [0.0096752652898430824:5.9026331901550293] [0:6.6580109596252441] [0:4.8441872596740723] [0:317] [0:1] [0:6.902742862701416] [0.086206898093223572:0.81012660264968872] [0.14914125204086304:0.8887939453125] [0:1] [0.0096752652898430824:5.9026331901550293] [0:6.2878584861755371] [0:4.8520302772521973] [0:266.5] [0:1]
tree_sizes=3553 3671 3670 3663 3668 3667 3675 3667 3671 3658 3675 3676 3678 3670 3690 3699 3702 3696 3689 3692 3680 3711 3711 3713 3699 3675 3687 3740 3707 3715 3688 3743 3711 3709 3730 3705 3706 3751 3692 3728 3696 3696 3716 3789 3768 3692 3700 3795 3784 3710 3715 3727 3722 3739 3717 3774 3760 3808 3734 3756 3747 3722 3772 3747 3746 3763 3809 3724 3778 3800 3796 3791 3722 3742 3756 3771 3820 3785 3787 3723 3788 3781 3761 3763 3781 3800 3774 3814 3739 3773 3741 3768 3752 3797 3731 3789 3757 3774 3774 3743 3746 3795 3787 3731 3760 3802 3792 3756 3752 3747 3762 3760 3758 3740 3746 3794 3734 3760 3733 3751 3775 3774 3777 3760 3758 3808 3748 3761 3706 3746 3767 3771 3751 3778 3749 3727 3769 3753 3729 3705 3755 3738 3794 3767 3733 3727 3740 3716 3754 3723 3747 3794 3751 3744 3716 3744 3717 3790 3782 3695 3719 3746 3777 3788 3724 3746 3757 3746 3742 3718 3711 3721 3792 3758 3715 3746 3782 3739 3785 3725 3718 3768 3741 3730 3741 3729 3721 3731 3737 3729 3729 3722 3793 3727 3737 3709 3747 3737 3726 3752 3710 3746 3781 3771 3748 3759 3740 3752 3738 3738 3734 3759 3766 3740 3702 3778 3713 3690 3766 3754 3693 3744 3744 3735 3725 3743 3747 3736 3749 3757 3750 3741 3737 3745 3706 3706 3741 3733 3740 3764 3764 3715 3722 3729 3747 3707 3751 3697 3668 3744 3700 3727 3749 3703 3746 3728 3721 3736 3731 3761 3686 3704 3733 3738 3716 3744 3732 3695 3720 3745 3744 3742 3708 3720 3733 3636 3721 3739 3712 3659 3703 3696 3735 3761 3736 3703 3724 3704 3741 3709 3727 3737 3734 3713 3710 3723 3726 3751 3703 3708 3721 3717 3721 3749 3685 3704 3733 3702 3709 3722 3736 3695 3762 3698 3709 3730 3723 3722 3719 3747 3694 3720 3723 3683 3728 3699 3710 3745 3734 3736 3746 3765 3697 3716 3731 3700 3694 3690 3744 3749 3726 3736 3676 3691 3712 3686 3757 3679 3668 3691 3664 3691 3708 3710 3692 3675 3673 3719 3663 3707 3713 3710 3719 3695 3595 3720 3720 3726 3640 3717 3710 3663 3633 3684 3701 3674 3730 3704 3698 3741 3664 3665 3707 3686 3654 3691 3688 3673 3701 3746 3692 3675 3711 3701 3685 3695 3709 3701 3664 3726 3720 3682 3668 3717 3628 3705 3651 3645 3714 3674 3595 3708 3596 3712 3652 3636 3648 3667 3683 3674 3694 3687 3659 3639 3664 3659 3688 3650 3695 3656 3652 3613 3701 3698 3673 3737 3723 3616 3624 3660 3572 3675 3706 3655 3691 3672 3642 3653 3599 3654 3679 3687 3740 3648 3661 3675 3666 3660 3711 3694 3712 3656 3621 3598 3635 3643 3644 3647 3707 3621 3674 3668 3672 3665 3572 3641 3559 3608 3600 3670 3661 3591 3618 3553 3637 3676 3678 3623 3610 3720 3569 3565 3657 3596 3697 3686 3639 3698 3548 3587

Tree=0
num_leaves=31
num_cat=0
split_feature=303 348 321 330 357 348 330 366 312 357 312 339 366 330 348 366 339 321 384 375 375 321 357 357 357 375 312 366 339 357
split_gain=13010.1 6519.15 5868.97 3267.25 3179.65 3038.87 2988.25 1870.42 1848.67 1744.69 1726.03 1583.37 1440.04 1323.32 1123.73 1036.63 1033.67 953.885 890.788 881.344 861.615 794.191 780.267 738.445 680.9 671.438 643.448 631.705 620.433 620.433
threshold=0.49830999970436102 0.50202918052673351 0.49889555573463445 0.4958582222461701 0.51220819354057323 0.49855285882949835 0.51266807317733776 0.49792332947254186 0.51627004146575939 0.50690963864326488 0.51308012008667003 0.50652116537094127 0.495670035481453 0.5026819407939912 0.49926669895648962 0.50734135508537304 0.51485133171081554 0.50672045350074779 0.50292265415191661 0.49408654868602758 0.51525259017944347 0.49525716900825506 0.49543057382106787 0.49922849237918859 0.49379724264144903 0.49460640549659735 0.49997322261333471 0.48970329761505133 0.50405496358871471 0.51220819354057323
decision_type=2 2 2 2 2 2 2 2 2 2 2 2 2 2 2 2 2 2 2 2 2 2 2 2 2 2 2 2 2 2
left_child=2 4 6 11 7 12 8 20 15 18 16 22 29 25 -8 -1 27 -9 -5 -11 -2 -13 -3 -14 -12 -6 -15 -7 -10 -4
right_child=1 3 5 9 13 10 14 17 28 19 24 21 23 26 -16 -17 -18 -19 -20 -21 -22 -23 -24 -25 -26 -27 -28 -29 -30 -31
leaf_value=0.10472306950334642 0.18183053821996814 0.12482549522800558 0.1631120976551835 0.16224072218204061 0.14358484434176039 0.11962429004858077 0.13542952415136919 0.14339329794753419 0.1059530795276699 0.14415394742115387 0.14687268188265235 0.12247538721926544 0.14460518743025322 0.14156031054302493 0.11526358561383622 0.083457001618998411 0.12710424003697071 0.16300301064456862 0.14310629887574633 0.12478215384525382 0.16121838187864265 0.14266381744989531 0.10493445602669176 0.12524062278202752 0.12683710142140639 0.12309051407723669 0.16050584204330373 0.098095317049089623 0.12633543474833375 0.14303212813369751
leaf_weight=45452.517547681928 49977.386114746332 35091.18823774159 35710.399116948247 46937.578366100788 28323.920144289732 21844.853898957372 50987.336978018284 49622.733581438661 28610.628718584776 41899.02360342443 29384.144559651613 35323.392317444086 36581.226635575294 33513.793321177363 60327.51587100327 46241.215005964041 39856.225011572242 49600.583353042603 50513.969175666571 53441.781387478113 34128.773257881403 43460.490265861154 45024.196839034557 42654.620158597827 40123.521026149392 36698.448630794883 38544.135077819228 36238.52029286325 31242.523834183812 27038.211381435394
leaf_count=182629 200810 140997 143485 188596 113806 87773 204868 199385 114958 168351 118066 141930 146984 134659 242397 185798 160143 199296 202966 214730 137130 174625 180908 171387 161217 147455 154871 145607 125533 108640
internal_value=0.134128 0.143563 0.123047 0.134163 0.153881 0.132381 0.11206 0.162495 0.102922 0.142913 0.123255 0.123546 0.143143 0.142361 0.124501 0.0939986 0.114702 0.153196 0.152322 0.133295 0.173466 0.133612 0.113647 0.134181 0.135307 0.132018 0.151694 0.106192 0.116592 0.15446
internal_weight=1.24439e+06 672101 572293 351692 320410 309432 262862 183329 151547 192792 167447 158899 141984 137080 111315 91693.7 97939.6 99223.3 97451.5 95340.8 84106.2 78783.9 80115.4 79235.8 69507.7 65022.4 72057.9 58083.4 59853.2 62748.6
internal_count=5000000 2700515 2299485 1413103 1287412 1243302 1056183 736621 608918 774643 672806 638460 570496 550791 447265 368427 393523 398681 391562 383081 337940 316555 321905 318371 279283 261261 289530 233380 240491 252125
is_linear=0
shrinkage=1


Tree=1
num_leaves=31
num_cat=0
split_feature=375 303 366 321 312 348 384 339 330 348 312 384 330 357 357 366 330 357 366 330 357 312 366 312 312 339 339 348 366 384
split_gain=11019.9 5835.58 5383.79 2982.42 2870.09 2588.75 2520.85 1733.15 1532.94 1475.18 1472.82 1374.05 1212.78 1203.66 1117.28 956.472 842.732 811.283 806.903 782.753 779.848 740.481 705.283 681.134 679.702 674.505 660.088 656.131 564.338 537.496
threshold=0.49985595047473913 0.49994860589504247 0.50677666068077099 0.50367602705955516 0.51232418417930614 0.49766397476196295 0.49421977996826177 0.49384064972400671 0.50596228241920482 0.49855285882949835 0.50881376862525951 0.49937266111373907 0.49654337763786321 0.49755211174488073 0.51259559392929088 0.50847944617271434 0.49654337763786321 0.49392387270927435 0.50596860051155101 0.50843024253845226 0.50555911660194408 0.50599339604377758 0.50438612699508678 0.49898324906826025 0.48966570198535925 0.5087169110774995 0.51110640168190014 0.51291570067405712 0.49456261098384863 0.49446597695350653
decision_type=2 2 2 2 2 2 2 2 2 2 2 2 2 2 2 2 2 2 2 2 2 2 2 2 2 2 2 2 2 2
left_child=2 4 6 10 7 13 14 19 18 24 16 23 28 29 27 -9 -3 -11 -5 -2 -13 -10 -12 -7 -8 -15 -14 -1 -6 -4
right_child=1 3 5 8 12 11 9 15 21 17 22 20 26 25 -16 -17 -18 -19 -20 -21 -22 -23 -24 -25 -26 -27 -28 -29 -30 -31
leaf_value=0.046928456203236352 -0.048149483535904855 -0.028739532046340721 0.032259735830569965 0.0093292073605944232 -0.0070206872148331897 -0.0086838726429956745 0.0096415228246382271 -0.0092848500443117009 0.009190760030440958 0.013995719959550035 0.0099814841740681944 -0.0071978839584666988 -0.0074143220741097193 -0.0071001097212072808 0.019529827179507072 -0.028486712908323799 -0.0093668439836528863 -0.0052511083447776587 -0.0095674447613304445 -0.027855267485411329 -0.026536119453836261 0.027289156082481954 -0.0086885918906671866 0.010619588356475154 0.029219589449651584 0.012279246322801194 0.01168691762902275 0.027487804987264521 -0.026525743276369414 0.013052316901623631
leaf_weight=40999.027037620544 39516.762241661549 41013.469202741981 25589.301423355937 44898.532751500607 26170.38503113389 33887.199197769165 28289.719736859202 53888.010708808899 45244.35506786406 38185.954784214497 39526.104470700026 41065.400773718953 40777.327884674072 37844.216899931431 53142.923110961914 50019.759636446834 49623.843835994601 51351.99032266438 45493.539421230555 36615.91989839077 42368.409608796239 45181.813417866826 41453.77469676733 39687.73077711463 47519.723500207067 34182.018681243062 32519.672503858805 30111.135836392641 34242.269230827689 33830.724086776376
leaf_count=165040 158565 164750 102893 180473 105141 136086 113824 216425 181963 153412 158920 164940 163816 152084 213520 200760 199532 206235 182849 147026 170124 181766 166594 159452 191238 137371 130657 121002 137514 136028
internal_value=1.67088e-06 -0.00876479 0.0101047 6.59466e-05 -0.0186843 0.000434809 0.0197363 -0.0269267 0.00902793 0.0116485 -0.00937652 -0.00823318 -0.00758597 0.0107885 0.0304989 -0.0185284 -0.018133 0.00295724 -0.000181312 -0.038389 -0.017018 0.0182337 0.000424232 0.00172879 0.0219137 0.00209689 0.00106032 0.0386964 -0.0180763 0.021324
internal_weight=1.24424e+06 666186 578055 352435 313750 288455 289600 180040 180818 165347 171617 157009 133710 131446 124253 103908 90637.3 89537.9 90392.1 76132.7 83433.8 90426.2 80979.9 73574.9 75809.4 72026.2 73297 71110.2 60412.7 59420
internal_count=5000000 2676751 2323249 1416847 1259904 1158978 1164271 722776 727051 664709 689796 630602 537128 528376 499562 417185 364282 359647 363322 305591 335064 363729 325514 295538 305062 289455 294473 286042 242655 238921
is_linear=0
shrinkage=0.1


Tree=2
num_leaves=31
num_cat=0
split_feature=321 384 339 348 375 312 330 312 303 339 330 312 357 303 303 357 303 330 366 357 339 375 330 312 303 330 357 312 366 384
split_gain=9786.03 5274.24 4726.38 2867.44 2550.95 2474.34 2357.46 1617.55 1460 1346.79 1279.11 1271.92 1239.41 1205.73 1095.85 790.785 756.07 749.302 742.447 730.656 727.144 708.097 707.335 630.652 615.964 603.971 571.841 555.32 543.531 533.556
threshold=0.49728573858737951 0.50893095135688793 0.50652116537094127 0.51051667332649242 0.50907093286514293 0.49898324906826025 0.49418081343173986 0.49997322261333471 0.49899771809577947 0.49682150781154638 0.4958582222461701 0.49361464381217962 0.49379724264144903 0.51200291514396679 0.49652001261711126 0.51692351698875438 0.49585585296154028 0.51557675004005443 0.51388549804687511 0.51183524727821361 0.49139556288719183 0.50843262672424328 0.50843024253845226 0.50542539358139049 0.51274105906486522 0.49150232970714575 0.49268773198127752 0.50881376862525951 0.49358063936233526 0.49169594049453741
decision_type=2 2 2 2 2 2 2 2 2 2 2 2 2 2 2 2 2 2 2 2 2 2 2 2 2 2 2 2 2 2
left_child=2 3 5 7 8 13 14 18 22 23 24 26 28 17 29 -9 -13 -1 -2 -12 -10 -11 -3 -5 -7 -14 -8 -16 -6 -4
right_child=1 4 6 9 12 10 11 15 20 21 19 16 25 -15 27 -17 -18 -19 -20 -21 -22 -23 -24 -25 -26 -27 -28 -29 -30 -31
leaf_value=-0.046110405113546353 0.022224549339065893 -0.012017289720061429 -0.0093501976690695317 -0.01293204330413337 0.010494701744693587 -0.028719489048580557 0.0078813800517862197 0.039485876751113549 0.004792024730950032 0.02327831036038706 0.006174355436724792 0.0049163437544350588 -0.029082132904298997 -0.018151581723754379 -0.011112962506165306 0.021811054822637618 0.022962536102383815 -0.025348190632237168 0.0040026546760673059 -0.012576423218945851 0.023058950634791527 0.0053866118921559753 0.0069253308712783597 0.0055499293405541043 -0.0094635918185292586 -0.011867834077781272 -0.010742564318060322 0.0071029340961977806 -0.008273453135418123 -0.029456745298739869
leaf_weight=43024.108225047588 53874.711924389005 40916.310207247734 21769.371298134327 36122.744832575321 26752.271637588739 39071.941367030144 27912.163253501058 66237.165782287717 36458.680819690228 46637.852463915944 47119.00465349853 42262.028821960092 34257.363299459219 55824.810540243983 35520.957120731473 40970.690771311522 51515.878206402063 29165.799589663744 38225.659510582685 37178.674568518996 54168.641171231866 42077.46388463676 38039.169251352549 37764.11288253963 28899.417005807161 50319.230944171548 40276.196880966425 31645.271185979247 36460.96379442513 33519.34787517786
leaf_count=172459 216920 164413 87345 145013 107628 156742 112199 266953 146661 187579 189490 169780 137507 224319 142654 164772 207335 117094 153655 149390 218014 169089 152873 151799 116133 202229 161752 127228 146544 134431
internal_value=2.97992e-06 0.00808985 -0.00972471 0.0163415 -0.00131973 -0.0189406 -0.000642923 0.0243813 0.00704973 0.00648671 -0.0103256 0.00727328 -0.0109233 -0.0291878 -0.0111134 0.0327312 0.0148298 -0.0377222 0.0146617 -0.00209549 0.0157103 0.0147923 -0.00289111 -0.00348577 -0.0205324 -0.0188404 -0.00311906 -0.00253057 -0.000330642 -0.02154
internal_weight=1.24399e+06 679283 564705 361910 317373 280284 284421 199308 169583 162602 152269 161966 147790 128015 122455 107208 93777.9 72189.9 92100.4 84297.7 90627.3 88715.3 78955.5 73886.9 67971.4 84576.6 68188.4 67166.2 63213.2 55288.7
internal_count=5000000 2731649 2268351 1455780 1275869 1125627 1142724 802300 681961 653480 611755 651066 593908 513872 491658 431725 377115 289553 370575 338880 364675 356668 317286 296812 272875 339736 273951 269882 254172 221776
is_linear=0
shrinkage=0.1


Tree=3
num_leaves=31
num_cat=0
split_feature=366 348 357 303 330 357 384 330 339 384 384 375 330 348 321 348 303 375 330 357 312 339 384 357 312 375 375 348 375 312
split_gain=9199.26 5013.82 4210.21 2758.02 2349.77 2284.38 1796.22 1564.25 1313.72 1275.28 1245.65 1241.25 1058.32 1044.97 938.026 768.193 735.021 723.02 720.04 663.605 643.46 611.799 595.548 586.7 572.041 571.879 552.547 544.956 496.489 472.862
threshold=0.49712105095386511 0.49855285882949835 0.49392387270927435 0.51007184386253368 0.50819402933120739 0.49922849237918859 0.51466950774192821 0.5151694416999818 0.49682150781154638 0.49594207108020788 0.49421977996826177 0.5059402883052827 0.50843024253845226 0.50772917270660411 0.51461097598075878 0.49926669895648962 0.50842127203941356 0.49802058935165411 0.50000113248825084 0.49367320537567144 0.5173526704311372 0.50742447376251232 0.49446597695350653 0.50385066866874706 0.51652082800865184 0.49037215113639837 0.51630216836929332 0.51051667332649242 0.51214420795440685 0.50969114899635326
decision_type=2 2 2 2 2 2 2 2 2 2 2 2 2 2 2 2 2 2 2 2 2 2 2 2 2 2 2 2 2 2
left_child=2 5 6 7 8 12 13 14 20 25 27 23 22 29 24 -8 -10 -12 -11 -9 -4 -13 -2 -5 -3 -7 -15 -6 -14 -1
right_child=1 3 4 11 10 9 15 19 16 18 17 21 28 26 -16 -17 -18 -19 -20 -21 -22 -23 -24 -25 -26 -27 -28 -29 -30 -31
leaf_value=0.027603943084766821 0.01264544893143891 -0.045220384397129741 -0.023283361116046609 0.011389094987990844 0.029132093890442842 0.014134126201823692 0.018625700731105026 -0.0022299782829978353 -0.0067464298153829781 -0.023622936068400005 0.012783788311297348 -0.023144145284660161 0.026863390286471833 0.025194661626577554 -0.020183047143089695 0.00093233441596993281 0.011193246994293771 -0.0053025578420931585 -0.0060181508626080682 -0.020529239731575735 -0.0042663993244549964 -0.0058785419705300887 -0.0053306652330642338 -0.0055724015755325845 -0.026849745551335669 -0.0037145569894049494 0.0069105262491187223 0.011145087598466609 0.0098936398066856949 0.043900489866319212
leaf_weight=37988.492502883077 32317.624496906996 43921.463109314442 46559.703220576048 39325.495607376099 37239.543871343136 29238.202876120806 45882.182295739651 34019.360638052225 47874.354822039604 43831.779588550329 40937.957696273923 42531.562260478735 39580.400944456458 42057.550166845322 49118.754853352904 52750.402585282922 43673.117130875587 48040.40761256218 49434.660783439875 47469.43976610899 28797.367651358247 39661.483855292201 42888.117159381509 42360.490589872003 27603.052681565285 46500.772672891617 27228.331293672323 30754.687563702464 30546.69611261785 33512.008122801781
leaf_count=153252 130124 175890 186851 158204 150109 117613 184943 136625 192303 175876 164758 170747 159576 169344 197099 212043 175744 193035 198736 190460 115700 159402 172356 170161 110716 186843 109431 123660 122902 135497
internal_value=3.99837e-06 -0.00782183 0.00945604 -0.0157774 0.0020229 0.00144149 0.0195113 -0.0235936 -0.00623748 -0.00646378 0.0108059 -0.0061367 0.0106344 0.0267612 -0.0308235 0.00916298 0.00181177 0.00301877 -0.0142917 -0.0128898 -0.0160161 -0.0148128 0.00239408 0.00259325 -0.0381307 0.00317573 0.0180093 0.0209963 0.0194715 0.0352421
internal_weight=1.24365e+06 680349 563296 366011 323877 314338 239419 202132 166905 169005 156973 163879 145333 140786 120643 98632.6 91547.5 88978.4 93266.4 81488.8 75357.1 82193 75205.7 81686 71524.5 75739 69285.9 67994.2 70127.1 71500.5
internal_count=5000000 2733330 2266670 1469304 1302160 1264026 964510 810790 670598 679068 631562 658514 584958 567524 483705 396986 368047 357793 374612 327085 302551 330149 302480 328365 286606 304456 278775 273769 282478 288749
is_linear=0
shrinkage=0.1


Tree=4
num_leaves=31
num_cat=0
split_feature=312 375 339 303 339 321 348 330 348 330 321 330 303 339 357 366 321 321 321 339 348 303 366 384 366 366 384 357 375 303
split_gain=8298.09 4391.58 3993.7 2457.88 2450.54 1958.75 1596.17 1499.97 1479.83 1129.58 992.721 938.482 902.217 842.21 807.266 780.981 749.147 708.372 607.763 602.674 600.228 559.012 535.607 523.726 505.554 482.063 476.433 467.523 458.626 410.037
threshold=0.49997322261333471 0.49625629186630255 0.51485133171081554 0.51638489961624157 0.51336714625358593 0.4946857243776322 0.51019355654716503 0.51357275247573864 0.51157331466674816 0.5026819407939912 0.50316596031188976 0.51266807317733776 0.49418716132640844 0.49605062603950506 0.48721243441104894 0.49105061590671545 0.51665189862251293 0.50819209218025219 0.51255059242248546 0.4949349462985993 0.49213111400604254 0.49441234767436987 0.49456261098384863 0.50564235448837291 0.49965833127498632 0.51238706707954418 0.49258637428283697 0.51259559392929088 0.51177799701690685 0.52062234282493602
decision_type=2 2 2 2 2 2 2 2 2 2 2 2 2 2 2 2 2 2 2 2 2 2 2 2 2 2 2 2 2 2
left_child=2 5 3 7 8 13 12 14 15 21 23 22 -4 29 -1 -3 28 -10 -9 -11 -16 -7 -5 -6 -14 -12 -17 -15 -8 -2
right_child=1 4 6 11 10 9 16 18 17 19 25 -13 24 27 20 26 -18 -19 -20 -21 -22 -23 -24 -25 -26 -27 -28 -29 -30 -31
leaf_value=-0.018583001922057009 -0.0073115645749397239 0.010690547268027557 -0.00080148793670482745 -0.0027451997534267449 0.010292139538108992 0.0054765112270788634 -0.0069778982864303583 -0.019648635844718005 -0.024295056699120989 0.022235819540170062 0.024730138905955872 0.0047144916925519094 0.024989547250565101 0.021489554907296052 -0.024841052782070602 0.0039419445837947237 0.002860753289627772 -0.0069400797522967657 -0.0027363565563544999 0.038801561286374728 -0.042720053255177026 0.022367743572100335 -0.019480014622415116 -0.0067065148963055239 0.0083085588791133851 0.0087448967115252973 -0.01246903244495901 0.005244581279275665 -0.023766297525816257 0.010620451342769973
leaf_weight=42784.846439480782 39541.652104780078 47756.363448157907 56062.989691153169 33777.706949979067 35757.117679983377 34467.526459500194 36972.763492330909 49712.650864511728 49044.058185696602 39441.223925411701 44578.787416622043 56443.160854041576 33957.715150907636 41818.973956227303 31046.15682259202 29954.932809829712 40862.177863523364 45188.539133056998 37110.77502925694 49553.524710550904 47514.781563743949 45400.71126036346 44088.08331412077 36756.107653647661 39075.776538223028 32706.510534927249 43205.98247140646 30737.379447385669 29062.652978047729 18821.118235275149
leaf_count=171746 158879 192491 225311 135875 143830 138739 148497 199550 196718 159169 179712 227181 137064 168588 124534 120553 164289 181467 149190 200191 190300 183174 176983 147706 157209 131539 173538 123633 116551 75793
internal_value=4.8184e-06 0.00762625 -0.00875307 -0.0156504 0.000259521 0.0165943 0.00125643 -0.0224551 -0.00657799 0.0237117 0.01008 -0.00510362 0.00874011 0.00741414 -0.0296353 0.000743364 -0.00778135 -0.0159726 -0.0124199 0.0314599 -0.0356545 0.0150783 -0.0122206 0.00167572 0.0160646 0.0179653 -0.00574974 0.0146076 -0.0143666 -0.00152876
internal_weight=1.2432e+06 664731 578472 342478 364948 299782 235994 208169 215150 168863 149799 134309 129096 130919 121346 120917 106898 94232.6 86823.4 88994.7 78560.9 79868.2 77865.8 72513.2 73033.5 77285.3 73160.9 72556.4 66035.4 58362.8
internal_count=5000000 2675720 2324280 1375359 1467554 1208166 948921 835320 864767 681273 602787 540039 519584 526893 486580 486582 429337 378185 348740 359360 314834 321913 312858 291536 294273 311251 294091 292221 265048 234672
is_linear=0
shrinkage=0.1


Tree=5
num_leaves=31
num_cat=0
split_feature=384 348 357 357 366 366 303 375 330 375 312 357 303 339 366 303 321 321 366 312 321 339 303 348 312 330 357 375 375 330
split_gain=7472.16 4216.33 3373.85 2399.34 1937.94 1842.53 1504.53 1173.01 1120.19 1051.46 982.874 980.301 857.874 791.329 714.331 660.737 629.412 605.182 571.866 570.566 569.432 564.479 485.771 475.919 451.426 446.286 441.582 429.79 428.852 381.181
threshold=0.49547749757766729 0.49766397476196295 0.51220819354057323 0.50473380088806163 0.50596860051155101 0.51097226142883312 0.49899771809577947 0.49570576846599584 0.50819402933120739 0.51368770003318798 0.51194855570793163 0.51183524727821361 0.49830999970436102 0.50984919071197521 0.51256951689720165 0.5053556263446809 0.51007696986198436 0.49889555573463445 0.50867351889610302 0.51856708526611339 0.51639106869697582 0.51549071073532116 0.51942798495292675 0.51204940676689159 0.49643383920192724 0.49533624947071081 0.49186728894710546 0.51368770003318798 0.49985595047473913 0.50369465351104747
decision_type=2 2 2 2 2 2 2 2 2 2 2 2 2 2 2 2 2 2 2 2 2 2 2 2 2 2 2 2 2 2
left_child=2 4 5 8 11 9 14 19 20 16 17 21 25 24 27 -9 -1 -6 -10 -5 -3 -2 -11 -14 -8 -7 -12 -4 -13 -15
right_child=1 3 6 7 10 12 13 15 18 22 26 28 23 29 -16 -17 -18 -19 -20 -21 -22 -23 -24 -25 -26 -27 -28 -29 -30 -31
leaf_value=0.021808302317004674 0.00984504816750955 -0.01965732033672701 0.0050757405747830229 -0.019300854852991003 -0.021780766716861105 -0.010887866721509171 -0.0089655033785613451 -0.036791158022825697 0.0098025640925976393 0.0072575617763891501 0.012320351674038952 0.0090330069374836199 0.021137750157304937 0.0074059702157247961 -0.018071548789863313 -0.020980062948684 0.037738679510556768 -0.0054153114133335262 -0.006338093889777862 -0.0022948312350879853 -0.0037780676331275274 0.026139086220491693 0.024627395494656885 0.0051501742560943163 0.0071788731358257392 0.0059259053683910178 -0.0037993336312033112 -0.01163287661018768 -0.0068478592776849345 0.023600596630152675
leaf_weight=53750.061068207026 52360.70172560215 57718.963284835219 37221.058939665556 55324.613256618381 42111.939296245575 28132.467080697417 31229.03140707314 53391.08626922965 46703.681032493711 46639.300085112453 28578.551415815949 31672.825949072838 43258.429724052548 28165.438743412495 47279.832118138671 52341.143296480179 46050.962537914515 48757.804057598114 41417.047941803932 30663.376719340682 37097.843463718891 35796.788273781538 24589.017933338881 32690.064673811197 38886.713609725237 35971.698157340288 41924.100509032607 26253.384066417813 36716.282173812389 30030.846511647105
leaf_count=217189 211338 231513 149707 221946 168933 112901 125361 213870 187988 187778 115155 127706 174662 113395 189648 209957 186939 196000 166397 123196 149072 144841 99272 131485 156524 144660 168483 105402 147467 121215
internal_value=5.40561e-06 -0.0069056 0.00870561 -0.014093 0.00156457 0.0155707 -0.000227471 -0.0219102 -0.00590063 0.022535 -0.0061253 0.0094915 0.00706597 0.00714288 -0.00876623 -0.0289641 0.029159 -0.0129996 0.0022164 -0.0132365 -0.0134444 0.0164613 0.0132539 0.0142563 -1.17121e-05 -0.00145291 0.00273485 -0.00183504 0.000506995 0.0157628
internal_weight=1.24273e+06 692577 550148 374658 317919 311082 239066 191720 182938 171029 161372 156547 140053 128312 110754 105732 99801 90869.7 88120.7 85988 94816.8 88157.5 71228.3 75948.5 70115.7 64104.2 70502.7 63474.4 68389.1 58196.3
internal_count=5000000 2783862 2216138 1503939 1279923 1254886 961252 768969 734970 691178 648571 631352 563708 516495 444757 423827 404128 364933 354385 345142 380585 356179 287050 306147 281885 257561 283638 255109 275173 234610
is_linear=0
shrinkage=0.1


Tree=6
num_leaves=31
num_cat=0
split_feature=330 303 321 339 339 375 321 312 321 312 321 303 312 339 366 357 366 357 375 384 339 366 375 312 312 303 303 321 312 339
split_gain=6891.36 3955.98 3002.05 2337.34 1832.53 1686.36 1260.27 1208.17 1038.9 1023.62 988.25 798.472 715.763 680.436 657.044 651.295 609.113 570.147 556.787 496.036 483.269 478.539 422.008 413.992 408.428 403.594 399.83 397.18 364.09 343.98
threshold=0.4939344078302384 0.51252716779708873 0.51380351185798656 0.49558766186237341 0.4949349462985993 0.51251995563507091 0.50367602705955516 0.51194855570793163 0.50791552662849437 0.49079148471355444 0.50631701946258556 0.51200291514396679 0.49307133257389074 0.49558766186237341 0.51774588227272045 0.49268773198127752 0.50909349322319042 0.49478673934936529 0.51447618007659923 0.51325160264968883 0.50225114822387706 0.52031230926513683 0.51011377573013317 0.51232418417930614 0.51674064993858349 0.51752337813377391 0.48840208351612097 0.4946857243776322 0.49390512704849249 0.51187503337860119
decision_type=2 2 2 2 2 2 2 2 2 2 2 2 2 2 2 2 2 2 2 2 2 2 2 2 2 2 2 2 2 2
left_child=2 3 4 8 11 10 14 13 17 25 20 22 -7 -4 24 -8 -11 -2 29 -10 -3 -12 -1 -17 -5 -6 -15 -14 -13 -9
right_child=1 5 7 6 9 12 15 18 19 16 21 28 27 26 -16 23 -18 -19 -20 -21 -22 -23 -24 -25 -26 -27 -28 -29 -30 -31
leaf_value=-0.023419505029297169 -0.0067846809889561101 0.0060934156490728411 -0.014454967075663384 -0.00096709493319437664 -0.023618313586192981 -0.0025090914759601018 0.022794290186850381 0.0083168601346767564 0.0056259442412849442 0.0050734288961872065 0.03428847807687202 -0.024085414975107973 0.0045427402117175176 -0.0094292387179167117 -0.010809783403071744 0.0011056871758914921 -0.010066831901084691 -0.02257336240657833 -0.00038057779695223722 -0.0094956616255179559 0.021097447416457731 0.018398219987291513 -0.038267399504501053 0.016743021082859483 0.014776937555908413 -0.0077470922773833191 0.0064012659609260286 0.019325026148750243 -0.0083218423192204845 0.024048957071952932
leaf_weight=41252.02125570178 40307.746217995882 40571.393560051918 54996.113808631897 42818.265038877726 42797.284391209483 52520.693151801825 49107.060953810811 32048.885152757168 52256.043549060822 56821.422130584717 58675.285666361451 25235.293338134885 32655.813790857792 25451.512009933591 41466.882504448295 39898.753755405545 49915.166058376431 52872.733671814203 39080.148967221379 37089.885870486498 45589.170100703835 27994.031394049525 35715.013671502471 29410.09221573174 26784.191670551896 25610.098202228546 42758.021503761411 40992.99700306356 34937.294990152121 24540.422520130873
leaf_count=165396 161984 163481 220778 172164 171599 211273 198615 129285 210589 228854 238003 101196 131497 102248 166482 160427 200349 211982 157178 149028 184314 113070 143069 118640 108011 102922 172385 165556 140433 99192
internal_value=5.92566e-06 0.0064437 -0.00861171 8.93832e-05 -0.0149056 0.0151998 0.00680663 0.000368222 -0.00835602 -0.00812709 0.0216164 -0.0235626 0.00641009 -0.00617869 -0.000845139 0.0139837 -0.00200689 -0.0157435 0.00879951 -0.000651439 0.0140323 0.029156 -0.0303094 0.00774114 0.00509147 -0.0176765 0.000494316 0.0127706 -0.0149328 0.0151392
internal_weight=1.24217e+06 711011 531159 412012 312284 298999 229485 218875 182526 175144 172830 137140 126170 123206 111069 118416 106737 93180.5 95669.5 89345.9 86160.6 86669.3 76967 69308.8 69602.5 68407.4 68209.5 73648.8 60172.6 56589.3
internal_count=5000000 2865116 2134884 1657922 1253818 1207194 924339 881066 733583 703724 698868 550094 508326 495411 446657 477682 429203 373966 385655 359617 347795 351073 308465 279067 280175 274521 274633 297053 241629 228477
is_linear=0
shrinkage=0.1


Tree=7
num_leaves=31
num_cat=0
split_feature=348 357 384 366 375 384 384 366 375 375 375 357 339 312 357 339 339 312 303 330 366 375 312 330 366 303 303 375 384 339
split_gain=6230.54 3437.94 3040.29 2121.6 1949.33 1482.24 1217.83 1206.78 989.561 822.253 809.83 793.481 719.58 704.894 647.762 600.608 575.82 561.414 537.431 500.509 493.592 484.164 425.886 423.636 408.404 393.677 388.534 382.713 351.656 348.78
threshold=0.49766397476196295 0.49367320537567144 0.51956644654273998 0.49105061590671545 0.51657524704933178 0.50394961237907421 0.51256591081619274 0.51041933894157421 0.51368770003318798 0.49138440191745764 0.51272776722908031 0.50851657986640941 0.5233493745326997 0.52212810516357433 0.51799586415290844 0.51549071073532116 0.49451145529747015 0.52708053588867199 0.51252716779708873 0.51741197705268871 0.51012858748435985 0.49079188704490667 0.5106908679008485 0.48366159200668341 0.51750689744949352 0.49204488098621374 0.49539297819137579 0.48550751805305487 0.51183110475540172 0.51667529344558727
decision_type=2 2 2 2 2 2 2 2 2 2 2 2 2 2 2 2 2 2 2 2 2 2 2 2 2 2 2 2 2 2
left_child=2 5 4 9 7 13 12 15 14 28 20 25 18 21 23 26 -9 27 -5 -11 -7 -2 -10 -4 -13 -6 -1 -8 -3 -12
right_child=1 3 8 6 11 10 17 16 22 19 29 24 -14 -15 -16 -17 -18 -19 -20 -21 -22 -23 -24 -25 -26 -27 -28 -29 -30 -31
leaf_value=0.011393482640024245 0.01368223434135768 0.012064951496920129 -0.001749483379265542 -0.023029387810057571 0.0023230180082144561 0.0082497664857637629 -0.021263708497840081 0.002325778380828202 -0.017410625627286038 -0.015041295438038652 -0.019735524440065082 0.0022944878139713053 -0.00069454860779501833 0.020364368363542416 -0.0063087843707313176 0.033937281371257476 0.017410035094609293 -0.013849123516536813 -0.0082101830275748688 5.6216394179693869e-05 -0.0070924458861793037 -0.0010064663358974868 -0.0027989131417209281 0.014705742887700277 -0.013478811992364618 0.016979146961067445 0.026128754323879844 -0.036368562859637125 -0.0030919654743566775 -0.0042163907947091695
leaf_weight=31633.586703464389 36735.886931329966 35163.020895421505 23108.509623274207 58459.880495786667 30668.37577444315 46302.96266900003 25449.352050378919 44704.243141084909 44574.77040719986 58379.85156391561 37816.127086400986 43353.387632191181 38142.352895364165 41367.015368580818 41532.948323473334 50294.836996033788 58323.66221383214 24782.722435072064 42092.904638037086 35197.066659167409 38327.486403524876 57664.522058784962 36104.854323640466 48443.391783356667 26417.902994781733 45545.246488034725 41199.727140560746 49208.069255486131 27107.914363726974 23468.972398594022
leaf_count=127754 148396 141819 93106 234345 123479 186496 102040 180022 178960 234251 151692 174455 153347 167233 167143 204714 235545 99399 169157 141456 153953 231952 145292 195973 106058 184211 167356 197154 108935 94307
internal_value=6.24181e-06 -0.00647686 0.00774678 -0.0125083 0.0130357 0.00195923 -0.0184449 0.0188506 -0.00241109 -0.00343737 -0.005038 0.0040275 -0.0123896 0.00947948 0.00362512 0.0255326 0.0108649 -0.0268905 -0.0168258 -0.00936267 0.00130158 0.00470964 -0.0108718 0.00939134 -0.00367785 0.0110815 0.0197288 -0.0312196 0.00546681 -0.0137925
internal_weight=1.24157e+06 675666 565905 393983 372141 281683 238135 226156 193764 155848 145916 145985 138695 135767 113085 123128 103028 99440.1 100553 93576.9 84630.4 94400.4 80679.6 71551.9 69771.3 76213.6 72833.3 74657.4 62270.9 61285.1
internal_count=5000000 2715932 2284068 1581903 1503594 1134029 955442 915391 780474 626461 586448 588203 556849 547581 456222 499824 415567 398593 403502 375707 340449 380348 324252 289079 280513 307690 295110 299194 250754 245999
is_linear=0
shrinkage=0.1


Tree=8
num_leaves=31
num_cat=0
split_feature=312 330 321 303 303 339 339 339 357 330 321 348 366 384 303 348 375 384 375 384 366 366 357 375 375 357 321 375 375 366
split_gain=5724.46 3457.33 2370.42 1932.08 1617.85 1377.53 1156.61 1063.32 971.671 840.475 805.407 744.906 681.787 614.129 603.757 558.89 497.16 483.804 438.586 437.56 436.931 422.043 403.837 396.544 382.354 346.982 340.12 310.11 307.983 306.904
threshold=0.49177679419517523 0.50997740030288707 0.49390192329883581 0.51662752032279979 0.49026496708393102 0.49301762878894811 0.51873680949211132 0.51549071073532116 0.51183524727821361 0.50672507286071788 0.49141763150691992 0.51670771837234508 0.4882208406925202 0.49421977996826177 0.51752337813377391 0.52007791399955761 0.51931822299957286 0.49169594049453741 0.50630769133567821 0.52090486884117138 0.520503729581833 0.51664063334465038 0.51645007729530346 0.51011377573013317 0.49172863364219671 0.52266058325767528 0.48591670393943792 0.49079188704490667 0.50820076465606701 0.509771227836609
decision_type=2 2 2 2 2 2 2 2 2 2 2 2 2 2 2 2 2 2 2 2 2 2 2 2 2 2 2 2 2 2
left_child=2 3 7 6 13 14 11 12 15 22 28 17 -1 -3 25 24 29 -2 -10 -11 -9 -8 -7 -14 -6 -4 -15 -13 -5 -12
right_child=1 4 5 10 8 9 21 20 18 19 16 27 23 26 -16 -17 -18 -19 -20 -21 -22 -23 -24 -25 -26 -27 -28 -29 -30 -31
leaf_value=-0.012327060737636158 0.0029007617083994259 0.012223104120442857 -0.011711401273230372 0.00604804470861683 0.037840221497539794 0.0019822434611614986 0.0085707886129893791 -0.0027877147911259345 0.017683937787223585 0.015438719216863565 0.025663117760278201 -0.010991715833254551 -0.021119125355863549 -0.010991198222895984 -0.0013952013572815453 0.014638215115900436 0.0038690864910551947 -0.011516179988772824 0.0037492774710210113 -7.7316603297096473e-05 -0.018003288480940256 -0.0056723954951849193 -0.012201203291350646 -0.035161670441688879 0.023631955121380815 -0.026740722900111341 0.0032539282974826805 -0.025474570196434749 -0.0079471877514633461 0.011484297075777127
leaf_weight=45599.196434736252 38618.198220476508 56242.018400266767 52062.356838315725 32418.664901673794 31872.681095778942 51110.838003158569 53665.79028865695 58379.742273390293 45469.879188165069 57610.788034543395 33300.532285660505 24279.769490256906 43452.858432427049 25482.984240725636 44448.787993222475 38104.439852759242 32482.539968341589 58593.575492411852 44882.706333428621 26551.575949057937 27888.479991227388 33973.960306316614 33058.544002190232 37432.829368427396 46678.804874837399 21790.828616127372 48970.379879236221 37804.837709620595 30534.196615889668 28188.05581253767
leaf_count=183071 155694 227198 209120 130773 130338 206024 216587 234831 184019 232872 135271 97508 174298 102356 178974 154067 130810 235392 180747 106897 111875 136472 132754 150039 189424 87346 197265 151523 122686 113769
internal_value=6.50562e-06 0.00558009 -0.00826998 -0.000663705 0.013047 -0.00233433 -0.00617749 -0.0162668 0.0185467 0.00347732 0.00801281 -0.0112538 -0.0221053 0.00433611 -0.0106037 0.0245762 0.0138765 -0.00578893 0.0107619 0.0105437 -0.00770655 0.00304935 -0.00358848 -0.0276178 0.029397 -0.0161459 -0.00162172 -0.0198107 -0.000740101 0.0191632
internal_weight=1.24095e+06 741564 499387 403860 337704 286634 246936 212753 207009 168332 156924 159296 126485 130695 118302 116656 93971.1 97211.8 90352.6 84162.4 86268.2 87639.8 84169.4 80885.7 78551.5 73853.2 74453.4 62084.6 62952.9 61488.6
internal_count=5000000 2991899 2008101 1626485 1365414 1153987 993176 854114 838595 678547 633309 640117 507408 526819 475440 473829 379850 391086 364766 339769 346706 353059 338778 324337 319762 296466 299621 249031 253459 249040
is_linear=0
shrinkage=0.1


Tree=9
num_leaves=31
num_cat=0
split_feature=321 366 366 303 339 339 384 348 312 375 312 312 357 312 348 330 357 357 339 384 384 375 312 303 357 303 303 348 357 339
split_gain=5174.22 3024.67 2222.37 1828.46 1337.92 1285.39 1124.31 915.76 816.544 798.803 760.268 657.341 552.462 538.347 537.618 536.674 517.777 501.6 493.947 478.417 468.04 368.494 368.28 350.535 342.41 335.951 334.196 332.237 306.804 298.648
threshold=0.5132201910018922 0.51325914263725292 0.49300357699394232 0.49074064195156103 0.51549071073532116 0.49052336812019354 0.49384155869483953 0.51051667332649242 0.48722626268863684 0.51011377573013317 0.51950278878211986 0.52847322821617138 0.5102013647556306 0.51971846818923961 0.49384133517742163 0.51308986544609081 0.52548190951347362 0.5192411243915559 0.48632496595382696 0.51390826702117931 0.51466950774192821 0.49428613483905798 0.51882228255271923 0.51814833283424389 0.50892177224159252 0.49830999970436102 0.51982396841049205 0.51787698268890392 0.52003192901611339 0.4878870695829392
decision_type=2 2 2 2 2 2 2 2 2 2 2 2 2 2 2 2 2 2 2 2 2 2 2 2 2 2 2 2 2 2
left_child=1 3 7 10 9 13 15 16 23 19 14 18 27 26 -1 29 21 25 -8 -3 28 -2 -11 -7 -20 -10 -4 -6 -9 -5
right_child=2 4 5 6 12 8 11 20 17 22 -12 -13 -14 -15 -16 -17 -18 -19 24 -21 -22 -23 -24 -25 -26 -27 -28 -29 -30 -31
leaf_value=-0.0047882050155179526 0.032709591440629369 -0.0065588719744414138 -0.015508579297755364 -0.0020430160860084043 0.0065634402796988 -0.0068497701193159692 -0.013154865091526519 0.019216322291789233 0.010053575388115653 -0.030680062605463868 0.0012073475554310136 0.011458585471065753 -0.012355655419089721 0.003425919017101162 -0.019088255774863661 0.021253939071104847 0.010017113092245383 0.0034319020240103381 0.0070864835489681741 -0.02074957955859609 -0.00024177906332086731 0.01962345783838455 -0.016744821103876272 0.0082741522243575411 -0.0065436243834635401 0.023324258176489733 -0.001610041970891243 -0.0081260071533875017 0.0036477692096177176 0.012226221090593433
leaf_weight=45108.435550615191 37824.84990529716 57598.592846751213 51761.206414148211 23052.842474803329 42089.720335111022 43037.142909273505 39319.460664168 37789.997666358948 35680.947886750102 53567.891670450568 56299.904578983784 35728.942456305027 55115.007069706917 39897.065520524979 63020.856531947851 45684.873367369175 29845.778346568346 40872.536276042461 39421.071883887053 40435.706251502037 38839.958020761609 49914.032756388187 29358.880576908588 23799.958488792181 34614.752397328615 40991.171414792538 25986.327371805906 24278.441794738173 19033.261472210288 40324.020314469934
leaf_count=181394 155066 231547 207765 92841 169652 173001 158026 153079 143961 214837 226692 144332 221265 160891 252815 185609 120667 164637 159290 162262 156282 202631 117791 96022 139161 166518 104650 97517 76690 163109
internal_value=6.66293e-06 -0.00543842 0.0076682 2.58776e-05 -0.0130731 0.00214985 0.00527573 0.0154839 0.00736087 -0.0185227 -0.00821614 -0.00036884 -0.00495555 -0.00601726 -0.0131227 0.0129917 0.0213947 0.012379 -0.00409678 -0.012412 0.00821866 0.025265 -0.0257465 -0.00146431 0.000713855 0.0171485 -0.0108631 0.00118983 0.0140016 0.0070359
internal_weight=1.24029e+06 725019 515274 422575 302444 302026 258146 213248 184382 180961 164429 149084 121483 117645 108129 109062 117585 117545 113355 98034.3 95663.2 87738.9 82926.8 66837.1 74035.8 76672.1 77747.5 66368.2 56823.3 63376.9
internal_count=5000000 2918140 2081860 1703269 1214871 1217445 1042368 864415 744139 726437 660901 600809 488434 473306 434209 441559 478364 475116 456477 393809 386051 357697 332628 269023 298451 310479 312415 267169 229769 255950
is_linear=0
shrinkage=0.1


Tree=10
num_leaves=31
num_cat=0
split_feature=330 357 384 348 384 375 303 348 348 375 357 321 375 348 360 312 384 303 375 366 357 375 321 366 312 312 384 339 339 303
split_gain=4849.37 3057.82 1928.7 1793.53 1247.88 1151.21 1139.87 832.805 664.966 646.732 646.35 609.871 566.496 552.725 492.526 470.221 469.962 440.5 423.44 398.636 386.501 378.73 374.49 347.2 330.773 309.752 309.476 305.298 303.601 296.204
threshold=0.51741197705268871 0.48907981812953955 0.49300068616867071 0.51949629187583934 0.51048400998115551 0.49408654868602758 0.50817710161209118 0.51223576068878185 0.51949629187583934 0.49517370760440832 0.51692351698875438 0.50791552662849437 0.49260206520557409 0.49213111400604254 1.0000000180025095e-35 0.52847322821617138 0.52052423357963573 0.52036368846893322 0.51630216836929332 0.52012559771537792 0.49321860074996954 0.51681363582611095 0.52602133154869091 0.52092784643173229 0.52027165889740001 0.49079148471355444 0.49258637428283697 0.48696993291378027 0.51405462622642528 0.48840208351612097
decision_type=2 2 2 2 2 2 2 2 2 2 2 2 2 2 2 2 2 2 2 2 2 2 2 2 2 2 2 2 2 2
left_child=1 5 7 4 10 14 11 15 16 27 18 24 -6 -8 17 22 28 26 -2 -14 -11 -9 -3 -15 -4 -13 -1 -5 -7 -12
right_child=3 2 6 9 12 8 13 21 -10 20 29 25 19 23 -16 -17 -18 -19 -20 -21 -22 -23 -24 -25 -26 -27 -28 -29 -30 -31
leaf_value=0.017768444183306989 0.028383008149100965 -0.003948796214657292 -0.031835927644759447 -0.0022890822791068574 0.013173387422397532 0.0015946343285639934 -0.00072189567962310504 -0.0043225336119823458 -0.010935473997308215 0.0016242772735368029 0.0016848713298422782 -0.022571198500638847 0.0050763070082752871 -0.0091769648898757297 -0.0013387662645856834 0.014975816115619836 -0.0070535558600755624 0.023904377576712675 0.015323033485646479 -0.0097426459889580538 -0.011752499491235651 -0.01788573489418303 0.011279149897416118 -0.023256029401748091 -0.01777709358125161 -0.0091593607015273051 0.0036830877323314627 0.011450690134798004 0.014626827333476254 0.015663588797949487
leaf_weight=26122.51385897398 62500.782547563314 64564.68848657608 51639.613500535488 25020.574825242162 56772.492239117622 43277.400888353586 55642.480985283852 53511.749380454421 56457.071406051517 36850.930017009377 24114.012706562877 28458.517596900463 54941.381847545505 54717.597985059023 26687.984979912639 27044.249548465014 35299.303374305367 30658.974986284971 41185.368620857596 27109.838575407863 52190.426345020533 33460.995267748833 21536.261397570372 25763.014333084226 24759.027473062277 43605.974669992924 38720.127842724323 45729.033721730113 30455.826276272535 40816.590280264616
leaf_count=106041 255630 260074 207219 100773 229983 174524 224305 215304 226798 148460 97068 114111 221506 219814 108101 109450 142017 124749 166878 108926 209486 134275 87098 103295 99261 175160 156090 184918 123379 165307
internal_value=6.77371e-06 -0.00485784 -0.0097052 0.00804851 0.0125152 0.00330936 -0.0149949 -0.00218278 -0.00212634 -0.000545444 0.018296 -0.021055 0.00549376 -0.00838546 0.0106713 0.00347313 0.00243504 0.0140275 0.0231954 0.000180104 -0.00621635 -0.0095407 -0.00013986 -0.0136839 -0.0272798 -0.0144557 0.00935752 0.00659162 0.00697764 0.0104722
internal_weight=1.23961e+06 772383 484704 467231 307440 287679 284586 200118 165490 159791 168617 148463 138824 136123 122190 113145 109033 95501.6 103686 82051.2 89041.4 86972.7 86100.9 80480.6 76398.6 72064.5 64842.6 70749.6 73733.2 64930.6
internal_count=5000000 3111065 1949366 1888935 1245298 1161699 1143165 806201 666718 643637 684883 595751 560415 547414 494981 456622 439920 386880 422508 330432 357946 349579 347172 323109 306480 289271 262131 285691 297903 262375
is_linear=0
shrinkage=0.1


Tree=11
num_leaves=31
num_cat=0
split_feature=339 303 321 312 375 384 366 303 348 384 330 312 321 348 330 348 375 312 357 321 375 366 348 312 330 366 366 330 366 330
split_gain=4369.57 2824.37 1629.82 1622.16 1293.64 1263.69 1022.1 772.845 723.571 616.79 588.012 558.416 548.399 539.706 440.125 411.536 399.471 373.705 350.862 342.139 332.184 309.504 301.349 297.035 290.067 287.975 267.107 264.578 250.616 248.975
threshold=0.4878870695829392 0.49480521678924566 0.48780436813831335 0.53105527162551891 0.51088353991508495 0.51282995939254772 0.50677666068077099 0.49539297819137579 0.49077931046485906 0.51020929217338573 0.5151694416999818 0.51267471909523021 0.49728573858737951 0.50822854042053234 0.48976550996303564 0.512426257133484 0.49037215113639837 0.49225100874900823 0.52692320942878734 0.48780436813831335 0.51272776722908031 0.52923855185508739 0.50867602229118358 0.52269360423088085 0.48252333700656896 0.49105061590671545 0.52585795521736156 0.48366159200668341 0.49044027924537664 0.52148622274398815
decision_type=2 2 2 2 2 2 2 2 2 2 2 2 2 2 2 2 2 2 2 2 2 2 2 2 2 2 2 2 2 2
left_child=3 4 10 5 8 7 11 19 21 18 17 24 26 20 -10 27 -5 -3 28 -1 -8 -2 -14 -16 -4 -11 -7 -9 -6 -15
right_child=1 2 6 16 9 12 13 15 14 25 -12 -13 22 29 23 -17 -18 -19 -20 -21 -22 -23 -24 -25 -26 -27 -28 -29 -30 -31
leaf_value=-0.021203574142919446 0.014592245048496487 -0.010667094119997502 0.0062203633098226584 0.011085210072001842 0.008354699020076085 -0.021216466795181937 0.020072889872318079 -0.0044135295524722513 -0.0093699010817917035 -0.0079005765334119425 0.0091786100404310563 0.027844892523761697 -0.0068212525042585627 -0.0023926887526431856 -0.00085701065322160209 -0.0075042995113298958 -0.0017372028710485651 0.0020248619835294586 -0.014281471996528123 -0.0082931083769571395 0.0063455798605888004 -0.00067490126818266585 -0.019166040538059217 0.013181580727510023 0.01911451380465962 -0.020865446426143585 -0.03576018786729223 0.009244421098861387 -0.0044513618661829032 0.010911482570620329
leaf_weight=32104.580709636211 56929.175206780434 39139.149730801582 25400.488105997443 39326.506432846189 24829.120096325874 49329.240374565125 41909.860485300422 21126.410479590297 44842.890086025 28248.065261080861 64856.143178462982 59292.092302665114 42102.189932137728 44994.675954580307 52036.349450722337 47689.566141605377 63573.51642934978 56963.12601916492 21478.970688015223 56918.652822196484 30426.077699318528 17317.916046768427 37287.236276835203 21216.801189884543 55716.154244214296 43538.291734218597 16972.941436812282 43158.282564237714 39743.346383467317 20463.643319666386
leaf_count=128858 230805 157238 102844 159244 100213 197996 170550 85162 180160 113469 262754 242643 169497 181075 209501 191762 256029 229761 86198 228991 122859 69793 149589 85791 226927 174623 68132 175108 159746 82682
internal_value=6.74223e-06 0.00448873 0.00983022 -0.00786228 -0.00221002 -0.0111347 0.014464 -0.00599465 0.00329587 -0.00891957 0.00182116 0.0204686 -0.0182261 0.00834544 -0.00156735 -0.000465692 0.00316329 -0.00314413 -0.00320998 -0.012949 0.0142989 0.0110312 -0.0126193 0.00320908 0.0150769 -0.0157637 -0.0249396 0.0047559 0.000472768 0.00176647
internal_weight=1.23893e+06 789342 439161 449589 350181 346689 278203 200997 192343 157838 160958 140409 145692 137794 118096 111974 102900 96102.3 86051.4 89023.2 72335.9 74247.1 79389.4 73253.2 81116.6 71786.4 66302.2 64284.7 64572.5 65458.3
internal_count=5000000 3189632 1779333 1810368 1410299 1395095 1129580 809881 776050 634249 649753 572414 585214 557166 475452 452032 415273 386999 346157 357849 293409 300598 319086 295292 329771 288092 266128 260270 259959 263757
is_linear=0
shrinkage=0.1


Tree=12
num_leaves=31
num_cat=0
split_feature=357 366 348 375 375 384 312 312 5 375 384 339 366 339 366 330 384 369 321 312 384 330 375 303 366 339 303 330 303 321
split_gain=4120.51 2619.95 1615.15 1491.58 1060.42 966.548 954.679 831.002 737.917 676.879 652.849 633.997 599.019 503.088 492.229 420.313 360.28 355.528 350.975 346.343 322.464 319.825 318.07 297.522 291.831 286.876 280.621 280.258 256.714 253.62
threshold=0.51877498626708995 0.49105061590671545 0.51418328285217296 0.49037215113639837 0.52782136201858532 0.52052423357963573 0.52349609136581432 0.51308012008667003 1.0000000180025095e-35 0.49517370760440832 0.5069277584552766 0.52000606060028087 0.51325914263725292 0.51485133171081554 0.48999987542629247 0.48431642353534704 0.51282995939254772 1.0000000180025095e-35 0.47831363976001745 0.52910393476486217 0.51637592911720287 0.50596228241920482 0.48814153671264654 0.51322075724601757 0.46726195514202123 0.49301762878894811 0.52728596329689037 0.49269114434719091 0.51922920346260082 0.51200830936431896
decision_type=2 2 2 2 2 2 2 2 2 2 2 2 2 2 2 2 2 2 2 2 2 2 2 2 2 2 2 2 2 2
left_child=1 4 5 12 7 9 11 13 10 26 22 14 16 20 -5 -11 -2 24 -12 28 -1 -8 -4 -16 -9 -14 -3 -6 -7 -17
right_child=3 2 8 6 27 19 21 17 -10 15 18 -13 25 -15 23 29 -18 -19 -20 -21 -22 -23 -24 -25 -26 -27 -28 -29 -30 -31
leaf_value=0.0098009264340589552 0.0096993787768566569 0.011961935612096009 0.0045585523401661145 -0.012185698177142058 -0.0062282983196821819 -0.011772987615733744 -0.0093323873321829471 0.032455069214361351 0.012584458497751208 -0.0054449687109643305 -0.025748361795741248 -0.0078834363656780457 -0.015008707726758837 0.016949984635574185 -0.029775923738325456 0.0025050867639731852 -0.0024950696808886601 0.0099792237358368521 -0.011490197796442685 0.0070536910797266393 -0.0030105103084577959 0.0037094344548849094 -0.0076940893187410452 -0.017492562884392635 0.0199373167536116 -0.0020933100271688142 0.025403624680403282 0.0061579342650578267 0.00096452819498635668 0.014469512372347632
leaf_weight=49245.271149173379 57921.439580783248 64120.571135818958 33477.250592842698 50165.49377182126 30826.094792574644 45848.2686920017 37301.945156797767 30226.21653226018 17105.358785882592 36559.126546278596 23391.461164444685 64501.813906535506 29293.592575699091 56583.892664760351 48394.97745783627 40653.761771142483 41649.363060206175 20575.194282397628 65909.575109601021 21813.029055476189 32687.143638178706 37916.480354219675 57708.965987712145 33278.708267912269 48521.228723108768 41650.834034651518 20496.06541004777 44839.071875542402 24160.870080173016 31403.355553895235
leaf_count=199715 234573 260351 135157 201555 124172 184306 149771 123584 68898 147140 93891 259308 117602 230476 194372 163900 167831 84136 264746 88096 131642 152847 232021 133546 198338 167691 83864 181521 97480 127470
internal_value=6.69593e-06 0.00430528 -0.000318057 -0.00773481 0.011423 0.00449824 -0.0123376 0.0147034 -0.00726623 0.00851227 -0.00914755 -0.0160075 -0.00040444 0.00969807 -0.0199822 0.00328836 0.00459858 0.0216839 -0.015225 -0.00394899 0.00468977 -0.0027582 -0.00319577 -0.024771 0.0247421 -0.00742619 0.0152178 0.00111177 -0.00737714 0.00771933
internal_weight=1.23823e+06 796152 482648 442075 313504 285055 271559 237839 197593 193233 180487 196341 170515 138516 131839 108616 99570.8 99322.6 89301 91822.2 81932.4 75218.4 91186.2 81673.7 78747.4 70944.4 84616.6 75665.2 70009.1 72057.1
internal_count=5000000 3220904 1947320 1779096 1273584 1152607 1091399 967891 794713 782725 725815 788781 687697 561833 529473 438510 402404 406058 358637 369882 331357 302618 367178 327918 321922 285293 344215 305693 281786 291370
is_linear=0
shrinkage=0.1


Tree=13
num_leaves=31
num_cat=0
split_feature=321 303 348 330 330 312 339 312 357 312 366 357 312 384 384 339 375 375 315 366 375 312 339 357 315 330 339 303 348 315
split_gain=3711.84 2355.82 1795.51 1489.09 1163.16 886.301 784.16 643.328 617.02 607.99 565.954 519.106 496.851 450.057 440.552 429.424 399.975 398.303 362.12 338.414 319.049 317.076 310.212 303.253 267.133 264.465 260.548 244.011 243.28 234.765
threshold=0.51687788963317882 0.52728596329689037 0.4869039803743363 0.49150232970714575 0.51910907030105602 0.48848277330398565 0.51896169781684887 0.5299043357372285 0.52377441525459301 0.48334723711013799 0.53278937935829174 0.526268631219864 0.48966570198535925 0.51956644654273998 0.52303785085678112 0.49862930178642279 0.51657524704933178 0.48962377011775976 1.0000000180025095e-35 0.51889288425445568 0.50820076465606701 0.45019289851188665 0.51645436882972728 0.48381534218788153 1.0000000180025095e-35 0.48267312347888952 0.5233493745326997 0.52036368846893322 0.52669155597686779 1.0000000180025095e-35
decision_type=2 2 2 2 2 2 2 2 2 2 2 2 2 2 2 2 2 2 2 2 2 2 2 2 2 2 2 2 2 2
left_child=1 2 7 9 6 18 12 11 14 29 15 16 24 22 19 -7 25 -6 21 -3 -14 -5 -11 -8 -4 -1 -19 -17 -23 -2
right_child=3 8 4 5 17 10 23 -9 -10 13 -12 -13 20 -15 -16 27 -18 26 -20 -21 -22 28 -24 -25 -26 -27 -28 -29 -30 -31
leaf_value=-0.0038821997307353414 -0.011784917850844265 0.017050848639684212 -0.0302700204169448 -0.011998770791174387 0.0031292670730888698 0.012839036845051012 0.00066345009539333787 0.010430935339466112 -0.0038403299776929574 0.0034406661837389618 0.0050480515038356837 -0.012955476505524434 -0.0098918575888900222 -0.0042503081277338595 -7.6587132297310887e-05 0.020010350262584742 -0.0069079376121081934 -0.011783623159022384 0.014765157817895187 0.0046830509381234862 -0.021324705915769421 0.0074962022024682405 0.01585259990483107 -0.012071349727590176 -0.013508144007169796 0.0091395206116199872 0.00089860474178117566 0.0322336760722573 -0.0066711246669500434 0.002376325401177555
leaf_weight=22857.903957650065 45295.273612260818 62032.548806801438 48426.554402291775 15191.341627195477 49310.279187142849 65395.271128535271 27678.699053913355 46422.882370501757 51346.291331350803 52138.743606105447 38300.097510352731 39092.573644146323 50355.887914091349 43745.254695251584 37972.801448240876 50988.239017233253 46356.543628245592 58512.400351107121 25125.808634549379 34388.75717549026 47371.032760635018 49590.576880216599 32806.246720328927 57637.987778127193 11830.645952060819 49097.429944515228 22401.128205746412 24027.900022983551 16041.619443073869 15786.685631260276
leaf_count=92144 182343 252425 194767 61435 199305 265711 111586 188136 206714 210778 155100 157161 202552 176148 153117 208186 186534 235176 101574 138799 190237 200827 133446 231593 47590 199199 90268 99033 64576 63540
internal_value=6.61548e-06 -0.00431172 -0.00746321 0.00695235 -0.0115827 0.0115267 -0.0156653 8.60095e-05 0.0054843 9.08391e-05 0.015823 -0.00296499 -0.0198372 0.0039904 0.00904685 0.0187621 0.00033606 -0.00395514 0.00427973 0.0126399 -0.0154337 0.0010201 0.00823423 -0.00793989 -0.0269791 0.00500294 -0.00827251 0.0239255 0.00403347 -0.00812493
internal_weight=1.23753e+06 763092 577352 474433 373525 284661 243301 203827 185740 189772 178712 157404 157984 128690 134394 140411 118312 130224 105949 96421.3 97726.9 80823.5 84945 85316.7 60257.2 71955.3 80913.5 75016.1 65632.2 61082
internal_count=5000000 3077303 2326248 1922697 1503074 1156442 978325 823174 751055 766255 728030 635038 635146 520372 544341 572930 477877 524749 428412 391224 392789 326838 344224 343179 242357 291343 325444 307219 265403 245883
is_linear=0
shrinkage=0.1


Tree=14
num_leaves=31
num_cat=0
split_feature=357 5 384 360 375 357 348 366 303 303 11 330 366 312 321 52 348 216 375 303 348 330 202 366 161 306 5 66 339 387
split_gain=3436.6 2251.17 2054.53 1513.72 1272.4 1253.6 807.547 777.05 718.479 506.541 491.636 489.387 472.5 452.167 424.363 368.21 356.586 345.678 343.115 338.152 334.231 330.33 322.879 307.076 304.378 284.955 284.022 271.52 270.517 267.2
threshold=0.48848971724510198 1.0000000180025095e-35 0.48850153386592871 1.0000000180025095e-35 0.49037215113639837 0.46478618681430822 0.48723474144935613 0.49079680442810064 0.51942798495292675 0.48303543031215673 1.0000000180025095e-35 0.52187812328338634 0.50677666068077099 0.52238675951957714 0.52805370092391979 1.0000000180025095e-35 0.49384133517742163 1.0000000180025095e-35 0.5180758833885194 0.5044955611228944 0.49255928397178655 0.52270272374153148 1.0000000180025095e-35 0.49456261098384863 1.0000000180025095e-35 1.0000000180025095e-35 1.0000000180025095e-35 1.0000000180025095e-35 0.48975561559200292 1.0000000180025095e-35
decision_type=2 2 2 2 2 2 2 2 2 2 2 2 2 2 2 2 2 2 2 2 2 2 2 2 2 2 2 2 2 2
left_child=3 2 7 5 9 14 23 18 13 25 12 19 -8 16 21 22 -7 24 29 -9 -11 28 26 -6 -3 -4 27 -5 -1 -2
right_child=1 17 4 15 6 8 10 11 -10 20 -12 -13 -14 -15 -16 -17 -18 -19 -20 -21 -22 -23 -24 -25 -26 -27 -28 -29 -30 -31
leaf_value=0.0032340456413145705 0.015950758197638342 0.016475430155190086 -0.014870220427192155 -0.0066875866196294395 -0.00047095658239201918 0.0044744339817881775 -0.013910486499169259 -0.012002833605438374 0.013303742637802757 0.0071306092668713648 0.0073738776271508547 0.0055311887047972096 -0.024486851183430258 0.0098672345161430614 0.027434702254846378 -0.032840847809545687 -0.0076203667514190805 -0.019753837841598412 0.00055281571270749839 -0.0011135706228906327 -0.0037516113897699613 0.023282336713468715 0.022820292401695856 -0.01167417817909619 -0.015714433532813127 0.0015990080405457884 0.014204520617755019 0.020506625256377392 0.015522397070217792 0.00019273050944977648
leaf_weight=28808.907266646624 50713.459743589163 61628.072673425078 42850.666728004813 82474.073694691062 43231.447472661734 41927.543933212757 84903.253108918667 56721.442291080952 72751.559465065598 47619.644752681255 7276.9477027803659 47733.452962994576 84063.068681314588 41397.581577003002 32477.136549279094 4173.6160244494677 58231.228610768914 3005.0582914799452 37292.697723507881 57352.889379799366 69291.915994420648 29875.185508787632 4785.6454137861729 56363.534444436431 3084.501538798213 13918.144337251782 8012.9051455557346 3842.6044993549585 47373.588052242994 13658.654161393642
leaf_count=116180 206518 249284 172370 334366 174455 170090 341229 228028 296796 193289 29236 193005 337793 168309 132503 16861 234547 12115 150534 231439 279158 121557 19474 226490 12433 55983 32634 15626 192060 55638
internal_value=6.46541e-06 -0.00402263 -0.00567752 0.00690262 -0.0097872 0.0100195 -0.0140089 0.00133412 0.00522709 -0.00308235 -0.0180763 -0.00297057 -0.0191724 0.00107617 0.0174331 -0.00374474 -0.00255735 0.0134015 0.00818539 -0.00652806 0.000680863 0.0143703 -0.00251954 -0.00681117 0.0149411 -0.0108324 -0.00380511 -0.00547697 0.0108755 0.0126072
internal_weight=1.23684e+06 780709 712991 456132 449519 352843 275838 263473 214308 173680 176243 161808 168966 141556 138535 103289 100159 67717.6 101665 114074 116912 106058 99115.2 99595 64712.6 56768.8 94329.6 86316.7 76182.5 64372.1
internal_count=5000000 3148997 2875165 1851003 1810003 1432042 1109203 1065162 869742 700800 708258 652472 679022 572946 562300 418961 404637 273832 412690 459467 472447 429797 402100 400945 261717 228353 382626 349992 308240 262156
is_linear=0
shrinkage=0.1


Tree=15
num_leaves=31
num_cat=0
split_feature=52 348 366 384 339 321 303 312 330 303 375 324 330 357 312 321 375 321 357 321 375 306 312 312 330 330 216 303 66 357
split_gain=3226.9 3026.6 2325.74 1772.49 1299.07 845.465 800.372 642.009 600.835 523.492 519.451 516.798 493.762 487.888 450.464 381.626 360.298 359.184 339.441 318.219 289.892 287.186 258.435 254.105 238.836 238.232 236.003 218.301 206.809 201.915
threshold=1.0000000180025095e-35 0.52669155597686779 0.52585795521736156 0.52640503644943248 0.51645436882972728 0.49377810955047613 0.52728596329689037 0.52910393476486217 0.53002169728279125 0.49994860589504247 0.51657524704933178 1.0000000180025095e-35 0.52721840143203746 0.53074303269386303 0.52349609136581432 0.52885755896568309 0.51741090416908275 0.47130304574966436 0.49922849237918859 0.53137341141700756 0.48657067120075231 1.0000000180025095e-35 0.52497580647468578 0.49307133257389074 0.51357275247573864 0.50765845179557811 1.0000000180025095e-35 0.47041970491409307 1.0000000180025095e-35 0.52206408977508556
decision_type=2 2 2 2 2 2 2 2 2 2 2 2 2 2 2 2 2 2 2 2 2 2 2 2 2 2 2 2 2 2
left_child=1 2 3 4 6 11 8 12 13 21 18 17 15 16 19 20 22 -3 -6 24 -4 27 -1 -11 -5 -12 28 -7 -2 -19
right_child=26 5 7 14 10 9 -8 -9 -10 23 25 -13 -14 -15 -16 -17 -18 29 -20 -21 -22 -23 -24 -25 -26 -27 -28 -29 -30 -31
leaf_value=0.0038057048226800916 -0.023648450192950518 -0.025461292295335575 -0.0064386136014988179 -0.01236369029679059 0.026228935569044105 -0.020819048279543551 0.014962437573959618 0.0047132110727451876 0.012443632823163103 -0.0042741150728011256 0.0043197536964333719 -0.0020971546001565785 0.0016060232484982552 -0.0095934694929717818 0.0064447839498350968 -0.0010454782627900992 -0.0035745484154052192 -0.0088701243164702251 0.015525475212844024 0.0043091230425466873 -0.017830029194801686 0.0023817205999405655 0.016439249397827038 0.0064492227889216339 -0.0019775533982576846 0.015596725058593325 -0.056883546727188684 -0.0081515994101542168 0.008882124565670382 -0.021463252504630364
leaf_weight=64189.701915130019 50810.348299190402 35541.930230081081 34313.217314481735 53574.855072572827 55217.080772906542 19906.768897458911 73738.926705345511 54573.207226663828 51907.714332103729 37467.055153205991 38128.832410633564 28229.688310697675 42490.616609424353 39458.825192421675 45591.593885302544 30462.498072192073 51698.279185593128 41206.59880630672 63936.648310214281 26870.182600259781 64021.947509810328 17316.20676857233 21654.415499970317 53871.322352528572 37735.463250473142 36827.251862004399 2061.803304001689 42970.341214880347 2032.4462238252163 18425.205369353294
leaf_count=259815 204880 142967 138264 215564 228093 80074 300422 220606 210795 150903 153932 113543 171544 158777 184662 122847 208293 165813 260307 108609 257503 69665 88324 218334 152277 149736 8296 172895 8205 74055
internal_value=6.33944e-06 0.00110778 0.00402752 0.00702283 0.00999719 -0.00766712 0.00590177 -0.00473226 0.00298304 -0.00312587 0.0163826 -0.0139795 -0.00774163 0.000208611 -0.00199907 -0.0108254 0.00302068 -0.0175039 0.0204856 -0.00525653 -0.0138551 -0.00902163 0.00699255 0.0020505 -0.00807145 0.00986033 -0.0236923 -0.0121621 -0.0223973 -0.0127612
internal_weight=1.23623e+06 1.18133e+06 886391 660530 496758 294935 302648 225861 228909 171532 194110 123403 171288 177001 163772 128798 137542 95173.7 119154 118181 98335.2 80193.3 85844.1 91338.4 91310.3 74956.1 54904.6 62877.1 52842.8 59631.8
internal_count=5000000 4778619 3590370 2679606 2018494 1188249 1226426 910764 926004 691871 792068 496378 690158 715209 661112 518614 556432 382835 488400 476450 395767 322634 348139 369237 367841 303668 221381 252969 213085 239868
is_linear=0
shrinkage=0.1


Tree=16
num_leaves=31
num_cat=0
split_feature=312 339 315 216 155 330 312 303 333 321 330 303 303 375 324 330 306 330 202 357 366 333 321 321 312 330 375 348 306 321
split_gain=3036.97 2106 1783.87 1212.8 1206.9 1065.02 1008.57 858.083 773.168 731.623 582.435 505.273 455.144 399.956 376.776 369.002 368.76 356.02 335.336 319.482 311.96 294.498 289.585 288.154 283.935 272.465 249.119 222.912 218.941 211.141
threshold=0.48334723711013799 0.51336714625358593 1.0000000180025095e-35 1.0000000180025095e-35 1.0000000180025095e-35 0.48267312347888952 0.46186730265617376 0.48644022643566137 1.0000000180025095e-35 0.48780436813831335 0.48431642353534704 0.48709203302860266 0.48840208351612097 0.5266304910182954 1.0000000180025095e-35 0.49058762192726141 1.0000000180025095e-35 0.45994932949543005 1.0000000180025095e-35 0.53074303269386303 0.49300357699394232 1.0000000180025095e-35 0.46087966859340673 0.48258499801158911 0.40704488754272466 0.52253964543342601 0.51792719960212719 0.49384133517742163 1.0000000180025095e-35 0.48923620581626898
decision_type=2 2 2 2 2 2 2 2 2 2 2 2 2 2 2 2 2 2 2 2 2 2 2 2 2 2 2 2 2 2
left_child=2 3 6 4 5 8 15 16 17 14 21 28 -11 23 22 -1 25 -2 24 26 -14 -9 -7 -12 -4 29 -13 -17 -8 -3
right_child=1 7 18 -5 -6 9 11 10 -10 12 13 19 20 -15 -16 27 -18 -19 -20 -21 -22 -23 -24 -25 -26 -27 -28 -29 -30 -31
leaf_value=-0.024746741421672103 -0.017212430692697133 -0.011178416970008837 -0.0028949359260953336 -0.025132636554690349 -0.015801806723426969 -0.012781947525920377 -0.016247466405998778 0.0023050524951529244 0.0077751919746149789 0.00260907497365665 0.012289794302326601 0.0046876861284396972 0.018860322873354183 0.0078518966030969046 0.0098331084802793581 -0.0072275016066406786 0.012540508940634144 -0.0051230144747226114 0.032070336009562182 -0.012053784663945704 0.0083994571113725665 0.016839821447245846 -0.00028103821197962575 0.023255911737733722 0.0080744176154145739 0.008090765538758829 -0.0063339759676875164 -0.018226619933622252 -0.001453152124347286 0.00052427722727556899
leaf_weight=48309.074424222112 39179.070087403059 24707.267747819424 42358.731353893876 19611.750363573432 42615.718097388744 28147.504453346133 50703.914520159364 56130.488104134798 33529.383048191667 68955.397434696555 35100.634055092931 56155.870951399207 49687.874450877309 37723.462592944503 23373.273693993688 32044.622542977333 28838.160753488541 64398.454560145736 4204.7343882471323 25437.817209199071 66878.367674902081 18546.057996541262 54237.860126376152 75508.385568231344 53275.363028898835 26780.567304104567 32304.979602620006 43353.248718947172 12461.646685674787 41001.452115297318
leaf_count=194480 157919 99402 170820 79050 171676 113551 204125 227666 135124 278530 143029 227468 203841 153135 94306 129763 116624 259592 17003 102324 271282 75204 218843 311021 214845 108692 130071 174551 50160 165903
internal_value=6.32879e-06 0.00344047 -0.00715111 -0.000766985 0.000247559 0.00184414 -0.0109957 0.00943531 -0.00542339 0.005265 0.0131174 -0.0061555 0.00904898 0.0167434 -0.00137285 -0.0179236 0.0026674 -0.00969594 0.00443103 -0.00217737 0.0128585 0.00591479 -0.00455206 0.0197759 0.00321582 -0.000411039 0.00066269 -0.0135519 -0.0133288 -0.00387608
internal_weight=1.23556e+06 834951 400610 490615 471003 428387 300771 344336 137107 291280 223009 177064 185522 148332 105759 123707 121327 103578 99838.8 113899 116566 74676.5 82385.4 110609 95634.1 92489.3 88460.9 75397.9 63165.6 65708.7
internal_count=5000000 3384390 1615610 1983714 1904664 1732988 1212942 1400676 552635 1180353 910055 714148 753653 607185 426700 498794 490621 417511 402668 459863 475123 302870 332394 454050 385665 373997 357539 304314 254285 265305
is_linear=0
shrinkage=0.1


Tree=17
num_leaves=31
num_cat=0
split_feature=384 375 66 202 5 366 387 384 330 66 357 366 348 321 312 28 348 330 321 303 357 303 155 375 303 357 216 330 348 339
split_gain=2869.31 1627.03 1299.01 1171.36 1116.37 1077.21 1003.53 1214.63 668.177 654.894 602.866 525.349 471.899 422.926 342.861 324.178 319.014 315.462 294.146 283.768 272.06 261.355 249.286 247.592 236.775 230.274 226.882 209.213 207.468 203.478
threshold=0.49300068616867071 0.51707461476326 1.0000000180025095e-35 1.0000000180025095e-35 1.0000000180025095e-35 0.51774588227272045 1.0000000180025095e-35 0.46393750607967382 0.52009943127632152 1.0000000180025095e-35 0.51153635978698742 0.51388549804687511 0.48776032030582434 0.52131429314613353 0.51267471909523021 1.0000000180025095e-35 0.54090008139610302 0.49150232970714575 0.49105262756347662 0.48359510302543646 0.53074303269386303 0.49026496708393102 1.0000000180025095e-35 0.48468582332134252 0.47925789654254919 0.53074303269386303 1.0000000180025095e-35 0.51266807317733776 0.51418328285217296 0.52730730175971996
decision_type=2 2 2 2 2 2 2 2 2 2 2 2 2 2 2 2 2 2 2 2 2 2 2 2 2 2 2 2 2 2
left_child=2 5 3 4 6 9 7 18 12 10 14 16 29 17 27 21 20 -7 -1 -14 -9 -12 26 -13 -10 -21 -8 -2 -19 -3
right_child=1 8 -4 -5 -6 13 22 11 24 -11 15 23 19 -15 -16 -17 -18 28 -20 25 -22 -23 -24 -25 -26 -27 -28 -29 -30 -31
leaf_value=0.0068666659719320289 -0.0014831291010455514 -0.0099248162217720395 0.030776794216459503 0.024692307316161354 0.01928422669879027 -0.016387293334532673 -0.0047892116940500586 0.0093550240606376494 -0.011537745009293009 0.027433874949277473 -0.0097380168915095697 0.0020286117587475501 -0.024236310898476571 0.00080896243621778714 0.012367468034612817 0.022569763089283955 -0.0065048388023528818 -0.0011868545184186303 0.017526369114241266 -0.010864652753062948 -0.0026062653102603287 1.2046804282727733e-05 -0.024981870794425778 -0.0089083786088999719 -3.613308024418024e-06 -0.02358988238240127 -0.03068195015433621 0.0084272229487905564 -0.012385732475435521 0.0028028253259930027
leaf_weight=43354.74483782053 50650.989435732365 51613.092404037714 19965.593403697014 27782.852226853371 41056.83542445302 46511.237285494804 74732.787156715989 84114.080154761672 24148.684948250651 10976.434995517135 45443.981370329857 30620.560418903828 39134.678899854422 52388.116040438414 62872.81939484179 4843.7773582488298 22196.545641645789 40859.836859956384 64248.108908161521 60942.813300058246 24570.034494876862 69597.9049012959 7555.9491121321917 63878.914730742574 67674.850883588195 18548.614760622382 3544.6117689609528 36761.982673183084 27796.052078709006 16601.025595232844
leaf_count=175188 204620 207689 81450 113329 167809 187013 303517 344120 97034 44664 182764 124035 157657 211545 257384 19602 89772 164951 261789 245076 99451 281310 30539 257518 272988 74535 14336 149663 111695 66957
internal_value=6.28829e-06 -0.00402042 0.00577613 0.00475255 0.00354791 -0.000293228 0.00200527 0.00449052 -0.0100219 0.0034893 0.00251649 0.000317366 -0.0134547 -0.00664009 0.00673555 -0.00277242 0.00441981 -0.0100286 0.0132314 -0.0172657 0.00665096 -0.00383943 -0.00763606 -0.00536448 -0.00303698 -0.013834 -0.0059617 0.00268472 -0.00572084 -0.00682734
internal_weight=1.23499e+06 727367 507622 487656 459873 448703 418816 332983 278664 281148 270171 225380 186840 167555 150286 119886 130881 115167 107603 118626 108684 115042 85833.3 94499.5 91823.5 79491.4 78277.4 87413 68655.9 68214.1
internal_count=5000000 2937147 2062853 1981403 1868074 1815211 1700265 1351873 1121936 1140007 1095343 914896 751914 675204 611667 483676 533343 463659 436977 477268 443571 464074 348392 381553 370022 319611 317853 354283 276646 274646
is_linear=0
shrinkage=0.1


Tree=18
num_leaves=31
num_cat=0
split_feature=339 348 342 339 312 351 216 348 303 348 321 306 321 366 321 339 178 357 303 324 330 357 312 303 366 357 348 330 216 321
split_gain=2649.79 1690.87 1332.95 1257.01 1035.35 850.742 790.592 754.046 740.259 534.834 487.194 436.423 423.803 387.805 363.339 335.093 331.146 327.743 306.746 287.319 280.733 273.856 242.621 236.897 233.368 218.165 206.115 200.906 193.595 189.24
threshold=0.4878870695829392 0.49077931046485906 1.0000000180025095e-35 0.46283148229122167 0.52406921982765209 1.0000000180025095e-35 1.0000000180025095e-35 0.46557210385799414 0.48431850969791418 0.52669155597686779 0.48290827870368963 1.0000000180025095e-35 0.51719519495964061 0.50822481513023388 0.53061485290527355 0.42350783944129949 1.0000000180025095e-35 0.51692351698875438 0.53118491172790538 1.0000000180025095e-35 0.49475361406803137 0.51692351698875438 0.52187269926071178 0.46505230665206915 0.49105061590671545 0.526268631219864 0.52471846342086803 0.51793268322944652 1.0000000180025095e-35 0.48553763329982763
decision_type=2 2 2 2 2 2 2 2 2 2 2 2 2 2 2 2 2 2 2 2 2 2 2 2 2 2 2 2 2 2
left_child=2 5 3 13 6 7 8 22 11 12 19 23 21 25 18 -4 20 27 24 -10 -6 -5 -2 -3 -9 -1 -15 -12 -7 -22
right_child=1 4 15 9 16 28 -8 14 10 -11 17 -13 -14 26 -16 -17 -18 -19 -20 -21 29 -23 -24 -25 -26 -27 -28 -29 -30 -31
leaf_value=-0.0083662519575808999 0.015921577326885827 -0.017750440377760766 -0.0013910834084464958 -0.0016559977268956962 0.0032005509629874892 0.0003974690002920213 -0.025302270713766589 0.008730814516473142 -0.00894125740652915 -0.013201563598313962 0.0047434363117560127 0.0027243344578360439 0.0046632662987608807 -0.019381981794452371 0.016924255999650788 0.010233434883798881 -0.015710888014519839 -0.0013313589718473642 0.014867613147519394 0.0058231943807179071 0.0055386416392018533 -0.012128179939539614 0.027257436199943502 -0.0073001805783505652 -0.0016312151095726531 -0.021834099120154479 -0.032741833190358616 0.014410155982588491 -0.027028913279189701 0.01661625559085864
leaf_weight=48881.614025786519 62986.680217161775 38900.173141762614 52692.606406450272 65269.096430584788 54105.500487431884 63702.848705545068 15224.220068499446 35625.082892000675 54673.297319546342 54090.838547497988 58237.087389752269 26463.597520008683 63696.563169896603 45005.891931399703 33469.030567988753 46842.832742094994 5878.0500440448523 57002.135410010815 25216.580750644207 17367.272934138775 23414.347863301635 40446.189889371395 26963.248647287488 49037.578978791833 55743.255756214261 15953.417587950826 15533.765857964754 34082.226562529802 2682.0537495464087 45174.39128702879
leaf_count=198043 256278 156603 212714 263687 218594 259855 61334 145722 220345 217743 236040 106549 258190 181341 137478 189107 23756 229925 103357 69995 94863 162781 110741 197449 225566 64233 62529 139420 10880 184882
internal_value=6.1459e-06 0.00350581 -0.00612784 -0.00904004 -0.000201623 0.00930869 -0.00301384 0.01208 -0.00200324 -0.00454435 0.00137227 -0.00853471 -0.00178022 -0.0170544 0.00774025 0.00407958 0.00747541 0.00463084 0.00510372 -0.0053819 0.00858622 -0.00566261 0.0193196 -0.011923 0.002409 -0.0116802 -0.02281 0.00831217 -0.0007106 0.0128347
internal_weight=1.23436e+06 785949 448413 348877 479560 306389 350988 240004 335763 223503 221362 114401 169412 125375 150054 99535.4 128572 149321 116585 72040.6 122694 105715 89949.9 87937.8 91368.3 64835 60539.7 92319.3 66384.9 68588.7
internal_count=5000000 3189632 1810368 1408547 1939755 1249877 1417660 979142 1356326 902401 895725 460601 684658 506146 612123 401821 522095 605385 474645 290340 498339 426468 367019 354052 371288 262276 243870 375460 270735 279745
is_linear=0
shrinkage=0.1


Tree=19
num_leaves=31
num_cat=0
split_feature=384 375 366 378 375 303 52 5 369 366 66 11 366 339 357 178 330 357 330 321 357 312 369 366 330 339 348 330 333 339
split_gain=2501.32 1897.17 1210.3 1050.05 991.859 743.057 685.596 630.567 621.806 568.375 558.258 566.664 500.449 483.026 463.228 390.601 332.258 330.558 319.442 291.435 279.406 255.501 238.984 228.654 220.089 208.07 207.597 204.822 203.13 195.996
threshold=0.52640503644943248 0.49079188704490667 0.48912203311920172 1.0000000180025095e-35 0.46477895975112921 0.51178404688835155 1.0000000180025095e-35 1.0000000180025095e-35 1.0000000180025095e-35 0.46189270913600927 1.0000000180025095e-35 1.0000000180025095e-35 0.48727972805500036 0.52457827329635631 0.49110141396522528 1.0000000180025095e-35 0.49329119920730596 0.52232068777084362 0.49235312640666967 0.51278609037399303 0.48450100421905523 0.52910393476486217 1.0000000180025095e-35 0.46726195514202123 0.48252333700656896 0.47728821635246282 0.50943478941917431 0.52913829684257518 1.0000000180025095e-35 0.50607115030288707
decision_type=2 2 2 2 2 2 2 2 2 2 2 2 2 2 2 2 2 2 2 2 2 2 2 2 2 2 2 2 2 2
left_child=1 3 8 4 19 13 7 10 9 -3 11 12 22 18 -6 16 -7 24 28 -1 -11 25 23 -2 -14 -16 -20 -5 -4 -18
right_child=6 2 5 27 14 15 -8 -9 -10 20 -12 -13 17 -15 21 -17 29 -19 26 -21 -22 -23 -24 -25 -26 -27 -28 -29 -30 -31
leaf_value=0.014313711835308968 0.0057739608302728573 0.015987464674778431 -0.019860471532666513 -0.0053187131158552179 0.012900365692459996 -0.0038419273299517675 -0.029698624621454769 0.0085745358466392738 -0.0053125079482894272 0.010840805828059439 0.013419287809568529 0.013135748889878056 -0.016962131358017142 -0.00028759053936695177 -0.0090020468023962758 -0.023157822457694044 0.0010131829005945792 -0.020266761920706301 -0.0031005942819930729 0.024967984200273952 4.90011348119429e-05 0.011375564298855863 -0.012950410027632836 -0.0061049458481792131 -0.0073623339761908282 0.0026261681817751513 -0.012889483970495545 0.0065730920181333629 -0.0052745836632605353 0.010626063027300403
leaf_weight=61907.58107085526 28165.134925588965 56481.06276999414 49352.713943108916 55698.909112051129 69616.099114105105 62036.884411051869 13643.274426400661 24554.979555919766 45844.879601731896 35835.385152488947 11479.334406018257 10961.00661803782 34986.041469916701 51845.36637750268 20208.422119021416 6594.4025231897831 42708.458888247609 49200.052262768149 46997.374242424965 43865.944603845477 72584.664166778326 24896.886284902692 22686.78546449542 38156.817519396544 75248.097099974751 64510.474831864238 40192.666989043355 19573.631234928966 11838.178386479616 42135.399448603392
leaf_count=251369 113885 229481 198966 226649 285962 249847 54933 99353 186106 146457 46410 44277 140785 209053 81497 26587 172544 198007 189550 180125 293867 101674 91676 154220 303516 261793 161656 80345 47705 171705
internal_value=5.99542e-06 0.0026091 -0.00100961 0.00827853 0.011053 -0.00458395 -0.0077821 -0.00677 0.00498932 0.00785337 -0.00816095 -0.00911593 -0.0100976 -0.00859678 0.00652109 0.000651257 0.0017202 -0.0134511 -0.0115001 0.0187322 0.00361595 0.00246967 -0.00409088 -0.0010603 -0.0104091 -0.000147568 -0.00761305 -0.00222641 -0.0170386 0.00578716
internal_weight=1.23381e+06 924725 564447 360278 285005 353701 309082 295438 210746 164901 270883 259404 248443 200226 179232 153475 146881 159434 148381 105774 108420 109616 89008.7 66322 110234 84718.9 87190 75272.5 61190.9 84843.9
internal_count=5000000 3752938 2283524 1469414 1162420 1427613 1247062 1192129 855911 669805 1092776 1046366 1002089 806930 730926 620683 594096 642308 597877 431494 440324 444964 359781 268105 444301 343290 351206 306994 246671 344249
is_linear=0
shrinkage=0.1


Tree=20
num_leaves=31
num_cat=0
split_feature=321 312 348 315 312 303 366 202 357 330 357 357 357 303 384 360 330 303 384 339 348 339 339 52 387 360 384 357 366 375
split_gain=2389.99 1838.52 1151.87 1032.88 799.636 738.054 627.116 490.195 470.756 460.149 425.246 395.375 368.94 312.48 312.302 292.22 270.51 261.888 246.858 245.609 232.744 226.515 224.55 211.014 203.89 189.44 187.501 176.525 176.235 169.808
threshold=0.5274067521095277 0.48848277330398565 0.51622325181961071 1.0000000180025095e-35 0.46321871876716619 0.51897242665290844 0.53278937935829174 1.0000000180025095e-35 0.50647988915443432 0.52913829684257518 0.48381534218788153 0.48907981812953955 0.53074303269386303 0.52312150597572338 0.48024669289588934 1.0000000180025095e-35 0.48267312347888952 0.4797347784042359 0.51466950774192821 0.53116822242736828 0.51622325181961071 0.52665627002716076 0.52916312217712413 1.0000000180025095e-35 1.0000000180025095e-35 1.0000000180025095e-35 0.47490392625331884 0.522789627313614 0.4882208406925202 0.51447618007659923
decision_type=2 2 2 2 2 2 2 2 2 2 2 2 2 2 2 2 2 2 2 2 2 2 2 2 2 2 2 2 2 2
left_child=1 3 5 4 17 9 7 10 18 12 15 25 14 20 24 -2 -7 -1 -4 -10 -12 28 29 -5 -3 -6 -18 -19 -13 -16
right_child=6 2 8 23 11 16 -8 -9 19 -11 13 21 -14 -15 22 -17 26 27 -20 -21 -22 -23 -24 -25 -26 -27 -28 -29 -30 -31
leaf_value=-0.02700006863146806 0.019250519461403343 0.013488767165233367 0.0037919089227763918 0.0032582180518985824 0.001842610107086214 0.0039032564762133295 -0.00088664015350939742 0.030583735638771561 -0.011604058776749832 0.0093059168818166362 0.0070422669728274134 -0.0071866901176463457 -0.009780971949924647 0.013295145392054822 -0.00035178656191552088 0.0048730276714471004 0.02256658729995854 -0.01217634253588497 -0.0056780137386969534 -0.00055809557646967569 -0.0023261305988276407 -0.002628513892986831 0.0070404985082738892 -0.021779242449597488 -0.0039422533923670136 -0.011879098520344153 0.011335183157101306 -0.023215420956755772 -0.016774706224405377 -0.0098382742466941887
leaf_weight=26010.20798689127 53070.353558167815 26971.659039586782 67781.753969758749 71627.777231812477 51422.18707986176 39938.231470584869 66449.298264294863 11138.249780774117 89291.095643430948 52890.398695349693 66367.785740554333 30054.828100338578 39944.542524337769 43609.923630475998 45760.065820977092 19269.451784104109 19236.215533971786 51450.011953353882 46349.7857465446 25988.571798846126 44165.499918311834 26144.955042049289 22694.860272601247 3532.1264880746603 8932.9151881933212 12508.789422437549 65395.688188180327 20162.509865626693 52935.393776208162 32108.871792346239
leaf_count=104895 218342 109987 274963 289026 208064 162155 268619 45841 359505 215643 269961 121134 160881 178263 185487 78994 79823 207783 186796 104798 178118 105418 92268 14231 36336 50532 268145 81185 213500 129307
internal_value=5.79172e-06 -0.00251263 0.00091267 -0.0082895 -0.0111692 0.00449071 0.00770121 0.0101027 -0.00460656 0.00112465 0.00909551 -0.00708709 -0.00132818 0.00612706 0.00114597 0.0154207 0.0106868 -0.0184059 -5.39069e-05 -0.00911386 0.00329896 -0.0107453 -0.00171245 0.00208159 0.009152 -0.000842191 0.013888 -0.0152844 -0.0133024 -0.00426349
internal_weight=1.2332e+06 929133 583285 345849 270689 353873 304071 237621 229411 229303 226483 173066 176413 154143 136468 72339.8 124570 97622.7 114132 115280 110533 109135 100564 75159.9 35904.6 63931 84631.9 71612.5 82990.2 77868.9
internal_count=5000000 3761862 2366094 1395768 1092511 1440032 1238138 969519 926062 929909 923678 698648 714266 626342 553385 297336 510123 393863 461759 464303 448079 440052 407062 303257 146323 258596 347968 288968 334634 314794
is_linear=0
shrinkage=0.1


Tree=21
num_leaves=31
num_cat=0
split_feature=202 321 324 330 155 333 216 178 321 230 303 191 339 330 375 312 321 161 303 384 357 191 66 80 366 312 330 348 348 339
split_gain=2259.44 2138.69 1486.31 1421.57 1047.9 997.938 955.078 928.037 909.78 869.266 844.084 621.038 566.485 538.331 398.5 389.804 293.057 277.542 273.755 248.913 236.442 230.864 211.422 204.081 202.769 202.22 197.706 193.262 192.63 179.465
threshold=1.0000000180025095e-35 0.48258499801158911 1.0000000180025095e-35 0.48252333700656896 1.0000000180025095e-35 1.0000000180025095e-35 1.0000000180025095e-35 1.0000000180025095e-35 0.45935814082622534 1.0000000180025095e-35 0.5265907645225526 1.0000000180025095e-35 0.52099734544754039 0.46322178840637213 0.5266304910182954 0.51249554753303539 0.41297839581966406 1.0000000180025095e-35 0.48570504784584051 0.52407100796699535 0.53193068504333507 1.0000000180025095e-35 1.0000000180025095e-35 1.0000000180025095e-35 0.48970329761505133 0.51674064993858349 0.41073410212993627 0.48204332590103155 0.5345587730407716 0.4949349462985993
decision_type=2 2 2 2 2 2 2 2 2 2 2 2 2 2 2 2 2 2 2 2 2 2 2 2 2 2 2 2 2 2
left_child=1 2 8 5 6 13 7 9 19 10 11 12 15 27 18 24 -4 21 -10 25 -15 23 -2 29 -5 -1 -7 -3 -20 -12
right_child=22 3 16 4 -6 26 -8 -9 14 -11 17 -13 -14 20 -16 -17 -18 -19 28 -21 -22 -23 -24 -25 -26 -27 -28 -29 -30 -31
leaf_value=-0.019563814509704503 0.018417171118662222 -0.0063712165208663811 -0.0020550185396886432 0.0058194761061515577 -0.0091693081390009281 0.00062797298293658594 -0.014504657155857229 -0.013955741654225782 -0.010157829011200548 -0.015748022297241732 0.012579758639694445 -0.012534547083590159 0.013515570861650171 -0.00062442471767508814 -0.014876010472027924 0.0093654600454321935 0.0090467788320528278 -0.0072621570132410627 0.0016824052975308026 -0.026816498842809851 -0.01213499715829267 -0.0030191770533492344 0.050579488972678124 0.037447868655542373 -0.0024184631913107477 -0.0087940115841378171 0.011770775977973477 -0.016958174489720361 -0.010112438248827424 0.021272953089997767
leaf_weight=46281.927661806345 53833.688043177128 24306.600081145763 46640.859048262239 49028.26544059813 48767.745199561119 29918.661653324962 21363.047253966331 20051.902063280344 45580.202514514327 14889.358890756965 42814.264177665114 16633.715863406658 100045.97653709352 82111.127462342381 43555.365992635489 92089.252669334412 48505.652130171657 4766.2664430439472 71091.085584849119 26371.599886476994 22801.052768394351 5263.2832429558039 2124.5455176085234 5361.7221504598856 76498.749060407281 27971.265566155314 34039.726744011045 59330.913999214768 17195.726484492421 53325.494215041399
leaf_count=186789 219777 98558 188378 199058 197163 120962 86409 81118 183775 60296 174800 67263 409309 332318 175547 375665 195937 19411 288122 106297 91830 21436 8735 22127 308618 113289 137646 239474 69245 220648
internal_value=5.61228e-06 -0.000928102 -0.00718358 0.00197765 0.00482551 -0.00423554 0.00618471 0.00710404 -0.0108753 0.00802063 0.00881444 0.00630115 0.00728744 -0.00789696 -0.00656745 0.00442415 0.00360467 0.0163476 -0.00386415 -0.0184708 -0.00312607 0.0174016 0.0196383 0.0184605 0.000799106 -0.0155068 0.00655836 -0.0138814 -0.00061489 0.0174016
internal_weight=1.23256e+06 1.1766e+06 373194 803407 550899 252508 502131 480768 278047 460716 445827 334296 317662 188550 177422 217616 95146.5 111531 133867 100625 104912 106765 55958.2 101501 125527 74253.2 63958.4 83637.5 88286.8 96139.8
internal_count=5000000 4771488 1507379 3264109 2243321 1020788 2046158 1959749 1123064 1878631 1818335 1359913 1292650 762180 716689 883341 384315 458422 541142 406375 424148 439011 228512 417575 507676 300078 258608 338032 357367 395448
is_linear=0
shrinkage=0.1


Tree=22
num_leaves=31
num_cat=0
split_feature=66 5 303 375 306 384 28 303 41 366 387 366 369 366 357 357 161 230 216 384 339 19 303 191 312 360 348 184 348 375
split_gain=2107.9 2134.5 1803.3 1237.86 1200.53 728.767 638.994 629.48 538.484 507.821 466.821 461.706 430.115 407.163 373.512 366.803 321.665 338.549 326.143 314.874 298.05 277.572 272.86 261.314 252.339 229.338 226.72 225.903 221.91 202.052
threshold=1.0000000180025095e-35 1.0000000180025095e-35 0.48303543031215673 0.51272776722908031 1.0000000180025095e-35 0.48335920274257665 1.0000000180025095e-35 0.45549367368221289 1.0000000180025095e-35 0.5251147747039796 1.0000000180025095e-35 0.47526264190673834 1.0000000180025095e-35 0.52877563238143932 0.48045635223388677 0.51479327678680431 1.0000000180025095e-35 1.0000000180025095e-35 1.0000000180025095e-35 0.46393750607967382 0.47554123401641851 1.0000000180025095e-35 0.40692707896232611 1.0000000180025095e-35 0.48690727353096014 1.0000000180025095e-35 0.52669155597686779 1.0000000180025095e-35 0.53919300436973583 0.53690341114997875
decision_type=2 2 2 2 2 2 2 2 2 2 2 2 2 2 2 2 2 2 2 2 2 2 2 2 2 2 2 2 2 2
left_child=1 2 4 5 7 10 8 -1 9 14 19 12 -7 20 25 28 17 18 21 -4 -9 23 -6 -3 -16 -5 29 -2 -13 -22
right_child=27 16 3 6 22 11 -8 13 -10 -11 -12 15 -14 -15 24 -17 -18 -19 -20 -21 26 -23 -24 -25 -26 -27 -28 -29 -30 -31
leaf_value=-0.019173250377779786 0.017498668276716724 0.016469334418891375 0.019564435647018406 0.0075485705159972303 -0.0040253184696665374 0.014189118309805232 0.016920791252351675 -0.01389628153837448 0.013273305294566782 -0.013243132116386528 -0.00034048792282130374 0.0045187866498708953 -0.0031217892028689489 -0.016602414803564391 -0.011539734429148001 -0.0057899861210085031 -0.013180530392333684 -0.017885189645156632 -0.012097092344942582 0.008469430474675084 0.0014840822817766472 0.045131923337434363 0.0072449967785459691 -0.0083428267192043881 -0.0030000454113365445 -0.0066671192384408322 -0.011203703317059169 0.036391113832089601 -0.0063539605396090359 -0.011062366028739156
leaf_weight=73763.792036578059 41191.845573380589 85131.63798776269 47321.926179617643 39463.210723146796 38795.492761597037 45099.417760163546 13779.604777857661 34756.39171642065 15102.620246857405 73489.272894695401 31520.806603685021 104806.73974432051 21053.374659076333 45476.345177546144 54951.052118659019 89065.858766615391 4562.2212354689837 3228.8963324576616 4238.6035940051079 55670.546483412385 70660.214349478483 3216.3103334605694 48134.553872853518 4467.3010619431734 93439.600073888898 15929.431534931064 27620.911806583405 7478.1688863486052 22867.150093153119 15685.031555429101
leaf_count=297911 167964 348111 194662 160388 156715 184696 55830 140253 61165 296077 129173 427581 86033 183352 221354 359481 18473 13079 17139 228446 286346 13238 194435 18106 377916 64609 111285 30601 92353 63228
internal_value=5.63921e-06 -0.000833259 -0.00215752 0.000706285 -0.0079963 0.00424863 -0.00412328 -0.011309 -0.00511508 -0.00611667 0.0103082 0.00136734 0.00867986 -0.00832191 -0.00354669 -0.000864575 0.0127883 0.0139698 0.0150295 0.0135672 -0.0057899 0.0162683 0.00221523 0.0152322 -0.00616241 0.00346052 -0.00331769 0.0204015 0.00257141 -0.000795041
internal_weight=1.23197e+06 1.1833e+06 1.07845e+06 723561 354893 417406 306155 267963 292375 277273 134513 282893 66152.8 194199 203783 216740 104845 100283 97053.9 102992 148723 92815.2 86930 89598.9 148391 55392.6 113966 48670 127674 86345.2
internal_count=5000000 4801435 4373289 2939764 1433525 1702425 1237339 1082375 1181509 1120344 552281 1150144 270729 784464 824267 879415 428146 409673 396594 423108 601112 379455 351150 366217 599270 224997 460859 198565 519934 349574
is_linear=0
shrinkage=0.1


Tree=23
num_leaves=31
num_cat=0
split_feature=216 155 230 178 191 312 330 339 333 330 339 161 303 202 11 321 66 202 169 41 254 324 348 330 11 321 303 80 34 28
split_gain=1968.9 1902.53 1753.34 1644.35 1643.4 1518.37 911.172 670.212 613.106 558.401 500.234 422.665 402.049 384.399 370.512 351.37 317.967 303.112 293.672 277.815 267.494 266.505 255.86 232.454 231.08 231.012 227.012 225.005 217.619 210.754
threshold=1.0000000180025095e-35 1.0000000180025095e-35 1.0000000180025095e-35 1.0000000180025095e-35 1.0000000180025095e-35 0.51308012008667003 0.49150232970714575 0.51187503337860119 1.0000000180025095e-35 0.46370802819728857 0.52510574460029613 1.0000000180025095e-35 0.48807506263256079 1.0000000180025095e-35 1.0000000180025095e-35 0.48106285929679876 1.0000000180025095e-35 1.0000000180025095e-35 1.0000000180025095e-35 1.0000000180025095e-35 1.0000000180025095e-35 1.0000000180025095e-35 0.48914279043674475 0.51437023282051098 1.0000000180025095e-35 0.48923620581626898 0.51776540279388439 1.0000000180025095e-35 1.0000000180025095e-35 1.0000000180025095e-35
decision_type=2 2 2 2 2 2 2 2 2 2 2 2 2 2 2 2 2 2 2 2 2 2 2 2 2 2 2 2 2 2
left_child=1 2 3 4 5 6 8 11 9 -1 13 12 -7 15 16 21 18 20 19 27 25 -8 -17 -14 -6 -9 -11 -3 -2 -4
right_child=28 14 29 -5 24 7 10 17 -10 26 -12 -13 23 -15 -16 22 -18 -19 -20 -21 -22 -23 -24 -25 -26 -27 -28 -29 -30 -31
leaf_value=-0.014268525146495218 -0.016699135859703802 -0.01552175065444596 -0.021885313068287324 -0.016442111974134109 -0.015647902042030142 0.00091595506936791721 -0.0086115002922512087 0.0069149260027477804 0.0064338649622031107 -0.0058088138926120168 0.011058394030517981 -0.014325432488201935 0.0064994076050119117 0.019833132218313246 0.016058605203141601 0.0086842051650182772 0.013237733374762153 0.032866325824288556 -0.043837345294700951 0.010698590982685231 0.027399811228542445 0.0056562400296300934 0.00066701320530124751 0.014914837190757349 0.018843800358340261 0.014966927414022949 0.0033965926432986421 0.012360783229952427 -0.034923887288189022 0.019362201231320791
leaf_weight=60530.54378362 41516.564857438207 86393.600541740656 32562.334877341986 42555.181961715221 47011.137186050415 78303.115401297808 49147.804393827915 57435.445609778166 46370.491782903671 72351.880524158478 85830.227737724781 10081.466227948666 81028.055713459849 11768.234178215265 4520.6596079319715 64723.578494638205 4354.152066603303 8103.1506908684969 3271.3811753094196 4566.9467063397169 12035.703949555755 17845.148373156786 103402.35199312866 55173.582651689649 2026.0864312052727 93855.527266278863 42540.825683623552 2994.5081345140934 7779.7547304332256 1287.7284660041332
leaf_count=244425 167637 348719 131514 171844 189946 316537 198312 233637 187276 292159 350433 40733 329215 48106 18277 264239 17646 33785 13188 18457 49848 72010 418485 227044 8201 387509 172110 12099 31394 5215
internal_value=5.58325e-06 0.000822172 0.00208198 0.00280951 0.00362913 0.0045501 0.0011725 0.00927949 -0.00379237 -0.00649553 0.00448215 0.0056853 0.00662578 0.00219592 -0.0119535 0.00131314 -0.0132001 0.0139882 -0.0143841 -0.0133586 0.0130516 -0.00481095 0.0037534 0.00990839 -0.0142228 0.0119101 -0.00240037 -0.0145877 -0.0195753 -0.0203162
internal_weight=1.23137e+06 1.18207e+06 1.07597e+06 1.04212e+06 999564 950527 554511 396016 221794 175423 332717 224586 214505 246887 106101 235119 101581 171430 97226.4 93955.1 163327 66993 168126 136202 49037.2 151291 114893 89388.1 49296.3 33850.1
internal_count=5000000 4800969 4372583 4235854 4064010 3865863 2247555 1618308 895970 708694 1351585 913529 872796 1001152 428386 953046 410109 704779 392463 379275 670994 270322 682724 556259 198147 621146 464269 360818 199031 136729
is_linear=0
shrinkage=0.1


Tree=24
num_leaves=31
num_cat=0
split_feature=52 348 351 375 378 384 348 28 357 357 375 28 357 80 64 348 366 387 330 384 321 303 41 357 5 360 11 348 339 357
